<?xml version="1.0"?>
<PMML version="4.0" xmlns="http://www.dmg.org/PMML-4_0" xmlns:xsi="http://www.w3.org/2001/XMLSchema-instance" xsi:schemaLocation="http://www.dmg.org/PMML-4_0 http://www.dmg.org/v4-0/pmml-4-0.xsd">
 <Header copyright="Copyright (c) 2013 michal" description="Random Forest Tree Model">
  <Extension name="user" value="michal" extender="Rattle/PMML"/>
  <Application name="Rattle/PMML" version="1.2.30"/>
  <Timestamp>2013-02-18 23:32:20</Timestamp>
 </Header>
 <DataDictionary numberOfFields="7">
  <DataField name="cylinders" optype="categorical" dataType="string">
   <Value value="3"/>
   <Value value="4"/>
   <Value value="5"/>
   <Value value="6"/>
   <Value value="8"/>
  </DataField>
  <DataField name="economy" optype="continuous" dataType="double"/>
  <DataField name="displacement" optype="continuous" dataType="double"/>
  <DataField name="power" optype="continuous" dataType="double"/>
  <DataField name="weight" optype="continuous" dataType="double"/>
  <DataField name="speed" optype="continuous" dataType="double"/>
  <DataField name="year" optype="categorical" dataType="string">
   <Value value="70"/>
   <Value value="71"/>
   <Value value="72"/>
   <Value value="73"/>
   <Value value="74"/>
   <Value value="75"/>
   <Value value="76"/>
   <Value value="77"/>
   <Value value="78"/>
   <Value value="79"/>
   <Value value="80"/>
   <Value value="81"/>
   <Value value="82"/>
  </DataField>
 </DataDictionary>
 <MiningModel modelName="randomForest_Model" functionName="classification">
  <MiningSchema>
   <MiningField name="cylinders" usageType="predicted"/>
   <MiningField name="economy" usageType="active"/>
   <MiningField name="displacement" usageType="active"/>
   <MiningField name="power" usageType="active"/>
   <MiningField name="weight" usageType="active"/>
   <MiningField name="speed" usageType="active"/>
   <MiningField name="year" usageType="active"/>
  </MiningSchema>
  <Segmentation multipleModelMethod="majorityVote">
   <Segment id="1">
    <True/>
    <TreeModel modelName="randomForest_Model" functionName="classification" algorithmName="randomForest" splitCharacteristic="binarySplit">
     <MiningSchema>
      <MiningField name="cylinders" usageType="predicted"/>
      <MiningField name="economy" usageType="active"/>
      <MiningField name="displacement" usageType="active"/>
      <MiningField name="power" usageType="active"/>
      <MiningField name="weight" usageType="active"/>
      <MiningField name="speed" usageType="active"/>
      <MiningField name="year" usageType="active"/>
     </MiningSchema>
     <Node id="1">
      <True/>
      <Node id="2">
       <SimplePredicate field="displacement" operator="lessOrEqual" value="162"/>
       <Node id="4">
        <SimplePredicate field="power" operator="lessOrEqual" value="96.5"/>
        <Node id="8">
         <SimplePredicate field="displacement" operator="lessOrEqual" value="73"/>
         <Node id="16" score="3">
          <SimplePredicate field="speed" operator="lessOrEqual" value="16.5"/>
         </Node>
         <Node id="17" score="4">
          <SimplePredicate field="speed" operator="greaterThan" value="16.5"/>
         </Node>
        </Node>
        <Node id="9">
         <SimplePredicate field="displacement" operator="greaterThan" value="73"/>
         <Node id="18" score="4">
          <SimplePredicate field="weight" operator="lessOrEqual" value="2920"/>
         </Node>
         <Node id="19">
          <SimplePredicate field="weight" operator="greaterThan" value="2920"/>
          <Node id="28" score="4">
           <SimplePredicate field="economy" operator="lessOrEqual" value="33.2"/>
          </Node>
          <Node id="29" score="5">
           <SimplePredicate field="economy" operator="greaterThan" value="33.2"/>
          </Node>
         </Node>
        </Node>
       </Node>
       <Node id="5">
        <SimplePredicate field="power" operator="greaterThan" value="96.5"/>
        <Node id="10">
         <SimplePredicate field="economy" operator="lessOrEqual" value="22.6"/>
         <Node id="20" score="3">
          <SimplePredicate field="speed" operator="lessOrEqual" value="13.75"/>
         </Node>
         <Node id="21">
          <SimplePredicate field="speed" operator="greaterThan" value="13.75"/>
          <Node id="30">
           <SimplePredicate field="power" operator="lessOrEqual" value="110"/>
           <Node id="36" score="6">
            <SimplePredicate field="economy" operator="lessOrEqual" value="21.5"/>
           </Node>
           <Node id="37">
            <SimplePredicate field="economy" operator="greaterThan" value="21.5"/>
            <Node id="42" score="4">
             <SimplePredicate field="displacement" operator="lessOrEqual" value="133.5"/>
            </Node>
            <Node id="43" score="6">
             <SimplePredicate field="displacement" operator="greaterThan" value="133.5"/>
            </Node>
           </Node>
          </Node>
          <Node id="31" score="4">
           <SimplePredicate field="power" operator="greaterThan" value="110"/>
          </Node>
         </Node>
        </Node>
        <Node id="11">
         <SimplePredicate field="economy" operator="greaterThan" value="22.6"/>
         <Node id="22" score="3">
          <SimplePredicate field="speed" operator="lessOrEqual" value="13"/>
         </Node>
         <Node id="23" score="4">
          <SimplePredicate field="speed" operator="greaterThan" value="13"/>
         </Node>
        </Node>
       </Node>
      </Node>
      <Node id="3">
       <SimplePredicate field="displacement" operator="greaterThan" value="162"/>
       <Node id="6">
        <SimplePredicate field="economy" operator="lessOrEqual" value="17.55"/>
        <Node id="12" score="6">
         <SimplePredicate field="displacement" operator="lessOrEqual" value="259"/>
        </Node>
        <Node id="13" score="8">
         <SimplePredicate field="displacement" operator="greaterThan" value="259"/>
        </Node>
       </Node>
       <Node id="7">
        <SimplePredicate field="economy" operator="greaterThan" value="17.55"/>
        <Node id="14">
         <SimplePredicate field="power" operator="lessOrEqual" value="122.5"/>
         <Node id="24">
          <SimplePredicate field="speed" operator="lessOrEqual" value="18.85"/>
          <Node id="32" score="6">
           <SimplePredicate field="displacement" operator="lessOrEqual" value="259"/>
          </Node>
          <Node id="33">
           <SimplePredicate field="displacement" operator="greaterThan" value="259"/>
           <Node id="38" score="6">
            <SimplePredicate field="power" operator="lessOrEqual" value="97.5"/>
           </Node>
           <Node id="39" score="8">
            <SimplePredicate field="power" operator="greaterThan" value="97.5"/>
           </Node>
          </Node>
         </Node>
         <Node id="25">
          <SimplePredicate field="speed" operator="greaterThan" value="18.85"/>
          <Node id="34">
           <SimplePredicate field="displacement" operator="lessOrEqual" value="255"/>
           <Node id="40" score="6">
            <SimpleSetPredicate field="year" booleanOperator="isIn">
             <Array n="6" type="string">&quot;70&quot;   &quot;73&quot;   &quot;74&quot;   &quot;75&quot;   &quot;77&quot;   &quot;82&quot;</Array>
            </SimpleSetPredicate>
           </Node>
           <Node id="41" score="5">
            <SimpleSetPredicate field="year" booleanOperator="isIn">
             <Array n="7" type="string">&quot;71&quot;   &quot;72&quot;   &quot;76&quot;   &quot;78&quot;   &quot;79&quot;   &quot;80&quot;   &quot;81&quot;</Array>
            </SimpleSetPredicate>
           </Node>
          </Node>
          <Node id="35" score="8">
           <SimplePredicate field="displacement" operator="greaterThan" value="255"/>
          </Node>
         </Node>
        </Node>
        <Node id="15">
         <SimplePredicate field="power" operator="greaterThan" value="122.5"/>
         <Node id="26" score="6">
          <SimplePredicate field="weight" operator="lessOrEqual" value="3057.5"/>
         </Node>
         <Node id="27" score="8">
          <SimplePredicate field="weight" operator="greaterThan" value="3057.5"/>
         </Node>
        </Node>
       </Node>
      </Node>
     </Node>
    </TreeModel>
   </Segment>
   <Segment id="2">
    <True/>
    <TreeModel modelName="randomForest_Model" functionName="classification" algorithmName="randomForest" splitCharacteristic="binarySplit">
     <MiningSchema>
      <MiningField name="cylinders" usageType="predicted"/>
      <MiningField name="economy" usageType="active"/>
      <MiningField name="displacement" usageType="active"/>
      <MiningField name="power" usageType="active"/>
      <MiningField name="weight" usageType="active"/>
      <MiningField name="speed" usageType="active"/>
      <MiningField name="year" usageType="active"/>
     </MiningSchema>
     <Node id="1">
      <True/>
      <Node id="2">
       <SimplePredicate field="weight" operator="lessOrEqual" value="2805"/>
       <Node id="4">
        <SimplePredicate field="power" operator="lessOrEqual" value="96.5"/>
        <Node id="8">
         <SimpleSetPredicate field="year" booleanOperator="isIn">
          <Array n="2" type="string">&quot;73&quot;   &quot;75&quot;</Array>
         </SimpleSetPredicate>
         <Node id="16">
          <SimplePredicate field="weight" operator="lessOrEqual" value="2141"/>
          <Node id="28" score="4">
           <SimplePredicate field="power" operator="lessOrEqual" value="69.5"/>
          </Node>
          <Node id="29" score="3">
           <SimplePredicate field="power" operator="greaterThan" value="69.5"/>
          </Node>
         </Node>
         <Node id="17" score="4">
          <SimplePredicate field="weight" operator="greaterThan" value="2141"/>
         </Node>
        </Node>
        <Node id="9">
         <SimpleSetPredicate field="year" booleanOperator="isIn">
          <Array n="11" type="string">&quot;70&quot;   &quot;71&quot;   &quot;72&quot;   &quot;74&quot;   &quot;76&quot;   &quot;77&quot;   &quot;78&quot;   &quot;79&quot;   &quot;80&quot;   &quot;81&quot;   &quot;82&quot;</Array>
         </SimpleSetPredicate>
         <Node id="18">
          <SimplePredicate field="economy" operator="lessOrEqual" value="21.5"/>
          <Node id="30" score="4">
           <SimplePredicate field="weight" operator="lessOrEqual" value="2497.5"/>
          </Node>
          <Node id="31" score="6">
           <SimplePredicate field="weight" operator="greaterThan" value="2497.5"/>
          </Node>
         </Node>
         <Node id="19" score="4">
          <SimplePredicate field="economy" operator="greaterThan" value="21.5"/>
         </Node>
        </Node>
       </Node>
       <Node id="5">
        <SimplePredicate field="power" operator="greaterThan" value="96.5"/>
        <Node id="10">
         <SimplePredicate field="speed" operator="lessOrEqual" value="14.25"/>
         <Node id="20">
          <SimplePredicate field="weight" operator="lessOrEqual" value="2401"/>
          <Node id="32" score="3">
           <SimplePredicate field="economy" operator="lessOrEqual" value="22.5"/>
          </Node>
          <Node id="33" score="4">
           <SimplePredicate field="economy" operator="greaterThan" value="22.5"/>
          </Node>
         </Node>
         <Node id="21">
          <SimplePredicate field="weight" operator="greaterThan" value="2401"/>
          <Node id="34">
           <SimpleSetPredicate field="year" booleanOperator="isIn">
            <Array n="7" type="string">&quot;72&quot;   &quot;75&quot;   &quot;76&quot;   &quot;77&quot;   &quot;78&quot;   &quot;80&quot;   &quot;82&quot;</Array>
           </SimpleSetPredicate>
           <Node id="40">
            <SimplePredicate field="economy" operator="lessOrEqual" value="23.25"/>
            <Node id="48" score="4">
             <SimplePredicate field="weight" operator="lessOrEqual" value="2660"/>
            </Node>
            <Node id="49" score="3">
             <SimplePredicate field="weight" operator="greaterThan" value="2660"/>
            </Node>
           </Node>
           <Node id="41" score="4">
            <SimplePredicate field="economy" operator="greaterThan" value="23.25"/>
           </Node>
          </Node>
          <Node id="35">
           <SimpleSetPredicate field="year" booleanOperator="isIn">
            <Array n="6" type="string">&quot;70&quot;   &quot;71&quot;   &quot;73&quot;   &quot;74&quot;   &quot;79&quot;   &quot;81&quot;</Array>
           </SimpleSetPredicate>
           <Node id="42" score="6">
            <SimplePredicate field="economy" operator="lessOrEqual" value="23.75"/>
           </Node>
           <Node id="43">
            <SimplePredicate field="economy" operator="greaterThan" value="23.75"/>
            <Node id="50" score="6">
             <SimplePredicate field="speed" operator="lessOrEqual" value="12.65"/>
            </Node>
            <Node id="51" score="4">
             <SimplePredicate field="speed" operator="greaterThan" value="12.65"/>
            </Node>
           </Node>
          </Node>
         </Node>
        </Node>
        <Node id="11" score="4">
         <SimplePredicate field="speed" operator="greaterThan" value="14.25"/>
        </Node>
       </Node>
      </Node>
      <Node id="3">
       <SimplePredicate field="weight" operator="greaterThan" value="2805"/>
       <Node id="6">
        <SimplePredicate field="weight" operator="lessOrEqual" value="3658.5"/>
        <Node id="12">
         <SimplePredicate field="power" operator="lessOrEqual" value="127"/>
         <Node id="22">
          <SimpleSetPredicate field="year" booleanOperator="isIn">
           <Array n="3" type="string">&quot;72&quot;   &quot;80&quot;   &quot;82&quot;</Array>
          </SimpleSetPredicate>
          <Node id="36">
           <SimplePredicate field="speed" operator="lessOrEqual" value="19.1"/>
           <Node id="44" score="4">
            <SimplePredicate field="displacement" operator="lessOrEqual" value="188"/>
           </Node>
           <Node id="45" score="6">
            <SimplePredicate field="displacement" operator="greaterThan" value="188"/>
           </Node>
          </Node>
          <Node id="37" score="4">
           <SimplePredicate field="speed" operator="greaterThan" value="19.1"/>
          </Node>
         </Node>
         <Node id="23">
          <SimpleSetPredicate field="year" booleanOperator="isIn">
           <Array n="10" type="string">&quot;70&quot;   &quot;71&quot;   &quot;73&quot;   &quot;74&quot;   &quot;75&quot;   &quot;76&quot;   &quot;77&quot;   &quot;78&quot;   &quot;79&quot;   &quot;81&quot;</Array>
          </SimpleSetPredicate>
          <Node id="38">
           <SimplePredicate field="displacement" operator="lessOrEqual" value="259"/>
           <Node id="46" score="4">
            <SimplePredicate field="displacement" operator="lessOrEqual" value="143"/>
           </Node>
           <Node id="47" score="6">
            <SimplePredicate field="displacement" operator="greaterThan" value="143"/>
           </Node>
          </Node>
          <Node id="39" score="8">
           <SimplePredicate field="displacement" operator="greaterThan" value="259"/>
          </Node>
         </Node>
        </Node>
        <Node id="13">
         <SimplePredicate field="power" operator="greaterThan" value="127"/>
         <Node id="24" score="8">
          <SimplePredicate field="economy" operator="lessOrEqual" value="26.45"/>
         </Node>
         <Node id="25" score="6">
          <SimplePredicate field="economy" operator="greaterThan" value="26.45"/>
         </Node>
        </Node>
       </Node>
       <Node id="7">
        <SimplePredicate field="weight" operator="greaterThan" value="3658.5"/>
        <Node id="14" score="8">
         <SimplePredicate field="speed" operator="lessOrEqual" value="16.05"/>
        </Node>
        <Node id="15">
         <SimplePredicate field="speed" operator="greaterThan" value="16.05"/>
         <Node id="26" score="8">
          <SimpleSetPredicate field="year" booleanOperator="isIn">
           <Array n="6" type="string">&quot;70&quot;   &quot;71&quot;   &quot;73&quot;   &quot;77&quot;   &quot;79&quot;   &quot;81&quot;</Array>
          </SimpleSetPredicate>
         </Node>
         <Node id="27" score="6">
          <SimpleSetPredicate field="year" booleanOperator="isIn">
           <Array n="7" type="string">&quot;72&quot;   &quot;74&quot;   &quot;75&quot;   &quot;76&quot;   &quot;78&quot;   &quot;80&quot;   &quot;82&quot;</Array>
          </SimpleSetPredicate>
         </Node>
        </Node>
       </Node>
      </Node>
     </Node>
    </TreeModel>
   </Segment>
   <Segment id="3">
    <True/>
    <TreeModel modelName="randomForest_Model" functionName="classification" algorithmName="randomForest" splitCharacteristic="binarySplit">
     <MiningSchema>
      <MiningField name="cylinders" usageType="predicted"/>
      <MiningField name="economy" usageType="active"/>
      <MiningField name="displacement" usageType="active"/>
      <MiningField name="power" usageType="active"/>
      <MiningField name="weight" usageType="active"/>
      <MiningField name="speed" usageType="active"/>
      <MiningField name="year" usageType="active"/>
     </MiningSchema>
     <Node id="1">
      <True/>
      <Node id="2">
       <SimplePredicate field="displacement" operator="lessOrEqual" value="159.5"/>
       <Node id="4">
        <SimplePredicate field="power" operator="lessOrEqual" value="96.5"/>
        <Node id="8">
         <SimplePredicate field="weight" operator="lessOrEqual" value="2920"/>
         <Node id="16" score="3">
          <SimplePredicate field="displacement" operator="lessOrEqual" value="70.5"/>
         </Node>
         <Node id="17" score="4">
          <SimplePredicate field="displacement" operator="greaterThan" value="70.5"/>
         </Node>
        </Node>
        <Node id="9">
         <SimplePredicate field="weight" operator="greaterThan" value="2920"/>
         <Node id="18">
          <SimplePredicate field="weight" operator="lessOrEqual" value="2953.5"/>
          <Node id="24" score="4">
           <SimplePredicate field="economy" operator="lessOrEqual" value="31.7"/>
          </Node>
          <Node id="25" score="5">
           <SimplePredicate field="economy" operator="greaterThan" value="31.7"/>
          </Node>
         </Node>
         <Node id="19">
          <SimplePredicate field="weight" operator="greaterThan" value="2953.5"/>
          <Node id="26" score="4">
           <SimpleSetPredicate field="year" booleanOperator="isIn">
            <Array n="10" type="string">&quot;70&quot;   &quot;71&quot;   &quot;72&quot;   &quot;73&quot;   &quot;75&quot;   &quot;77&quot;   &quot;78&quot;   &quot;79&quot;   &quot;80&quot;   &quot;82&quot;</Array>
           </SimpleSetPredicate>
          </Node>
          <Node id="27">
           <SimpleSetPredicate field="year" booleanOperator="isIn">
            <Array n="3" type="string">&quot;74&quot;   &quot;76&quot;   &quot;81&quot;</Array>
           </SimpleSetPredicate>
           <Node id="30" score="6">
            <SimplePredicate field="weight" operator="lessOrEqual" value="3195"/>
           </Node>
           <Node id="31" score="4">
            <SimplePredicate field="weight" operator="greaterThan" value="3195"/>
           </Node>
          </Node>
         </Node>
        </Node>
       </Node>
       <Node id="5">
        <SimplePredicate field="power" operator="greaterThan" value="96.5"/>
        <Node id="10">
         <SimplePredicate field="economy" operator="lessOrEqual" value="23.8"/>
         <Node id="20" score="3">
          <SimplePredicate field="speed" operator="lessOrEqual" value="13.75"/>
         </Node>
         <Node id="21">
          <SimplePredicate field="speed" operator="greaterThan" value="13.75"/>
          <Node id="28">
           <SimplePredicate field="economy" operator="lessOrEqual" value="21.5"/>
           <Node id="32" score="6">
            <SimplePredicate field="weight" operator="lessOrEqual" value="3040"/>
           </Node>
           <Node id="33" score="4">
            <SimplePredicate field="weight" operator="greaterThan" value="3040"/>
           </Node>
          </Node>
          <Node id="29" score="4">
           <SimplePredicate field="economy" operator="greaterThan" value="21.5"/>
          </Node>
         </Node>
        </Node>
        <Node id="11" score="4">
         <SimplePredicate field="economy" operator="greaterThan" value="23.8"/>
        </Node>
       </Node>
      </Node>
      <Node id="3">
       <SimplePredicate field="displacement" operator="greaterThan" value="159.5"/>
       <Node id="6">
        <SimplePredicate field="power" operator="lessOrEqual" value="118"/>
        <Node id="12" score="6">
         <SimpleSetPredicate field="year" booleanOperator="isIn">
          <Array n="9" type="string">&quot;71&quot;   &quot;73&quot;   &quot;74&quot;   &quot;75&quot;   &quot;76&quot;   &quot;78&quot;   &quot;79&quot;   &quot;81&quot;   &quot;82&quot;</Array>
         </SimpleSetPredicate>
        </Node>
        <Node id="13">
         <SimpleSetPredicate field="year" booleanOperator="isIn">
          <Array n="4" type="string">&quot;70&quot;   &quot;72&quot;   &quot;77&quot;   &quot;80&quot;</Array>
         </SimpleSetPredicate>
         <Node id="22" score="6">
          <SimplePredicate field="weight" operator="lessOrEqual" value="3845"/>
         </Node>
         <Node id="23" score="8">
          <SimplePredicate field="weight" operator="greaterThan" value="3845"/>
         </Node>
        </Node>
       </Node>
       <Node id="7">
        <SimplePredicate field="power" operator="greaterThan" value="118"/>
        <Node id="14" score="6">
         <SimplePredicate field="displacement" operator="lessOrEqual" value="235"/>
        </Node>
        <Node id="15" score="8">
         <SimplePredicate field="displacement" operator="greaterThan" value="235"/>
        </Node>
       </Node>
      </Node>
     </Node>
    </TreeModel>
   </Segment>
   <Segment id="4">
    <True/>
    <TreeModel modelName="randomForest_Model" functionName="classification" algorithmName="randomForest" splitCharacteristic="binarySplit">
     <MiningSchema>
      <MiningField name="cylinders" usageType="predicted"/>
      <MiningField name="economy" usageType="active"/>
      <MiningField name="displacement" usageType="active"/>
      <MiningField name="power" usageType="active"/>
      <MiningField name="weight" usageType="active"/>
      <MiningField name="speed" usageType="active"/>
      <MiningField name="year" usageType="active"/>
     </MiningSchema>
     <Node id="1">
      <True/>
      <Node id="2">
       <SimplePredicate field="displacement" operator="lessOrEqual" value="159.5"/>
       <Node id="4">
        <SimplePredicate field="power" operator="lessOrEqual" value="117.5"/>
        <Node id="8">
         <SimplePredicate field="weight" operator="lessOrEqual" value="2807.5"/>
         <Node id="14">
          <SimplePredicate field="displacement" operator="lessOrEqual" value="70.5"/>
          <Node id="20" score="3">
           <SimplePredicate field="speed" operator="lessOrEqual" value="16.5"/>
          </Node>
          <Node id="21" score="4">
           <SimplePredicate field="speed" operator="greaterThan" value="16.5"/>
          </Node>
         </Node>
         <Node id="15">
          <SimplePredicate field="displacement" operator="greaterThan" value="70.5"/>
          <Node id="22">
           <SimplePredicate field="weight" operator="lessOrEqual" value="2715.5"/>
           <Node id="28" score="4">
            <SimplePredicate field="displacement" operator="lessOrEqual" value="153"/>
           </Node>
           <Node id="29">
            <SimplePredicate field="displacement" operator="greaterThan" value="153"/>
            <Node id="34" score="6">
             <SimplePredicate field="economy" operator="lessOrEqual" value="23.4"/>
            </Node>
            <Node id="35" score="4">
             <SimplePredicate field="economy" operator="greaterThan" value="23.4"/>
            </Node>
           </Node>
          </Node>
          <Node id="23">
           <SimplePredicate field="weight" operator="greaterThan" value="2715.5"/>
           <Node id="30" score="4">
            <SimplePredicate field="power" operator="lessOrEqual" value="107.5"/>
           </Node>
           <Node id="31" score="3">
            <SimplePredicate field="power" operator="greaterThan" value="107.5"/>
           </Node>
          </Node>
         </Node>
        </Node>
        <Node id="9">
         <SimplePredicate field="weight" operator="greaterThan" value="2807.5"/>
         <Node id="16">
          <SimplePredicate field="power" operator="lessOrEqual" value="102.5"/>
          <Node id="24" score="6">
           <SimplePredicate field="speed" operator="lessOrEqual" value="15.1"/>
          </Node>
          <Node id="25">
           <SimplePredicate field="speed" operator="greaterThan" value="15.1"/>
           <Node id="32" score="4">
            <SimplePredicate field="economy" operator="lessOrEqual" value="33.2"/>
           </Node>
           <Node id="33" score="5">
            <SimplePredicate field="economy" operator="greaterThan" value="33.2"/>
           </Node>
          </Node>
         </Node>
         <Node id="17">
          <SimplePredicate field="power" operator="greaterThan" value="102.5"/>
          <Node id="26" score="4">
           <SimplePredicate field="economy" operator="lessOrEqual" value="19.15"/>
          </Node>
          <Node id="27" score="5">
           <SimplePredicate field="economy" operator="greaterThan" value="19.15"/>
          </Node>
         </Node>
        </Node>
       </Node>
       <Node id="5" score="6">
        <SimplePredicate field="power" operator="greaterThan" value="117.5"/>
       </Node>
      </Node>
      <Node id="3">
       <SimplePredicate field="displacement" operator="greaterThan" value="159.5"/>
       <Node id="6">
        <SimplePredicate field="power" operator="lessOrEqual" value="125"/>
        <Node id="10" score="6">
         <SimplePredicate field="displacement" operator="lessOrEqual" value="259"/>
        </Node>
        <Node id="11" score="8">
         <SimplePredicate field="displacement" operator="greaterThan" value="259"/>
        </Node>
       </Node>
       <Node id="7">
        <SimplePredicate field="power" operator="greaterThan" value="125"/>
        <Node id="12" score="8">
         <SimpleSetPredicate field="year" booleanOperator="isIn">
          <Array n="12" type="string">&quot;70&quot;   &quot;71&quot;   &quot;72&quot;   &quot;73&quot;   &quot;74&quot;   &quot;75&quot;   &quot;76&quot;   &quot;77&quot;   &quot;79&quot;   &quot;80&quot;   &quot;81&quot;   &quot;82&quot;</Array>
         </SimpleSetPredicate>
        </Node>
        <Node id="13">
         <SimpleSetPredicate field="year" booleanOperator="isIn">
          <Array n="1" type="string">&quot;78&quot;</Array>
         </SimpleSetPredicate>
         <Node id="18" score="6">
          <SimplePredicate field="economy" operator="lessOrEqual" value="17.7"/>
         </Node>
         <Node id="19" score="8">
          <SimplePredicate field="economy" operator="greaterThan" value="17.7"/>
         </Node>
        </Node>
       </Node>
      </Node>
     </Node>
    </TreeModel>
   </Segment>
   <Segment id="5">
    <True/>
    <TreeModel modelName="randomForest_Model" functionName="classification" algorithmName="randomForest" splitCharacteristic="binarySplit">
     <MiningSchema>
      <MiningField name="cylinders" usageType="predicted"/>
      <MiningField name="economy" usageType="active"/>
      <MiningField name="displacement" usageType="active"/>
      <MiningField name="power" usageType="active"/>
      <MiningField name="weight" usageType="active"/>
      <MiningField name="speed" usageType="active"/>
      <MiningField name="year" usageType="active"/>
     </MiningSchema>
     <Node id="1">
      <True/>
      <Node id="2">
       <SimplePredicate field="economy" operator="lessOrEqual" value="21.05"/>
       <Node id="4">
        <SimplePredicate field="power" operator="lessOrEqual" value="127"/>
        <Node id="8">
         <SimplePredicate field="weight" operator="lessOrEqual" value="2401"/>
         <Node id="14" score="4">
          <SimplePredicate field="power" operator="lessOrEqual" value="91.5"/>
         </Node>
         <Node id="15" score="3">
          <SimplePredicate field="power" operator="greaterThan" value="91.5"/>
         </Node>
        </Node>
        <Node id="9">
         <SimplePredicate field="weight" operator="greaterThan" value="2401"/>
         <Node id="16">
          <SimplePredicate field="power" operator="lessOrEqual" value="109"/>
          <Node id="24" score="4">
           <SimplePredicate field="displacement" operator="lessOrEqual" value="142.5"/>
          </Node>
          <Node id="25" score="6">
           <SimplePredicate field="displacement" operator="greaterThan" value="142.5"/>
          </Node>
         </Node>
         <Node id="17">
          <SimplePredicate field="power" operator="greaterThan" value="109"/>
          <Node id="26">
           <SimplePredicate field="economy" operator="lessOrEqual" value="18.8"/>
           <Node id="30" score="4">
            <SimpleSetPredicate field="year" booleanOperator="isIn">
             <Array n="3" type="string">&quot;72&quot;   &quot;73&quot;   &quot;82&quot;</Array>
            </SimpleSetPredicate>
           </Node>
           <Node id="31">
            <SimpleSetPredicate field="year" booleanOperator="isIn">
             <Array n="10" type="string">&quot;70&quot;   &quot;71&quot;   &quot;74&quot;   &quot;75&quot;   &quot;76&quot;   &quot;77&quot;   &quot;78&quot;   &quot;79&quot;   &quot;80&quot;   &quot;81&quot;</Array>
            </SimpleSetPredicate>
            <Node id="38" score="6">
             <SimplePredicate field="weight" operator="lessOrEqual" value="3934.5"/>
            </Node>
            <Node id="39" score="8">
             <SimplePredicate field="weight" operator="greaterThan" value="3934.5"/>
            </Node>
           </Node>
          </Node>
          <Node id="27">
           <SimplePredicate field="economy" operator="greaterThan" value="18.8"/>
           <Node id="32">
            <SimplePredicate field="displacement" operator="lessOrEqual" value="245.5"/>
            <Node id="40" score="6">
             <SimplePredicate field="power" operator="lessOrEqual" value="111"/>
            </Node>
            <Node id="41">
             <SimplePredicate field="power" operator="greaterThan" value="111"/>
             <Node id="44" score="4">
              <SimplePredicate field="economy" operator="lessOrEqual" value="19.5"/>
             </Node>
             <Node id="45" score="6">
              <SimplePredicate field="economy" operator="greaterThan" value="19.5"/>
             </Node>
            </Node>
           </Node>
           <Node id="33" score="8">
            <SimplePredicate field="displacement" operator="greaterThan" value="245.5"/>
           </Node>
          </Node>
         </Node>
        </Node>
       </Node>
       <Node id="5">
        <SimplePredicate field="power" operator="greaterThan" value="127"/>
        <Node id="10" score="8">
         <SimplePredicate field="speed" operator="lessOrEqual" value="15.65"/>
        </Node>
        <Node id="11">
         <SimplePredicate field="speed" operator="greaterThan" value="15.65"/>
         <Node id="18" score="6">
          <SimplePredicate field="displacement" operator="lessOrEqual" value="232.5"/>
         </Node>
         <Node id="19" score="8">
          <SimplePredicate field="displacement" operator="greaterThan" value="232.5"/>
         </Node>
        </Node>
       </Node>
      </Node>
      <Node id="3">
       <SimplePredicate field="economy" operator="greaterThan" value="21.05"/>
       <Node id="6" score="6">
        <SimplePredicate field="speed" operator="lessOrEqual" value="11.8"/>
       </Node>
       <Node id="7">
        <SimplePredicate field="speed" operator="greaterThan" value="11.8"/>
        <Node id="12">
         <SimplePredicate field="displacement" operator="lessOrEqual" value="164.5"/>
         <Node id="20">
          <SimplePredicate field="speed" operator="lessOrEqual" value="13.85"/>
          <Node id="28">
           <SimplePredicate field="weight" operator="lessOrEqual" value="2695.5"/>
           <Node id="34" score="4">
            <SimplePredicate field="weight" operator="lessOrEqual" value="2402.5"/>
           </Node>
           <Node id="35">
            <SimplePredicate field="weight" operator="greaterThan" value="2402.5"/>
            <Node id="42" score="3">
             <SimplePredicate field="speed" operator="lessOrEqual" value="12.65"/>
            </Node>
            <Node id="43" score="4">
             <SimplePredicate field="speed" operator="greaterThan" value="12.65"/>
            </Node>
           </Node>
          </Node>
          <Node id="29">
           <SimplePredicate field="weight" operator="greaterThan" value="2695.5"/>
           <Node id="36" score="3">
            <SimplePredicate field="weight" operator="lessOrEqual" value="2825"/>
           </Node>
           <Node id="37" score="6">
            <SimplePredicate field="weight" operator="greaterThan" value="2825"/>
           </Node>
          </Node>
         </Node>
         <Node id="21" score="4">
          <SimplePredicate field="speed" operator="greaterThan" value="13.85"/>
         </Node>
        </Node>
        <Node id="13">
         <SimplePredicate field="displacement" operator="greaterThan" value="164.5"/>
         <Node id="22" score="6">
          <SimplePredicate field="weight" operator="lessOrEqual" value="3417.5"/>
         </Node>
         <Node id="23" score="8">
          <SimplePredicate field="weight" operator="greaterThan" value="3417.5"/>
         </Node>
        </Node>
       </Node>
      </Node>
     </Node>
    </TreeModel>
   </Segment>
   <Segment id="6">
    <True/>
    <TreeModel modelName="randomForest_Model" functionName="classification" algorithmName="randomForest" splitCharacteristic="binarySplit">
     <MiningSchema>
      <MiningField name="cylinders" usageType="predicted"/>
      <MiningField name="economy" usageType="active"/>
      <MiningField name="displacement" usageType="active"/>
      <MiningField name="power" usageType="active"/>
      <MiningField name="weight" usageType="active"/>
      <MiningField name="speed" usageType="active"/>
      <MiningField name="year" usageType="active"/>
     </MiningSchema>
     <Node id="1">
      <True/>
      <Node id="2">
       <SimplePredicate field="economy" operator="lessOrEqual" value="20.9"/>
       <Node id="4">
        <SimplePredicate field="power" operator="lessOrEqual" value="123.5"/>
        <Node id="8">
         <SimpleSetPredicate field="year" booleanOperator="isIn">
          <Array n="9" type="string">&quot;70&quot;   &quot;71&quot;   &quot;74&quot;   &quot;75&quot;   &quot;77&quot;   &quot;78&quot;   &quot;79&quot;   &quot;81&quot;   &quot;82&quot;</Array>
         </SimpleSetPredicate>
         <Node id="16">
          <SimplePredicate field="displacement" operator="lessOrEqual" value="255"/>
          <Node id="32" score="6">
           <SimplePredicate field="economy" operator="lessOrEqual" value="20.25"/>
          </Node>
          <Node id="33">
           <SimplePredicate field="economy" operator="greaterThan" value="20.25"/>
           <Node id="40">
            <SimplePredicate field="power" operator="lessOrEqual" value="104"/>
            <Node id="48" score="5">
             <SimplePredicate field="economy" operator="lessOrEqual" value="20.55"/>
            </Node>
            <Node id="49" score="6">
             <SimplePredicate field="economy" operator="greaterThan" value="20.55"/>
            </Node>
           </Node>
           <Node id="41" score="6">
            <SimplePredicate field="power" operator="greaterThan" value="104"/>
           </Node>
          </Node>
         </Node>
         <Node id="17" score="8">
          <SimplePredicate field="displacement" operator="greaterThan" value="255"/>
         </Node>
        </Node>
        <Node id="9">
         <SimpleSetPredicate field="year" booleanOperator="isIn">
          <Array n="4" type="string">&quot;72&quot;   &quot;73&quot;   &quot;76&quot;   &quot;80&quot;</Array>
         </SimpleSetPredicate>
         <Node id="18">
          <SimplePredicate field="displacement" operator="lessOrEqual" value="143"/>
          <Node id="34" score="4">
           <SimpleSetPredicate field="year" booleanOperator="isIn">
            <Array n="3" type="string">&quot;71&quot;   &quot;73&quot;   &quot;76&quot;</Array>
           </SimpleSetPredicate>
          </Node>
          <Node id="35">
           <SimpleSetPredicate field="year" booleanOperator="isIn">
            <Array n="10" type="string">&quot;70&quot;   &quot;72&quot;   &quot;74&quot;   &quot;75&quot;   &quot;77&quot;   &quot;78&quot;   &quot;79&quot;   &quot;80&quot;   &quot;81&quot;   &quot;82&quot;</Array>
           </SimpleSetPredicate>
           <Node id="42" score="3">
            <SimplePredicate field="power" operator="lessOrEqual" value="104.5"/>
           </Node>
           <Node id="43" score="4">
            <SimplePredicate field="power" operator="greaterThan" value="104.5"/>
           </Node>
          </Node>
         </Node>
         <Node id="19">
          <SimplePredicate field="displacement" operator="greaterThan" value="143"/>
          <Node id="36" score="6">
           <SimplePredicate field="weight" operator="lessOrEqual" value="3891"/>
          </Node>
          <Node id="37" score="8">
           <SimplePredicate field="weight" operator="greaterThan" value="3891"/>
          </Node>
         </Node>
        </Node>
       </Node>
       <Node id="5">
        <SimplePredicate field="power" operator="greaterThan" value="123.5"/>
        <Node id="10">
         <SimplePredicate field="power" operator="lessOrEqual" value="127"/>
         <Node id="20" score="6">
          <SimpleSetPredicate field="year" booleanOperator="isIn">
           <Array n="5" type="string">&quot;70&quot;   &quot;71&quot;   &quot;76&quot;   &quot;78&quot;   &quot;81&quot;</Array>
          </SimpleSetPredicate>
         </Node>
         <Node id="21" score="8">
          <SimpleSetPredicate field="year" booleanOperator="isIn">
           <Array n="8" type="string">&quot;72&quot;   &quot;73&quot;   &quot;74&quot;   &quot;75&quot;   &quot;77&quot;   &quot;79&quot;   &quot;80&quot;   &quot;82&quot;</Array>
          </SimpleSetPredicate>
         </Node>
        </Node>
        <Node id="11">
         <SimplePredicate field="power" operator="greaterThan" value="127"/>
         <Node id="22" score="6">
          <SimplePredicate field="displacement" operator="lessOrEqual" value="232.5"/>
         </Node>
         <Node id="23" score="8">
          <SimplePredicate field="displacement" operator="greaterThan" value="232.5"/>
         </Node>
        </Node>
       </Node>
      </Node>
      <Node id="3">
       <SimplePredicate field="economy" operator="greaterThan" value="20.9"/>
       <Node id="6">
        <SimplePredicate field="power" operator="lessOrEqual" value="101.5"/>
        <Node id="12">
         <SimplePredicate field="displacement" operator="lessOrEqual" value="177"/>
         <Node id="24" score="4">
          <SimpleSetPredicate field="year" booleanOperator="isIn">
           <Array n="9" type="string">&quot;70&quot;   &quot;71&quot;   &quot;72&quot;   &quot;73&quot;   &quot;74&quot;   &quot;75&quot;   &quot;78&quot;   &quot;79&quot;   &quot;82&quot;</Array>
          </SimpleSetPredicate>
         </Node>
         <Node id="25">
          <SimpleSetPredicate field="year" booleanOperator="isIn">
           <Array n="4" type="string">&quot;76&quot;   &quot;77&quot;   &quot;80&quot;   &quot;81&quot;</Array>
          </SimpleSetPredicate>
          <Node id="38">
           <SimplePredicate field="displacement" operator="lessOrEqual" value="142.5"/>
           <Node id="44" score="4">
            <SimplePredicate field="economy" operator="lessOrEqual" value="35.7"/>
           </Node>
           <Node id="45">
            <SimplePredicate field="economy" operator="greaterThan" value="35.7"/>
            <Node id="50" score="4">
             <SimplePredicate field="weight" operator="lessOrEqual" value="2692"/>
            </Node>
            <Node id="51" score="5">
             <SimplePredicate field="weight" operator="greaterThan" value="2692"/>
            </Node>
           </Node>
          </Node>
          <Node id="39">
           <SimplePredicate field="displacement" operator="greaterThan" value="142.5"/>
           <Node id="46" score="6">
            <SimplePredicate field="displacement" operator="lessOrEqual" value="148.5"/>
           </Node>
           <Node id="47" score="4">
            <SimplePredicate field="displacement" operator="greaterThan" value="148.5"/>
           </Node>
          </Node>
         </Node>
        </Node>
        <Node id="13">
         <SimplePredicate field="displacement" operator="greaterThan" value="177"/>
         <Node id="26" score="6">
          <SimplePredicate field="speed" operator="lessOrEqual" value="19.9"/>
         </Node>
         <Node id="27" score="8">
          <SimplePredicate field="speed" operator="greaterThan" value="19.9"/>
         </Node>
        </Node>
       </Node>
       <Node id="7">
        <SimplePredicate field="power" operator="greaterThan" value="101.5"/>
        <Node id="14">
         <SimplePredicate field="displacement" operator="lessOrEqual" value="162"/>
         <Node id="28" score="4">
          <SimpleSetPredicate field="year" booleanOperator="isIn">
           <Array n="8" type="string">&quot;70&quot;   &quot;71&quot;   &quot;72&quot;   &quot;73&quot;   &quot;74&quot;   &quot;75&quot;   &quot;78&quot;   &quot;80&quot;</Array>
          </SimpleSetPredicate>
         </Node>
         <Node id="29" score="3">
          <SimpleSetPredicate field="year" booleanOperator="isIn">
           <Array n="5" type="string">&quot;76&quot;   &quot;77&quot;   &quot;79&quot;   &quot;81&quot;   &quot;82&quot;</Array>
          </SimpleSetPredicate>
         </Node>
        </Node>
        <Node id="15">
         <SimplePredicate field="displacement" operator="greaterThan" value="162"/>
         <Node id="30" score="6">
          <SimplePredicate field="speed" operator="lessOrEqual" value="16.9"/>
         </Node>
         <Node id="31" score="8">
          <SimplePredicate field="speed" operator="greaterThan" value="16.9"/>
         </Node>
        </Node>
       </Node>
      </Node>
     </Node>
    </TreeModel>
   </Segment>
   <Segment id="7">
    <True/>
    <TreeModel modelName="randomForest_Model" functionName="classification" algorithmName="randomForest" splitCharacteristic="binarySplit">
     <MiningSchema>
      <MiningField name="cylinders" usageType="predicted"/>
      <MiningField name="economy" usageType="active"/>
      <MiningField name="displacement" usageType="active"/>
      <MiningField name="power" usageType="active"/>
      <MiningField name="weight" usageType="active"/>
      <MiningField name="speed" usageType="active"/>
      <MiningField name="year" usageType="active"/>
     </MiningSchema>
     <Node id="1">
      <True/>
      <Node id="2">
       <SimplePredicate field="power" operator="lessOrEqual" value="122.5"/>
       <Node id="4">
        <SimplePredicate field="economy" operator="lessOrEqual" value="20.9"/>
        <Node id="8">
         <SimpleSetPredicate field="year" booleanOperator="isIn">
          <Array n="7" type="string">&quot;71&quot;   &quot;74&quot;   &quot;75&quot;   &quot;77&quot;   &quot;78&quot;   &quot;79&quot;   &quot;81&quot;</Array>
         </SimpleSetPredicate>
         <Node id="14">
          <SimplePredicate field="economy" operator="lessOrEqual" value="20.25"/>
          <Node id="24">
           <SimpleSetPredicate field="year" booleanOperator="isIn">
            <Array n="5" type="string">&quot;70&quot;   &quot;72&quot;   &quot;73&quot;   &quot;76&quot;   &quot;77&quot;</Array>
           </SimpleSetPredicate>
           <Node id="38" score="8">
            <SimplePredicate field="economy" operator="lessOrEqual" value="17.75"/>
           </Node>
           <Node id="39" score="6">
            <SimplePredicate field="economy" operator="greaterThan" value="17.75"/>
           </Node>
          </Node>
          <Node id="25" score="6">
           <SimpleSetPredicate field="year" booleanOperator="isIn">
            <Array n="8" type="string">&quot;71&quot;   &quot;74&quot;   &quot;75&quot;   &quot;78&quot;   &quot;79&quot;   &quot;80&quot;   &quot;81&quot;   &quot;82&quot;</Array>
           </SimpleSetPredicate>
          </Node>
         </Node>
         <Node id="15">
          <SimplePredicate field="economy" operator="greaterThan" value="20.25"/>
          <Node id="26" score="5">
           <SimplePredicate field="weight" operator="lessOrEqual" value="2950"/>
          </Node>
          <Node id="27" score="6">
           <SimplePredicate field="weight" operator="greaterThan" value="2950"/>
          </Node>
         </Node>
        </Node>
        <Node id="9">
         <SimpleSetPredicate field="year" booleanOperator="isIn">
          <Array n="6" type="string">&quot;70&quot;   &quot;72&quot;   &quot;73&quot;   &quot;76&quot;   &quot;80&quot;   &quot;82&quot;</Array>
         </SimpleSetPredicate>
         <Node id="16" score="4">
          <SimplePredicate field="speed" operator="lessOrEqual" value="15.85"/>
         </Node>
         <Node id="17">
          <SimplePredicate field="speed" operator="greaterThan" value="15.85"/>
          <Node id="28" score="6">
           <SimplePredicate field="economy" operator="lessOrEqual" value="18.5"/>
          </Node>
          <Node id="29">
           <SimplePredicate field="economy" operator="greaterThan" value="18.5"/>
           <Node id="40" score="4">
            <SimplePredicate field="weight" operator="lessOrEqual" value="3029.5"/>
           </Node>
           <Node id="41" score="6">
            <SimplePredicate field="weight" operator="greaterThan" value="3029.5"/>
           </Node>
          </Node>
         </Node>
        </Node>
       </Node>
       <Node id="5">
        <SimplePredicate field="economy" operator="greaterThan" value="20.9"/>
        <Node id="10">
         <SimplePredicate field="economy" operator="lessOrEqual" value="23.95"/>
         <Node id="18">
          <SimpleSetPredicate field="year" booleanOperator="isIn">
           <Array n="6" type="string">&quot;70&quot;   &quot;71&quot;   &quot;72&quot;   &quot;73&quot;   &quot;75&quot;   &quot;78&quot;</Array>
          </SimpleSetPredicate>
          <Node id="30" score="6">
           <SimplePredicate field="speed" operator="lessOrEqual" value="14.25"/>
          </Node>
          <Node id="31">
           <SimplePredicate field="speed" operator="greaterThan" value="14.25"/>
           <Node id="42">
            <SimpleSetPredicate field="year" booleanOperator="isIn">
             <Array n="6" type="string">&quot;71&quot;   &quot;73&quot;   &quot;74&quot;   &quot;77&quot;   &quot;80&quot;   &quot;81&quot;</Array>
            </SimpleSetPredicate>
            <Node id="54" score="6">
             <SimplePredicate field="speed" operator="lessOrEqual" value="16.25"/>
            </Node>
            <Node id="55" score="4">
             <SimplePredicate field="speed" operator="greaterThan" value="16.25"/>
            </Node>
           </Node>
           <Node id="43" score="4">
            <SimpleSetPredicate field="year" booleanOperator="isIn">
             <Array n="7" type="string">&quot;70&quot;   &quot;72&quot;   &quot;75&quot;   &quot;76&quot;   &quot;78&quot;   &quot;79&quot;   &quot;82&quot;</Array>
            </SimpleSetPredicate>
           </Node>
          </Node>
         </Node>
         <Node id="19">
          <SimpleSetPredicate field="year" booleanOperator="isIn">
           <Array n="7" type="string">&quot;74&quot;   &quot;76&quot;   &quot;77&quot;   &quot;79&quot;   &quot;80&quot;   &quot;81&quot;   &quot;82&quot;</Array>
          </SimpleSetPredicate>
          <Node id="32">
           <SimplePredicate field="weight" operator="lessOrEqual" value="2722.5"/>
           <Node id="44" score="4">
            <SimplePredicate field="weight" operator="lessOrEqual" value="2660"/>
           </Node>
           <Node id="45" score="3">
            <SimplePredicate field="weight" operator="greaterThan" value="2660"/>
           </Node>
          </Node>
          <Node id="33">
           <SimplePredicate field="weight" operator="greaterThan" value="2722.5"/>
           <Node id="46" score="6">
            <SimplePredicate field="displacement" operator="lessOrEqual" value="246"/>
           </Node>
           <Node id="47" score="8">
            <SimplePredicate field="displacement" operator="greaterThan" value="246"/>
           </Node>
          </Node>
         </Node>
        </Node>
        <Node id="11">
         <SimplePredicate field="economy" operator="greaterThan" value="23.95"/>
         <Node id="20">
          <SimplePredicate field="weight" operator="lessOrEqual" value="3007.5"/>
          <Node id="34">
           <SimplePredicate field="power" operator="lessOrEqual" value="114"/>
           <Node id="48" score="4">
            <SimplePredicate field="weight" operator="lessOrEqual" value="2910"/>
           </Node>
           <Node id="49">
            <SimplePredicate field="weight" operator="greaterThan" value="2910"/>
            <Node id="56" score="5">
             <SimplePredicate field="displacement" operator="lessOrEqual" value="136"/>
            </Node>
            <Node id="57" score="4">
             <SimplePredicate field="displacement" operator="greaterThan" value="136"/>
            </Node>
           </Node>
          </Node>
          <Node id="35">
           <SimplePredicate field="power" operator="greaterThan" value="114"/>
           <Node id="50" score="6">
            <SimplePredicate field="speed" operator="lessOrEqual" value="13.2"/>
           </Node>
           <Node id="51">
            <SimplePredicate field="speed" operator="greaterThan" value="13.2"/>
            <Node id="58" score="4">
             <SimplePredicate field="power" operator="lessOrEqual" value="117.5"/>
            </Node>
            <Node id="59" score="6">
             <SimplePredicate field="power" operator="greaterThan" value="117.5"/>
            </Node>
           </Node>
          </Node>
         </Node>
         <Node id="21">
          <SimplePredicate field="weight" operator="greaterThan" value="3007.5"/>
          <Node id="36">
           <SimplePredicate field="speed" operator="lessOrEqual" value="19.85"/>
           <Node id="52" score="6">
            <SimplePredicate field="weight" operator="lessOrEqual" value="3442.5"/>
           </Node>
           <Node id="53" score="8">
            <SimplePredicate field="weight" operator="greaterThan" value="3442.5"/>
           </Node>
          </Node>
          <Node id="37" score="5">
           <SimplePredicate field="speed" operator="greaterThan" value="19.85"/>
          </Node>
         </Node>
        </Node>
       </Node>
      </Node>
      <Node id="3">
       <SimplePredicate field="power" operator="greaterThan" value="122.5"/>
       <Node id="6" score="8">
        <SimplePredicate field="economy" operator="lessOrEqual" value="16.1"/>
       </Node>
       <Node id="7">
        <SimplePredicate field="economy" operator="greaterThan" value="16.1"/>
        <Node id="12">
         <SimplePredicate field="weight" operator="lessOrEqual" value="3474.5"/>
         <Node id="22" score="6">
          <SimplePredicate field="economy" operator="lessOrEqual" value="17.85"/>
         </Node>
         <Node id="23" score="8">
          <SimplePredicate field="economy" operator="greaterThan" value="17.85"/>
         </Node>
        </Node>
        <Node id="13" score="8">
         <SimplePredicate field="weight" operator="greaterThan" value="3474.5"/>
        </Node>
       </Node>
      </Node>
     </Node>
    </TreeModel>
   </Segment>
   <Segment id="8">
    <True/>
    <TreeModel modelName="randomForest_Model" functionName="classification" algorithmName="randomForest" splitCharacteristic="binarySplit">
     <MiningSchema>
      <MiningField name="cylinders" usageType="predicted"/>
      <MiningField name="economy" usageType="active"/>
      <MiningField name="displacement" usageType="active"/>
      <MiningField name="power" usageType="active"/>
      <MiningField name="weight" usageType="active"/>
      <MiningField name="speed" usageType="active"/>
      <MiningField name="year" usageType="active"/>
     </MiningSchema>
     <Node id="1">
      <True/>
      <Node id="2">
       <SimplePredicate field="power" operator="lessOrEqual" value="99"/>
       <Node id="4">
        <SimplePredicate field="displacement" operator="lessOrEqual" value="163.5"/>
        <Node id="8" score="4">
         <SimplePredicate field="displacement" operator="lessOrEqual" value="145"/>
        </Node>
        <Node id="9">
         <SimplePredicate field="displacement" operator="greaterThan" value="145"/>
         <Node id="16" score="6">
          <SimplePredicate field="economy" operator="lessOrEqual" value="22.9"/>
         </Node>
         <Node id="17" score="4">
          <SimplePredicate field="economy" operator="greaterThan" value="22.9"/>
         </Node>
        </Node>
       </Node>
       <Node id="5">
        <SimplePredicate field="displacement" operator="greaterThan" value="163.5"/>
        <Node id="10">
         <SimpleSetPredicate field="year" booleanOperator="isIn">
          <Array n="5" type="string">&quot;72&quot;   &quot;77&quot;   &quot;79&quot;   &quot;80&quot;   &quot;82&quot;</Array>
         </SimpleSetPredicate>
         <Node id="18" score="6">
          <SimplePredicate field="weight" operator="lessOrEqual" value="3342.5"/>
         </Node>
         <Node id="19" score="8">
          <SimplePredicate field="weight" operator="greaterThan" value="3342.5"/>
         </Node>
        </Node>
        <Node id="11" score="6">
         <SimpleSetPredicate field="year" booleanOperator="isIn">
          <Array n="8" type="string">&quot;70&quot;   &quot;71&quot;   &quot;73&quot;   &quot;74&quot;   &quot;75&quot;   &quot;76&quot;   &quot;78&quot;   &quot;81&quot;</Array>
         </SimpleSetPredicate>
        </Node>
       </Node>
      </Node>
      <Node id="3">
       <SimplePredicate field="power" operator="greaterThan" value="99"/>
       <Node id="6">
        <SimplePredicate field="power" operator="lessOrEqual" value="127"/>
        <Node id="12">
         <SimplePredicate field="displacement" operator="lessOrEqual" value="259"/>
         <Node id="20" score="3">
          <SimplePredicate field="weight" operator="lessOrEqual" value="2446"/>
         </Node>
         <Node id="21">
          <SimplePredicate field="weight" operator="greaterThan" value="2446"/>
          <Node id="24" score="4">
           <SimpleSetPredicate field="year" booleanOperator="isIn">
            <Array n="2" type="string">&quot;70&quot;   &quot;72&quot;</Array>
           </SimpleSetPredicate>
          </Node>
          <Node id="25">
           <SimpleSetPredicate field="year" booleanOperator="isIn">
            <Array n="11" type="string">&quot;71&quot;   &quot;73&quot;   &quot;74&quot;   &quot;75&quot;   &quot;76&quot;   &quot;77&quot;   &quot;78&quot;   &quot;79&quot;   &quot;80&quot;   &quot;81&quot;   &quot;82&quot;</Array>
           </SimpleSetPredicate>
           <Node id="26">
            <SimplePredicate field="displacement" operator="lessOrEqual" value="133.5"/>
            <Node id="28" score="3">
             <SimplePredicate field="displacement" operator="lessOrEqual" value="99.5"/>
            </Node>
            <Node id="29" score="4">
             <SimplePredicate field="displacement" operator="greaterThan" value="99.5"/>
            </Node>
           </Node>
           <Node id="27">
            <SimplePredicate field="displacement" operator="greaterThan" value="133.5"/>
            <Node id="30" score="6">
             <SimplePredicate field="economy" operator="lessOrEqual" value="27.35"/>
            </Node>
            <Node id="31">
             <SimplePredicate field="economy" operator="greaterThan" value="27.35"/>
             <Node id="32" score="4">
              <SimplePredicate field="power" operator="lessOrEqual" value="110"/>
             </Node>
             <Node id="33" score="6">
              <SimplePredicate field="power" operator="greaterThan" value="110"/>
             </Node>
            </Node>
           </Node>
          </Node>
         </Node>
        </Node>
        <Node id="13" score="8">
         <SimplePredicate field="displacement" operator="greaterThan" value="259"/>
        </Node>
       </Node>
       <Node id="7">
        <SimplePredicate field="power" operator="greaterThan" value="127"/>
        <Node id="14">
         <SimplePredicate field="weight" operator="lessOrEqual" value="3429.5"/>
         <Node id="22" score="6">
          <SimplePredicate field="displacement" operator="lessOrEqual" value="232.5"/>
         </Node>
         <Node id="23" score="8">
          <SimplePredicate field="displacement" operator="greaterThan" value="232.5"/>
         </Node>
        </Node>
        <Node id="15" score="8">
         <SimplePredicate field="weight" operator="greaterThan" value="3429.5"/>
        </Node>
       </Node>
      </Node>
     </Node>
    </TreeModel>
   </Segment>
   <Segment id="9">
    <True/>
    <TreeModel modelName="randomForest_Model" functionName="classification" algorithmName="randomForest" splitCharacteristic="binarySplit">
     <MiningSchema>
      <MiningField name="cylinders" usageType="predicted"/>
      <MiningField name="economy" usageType="active"/>
      <MiningField name="displacement" usageType="active"/>
      <MiningField name="power" usageType="active"/>
      <MiningField name="weight" usageType="active"/>
      <MiningField name="speed" usageType="active"/>
      <MiningField name="year" usageType="active"/>
     </MiningSchema>
     <Node id="1">
      <True/>
      <Node id="2">
       <SimplePredicate field="weight" operator="lessOrEqual" value="2772"/>
       <Node id="4">
        <SimplePredicate field="economy" operator="lessOrEqual" value="21.05"/>
        <Node id="8">
         <SimplePredicate field="displacement" operator="lessOrEqual" value="138.5"/>
         <Node id="16" score="3">
          <SimplePredicate field="weight" operator="lessOrEqual" value="2201.5"/>
         </Node>
         <Node id="17" score="4">
          <SimplePredicate field="weight" operator="greaterThan" value="2201.5"/>
         </Node>
        </Node>
        <Node id="9" score="6">
         <SimplePredicate field="displacement" operator="greaterThan" value="138.5"/>
        </Node>
       </Node>
       <Node id="5">
        <SimplePredicate field="economy" operator="greaterThan" value="21.05"/>
        <Node id="10">
         <SimplePredicate field="displacement" operator="lessOrEqual" value="164.5"/>
         <Node id="18" score="4">
          <SimplePredicate field="weight" operator="lessOrEqual" value="2715.5"/>
         </Node>
         <Node id="19">
          <SimplePredicate field="weight" operator="greaterThan" value="2715.5"/>
          <Node id="22" score="3">
           <SimplePredicate field="economy" operator="lessOrEqual" value="23"/>
          </Node>
          <Node id="23" score="4">
           <SimplePredicate field="economy" operator="greaterThan" value="23"/>
          </Node>
         </Node>
        </Node>
        <Node id="11" score="6">
         <SimplePredicate field="displacement" operator="greaterThan" value="164.5"/>
        </Node>
       </Node>
      </Node>
      <Node id="3">
       <SimplePredicate field="weight" operator="greaterThan" value="2772"/>
       <Node id="6">
        <SimplePredicate field="speed" operator="lessOrEqual" value="14.2"/>
        <Node id="12" score="6">
         <SimplePredicate field="displacement" operator="lessOrEqual" value="260"/>
        </Node>
        <Node id="13" score="8">
         <SimplePredicate field="displacement" operator="greaterThan" value="260"/>
        </Node>
       </Node>
       <Node id="7">
        <SimplePredicate field="speed" operator="greaterThan" value="14.2"/>
        <Node id="14">
         <SimplePredicate field="power" operator="lessOrEqual" value="122.5"/>
         <Node id="20">
          <SimpleSetPredicate field="year" booleanOperator="isIn">
           <Array n="3" type="string">&quot;70&quot;   &quot;72&quot;   &quot;80&quot;</Array>
          </SimpleSetPredicate>
          <Node id="24">
           <SimplePredicate field="power" operator="lessOrEqual" value="77"/>
           <Node id="28" score="5">
            <SimplePredicate field="weight" operator="lessOrEqual" value="3100"/>
           </Node>
           <Node id="29" score="4">
            <SimplePredicate field="weight" operator="greaterThan" value="3100"/>
           </Node>
          </Node>
          <Node id="25" score="4">
           <SimplePredicate field="power" operator="greaterThan" value="77"/>
          </Node>
         </Node>
         <Node id="21">
          <SimpleSetPredicate field="year" booleanOperator="isIn">
           <Array n="10" type="string">&quot;71&quot;   &quot;73&quot;   &quot;74&quot;   &quot;75&quot;   &quot;76&quot;   &quot;77&quot;   &quot;78&quot;   &quot;79&quot;   &quot;81&quot;   &quot;82&quot;</Array>
          </SimpleSetPredicate>
          <Node id="26">
           <SimplePredicate field="weight" operator="lessOrEqual" value="2961"/>
           <Node id="30" score="4">
            <SimplePredicate field="displacement" operator="lessOrEqual" value="153.5"/>
           </Node>
           <Node id="31" score="6">
            <SimplePredicate field="displacement" operator="greaterThan" value="153.5"/>
           </Node>
          </Node>
          <Node id="27">
           <SimplePredicate field="weight" operator="greaterThan" value="2961"/>
           <Node id="32">
            <SimplePredicate field="speed" operator="lessOrEqual" value="21.45"/>
            <Node id="34">
             <SimplePredicate field="weight" operator="lessOrEqual" value="3983.5"/>
             <Node id="38" score="4">
              <SimplePredicate field="displacement" operator="lessOrEqual" value="143"/>
             </Node>
             <Node id="39">
              <SimplePredicate field="displacement" operator="greaterThan" value="143"/>
              <Node id="40" score="6">
               <SimplePredicate field="economy" operator="lessOrEqual" value="24.7"/>
              </Node>
              <Node id="41">
               <SimplePredicate field="economy" operator="greaterThan" value="24.7"/>
               <Node id="42" score="6">
                <SimplePredicate field="power" operator="lessOrEqual" value="76.5"/>
               </Node>
               <Node id="43">
                <SimplePredicate field="power" operator="greaterThan" value="76.5"/>
                <Node id="44" score="8">
                 <SimplePredicate field="speed" operator="lessOrEqual" value="19.55"/>
                </Node>
                <Node id="45" score="5">
                 <SimplePredicate field="speed" operator="greaterThan" value="19.55"/>
                </Node>
               </Node>
              </Node>
             </Node>
            </Node>
            <Node id="35" score="8">
             <SimplePredicate field="weight" operator="greaterThan" value="3983.5"/>
            </Node>
           </Node>
           <Node id="33">
            <SimplePredicate field="speed" operator="greaterThan" value="21.45"/>
            <Node id="36" score="4">
             <SimplePredicate field="displacement" operator="lessOrEqual" value="200.5"/>
            </Node>
            <Node id="37" score="8">
             <SimplePredicate field="displacement" operator="greaterThan" value="200.5"/>
            </Node>
           </Node>
          </Node>
         </Node>
        </Node>
        <Node id="15" score="8">
         <SimplePredicate field="power" operator="greaterThan" value="122.5"/>
        </Node>
       </Node>
      </Node>
     </Node>
    </TreeModel>
   </Segment>
   <Segment id="10">
    <True/>
    <TreeModel modelName="randomForest_Model" functionName="classification" algorithmName="randomForest" splitCharacteristic="binarySplit">
     <MiningSchema>
      <MiningField name="cylinders" usageType="predicted"/>
      <MiningField name="economy" usageType="active"/>
      <MiningField name="displacement" usageType="active"/>
      <MiningField name="power" usageType="active"/>
      <MiningField name="weight" usageType="active"/>
      <MiningField name="speed" usageType="active"/>
      <MiningField name="year" usageType="active"/>
     </MiningSchema>
     <Node id="1">
      <True/>
      <Node id="2">
       <SimplePredicate field="speed" operator="lessOrEqual" value="14.1"/>
       <Node id="4">
        <SimplePredicate field="displacement" operator="lessOrEqual" value="260"/>
        <Node id="8">
         <SimplePredicate field="weight" operator="lessOrEqual" value="2685.5"/>
         <Node id="14" score="3">
          <SimplePredicate field="displacement" operator="lessOrEqual" value="79.5"/>
         </Node>
         <Node id="15">
          <SimplePredicate field="displacement" operator="greaterThan" value="79.5"/>
          <Node id="24">
           <SimplePredicate field="economy" operator="lessOrEqual" value="22"/>
           <Node id="30">
            <SimplePredicate field="economy" operator="lessOrEqual" value="20.5"/>
            <Node id="38" score="6">
             <SimplePredicate field="economy" operator="lessOrEqual" value="19.5"/>
            </Node>
            <Node id="39" score="4">
             <SimplePredicate field="economy" operator="greaterThan" value="19.5"/>
            </Node>
           </Node>
           <Node id="31" score="6">
            <SimplePredicate field="economy" operator="greaterThan" value="20.5"/>
           </Node>
          </Node>
          <Node id="25" score="4">
           <SimplePredicate field="economy" operator="greaterThan" value="22"/>
          </Node>
         </Node>
        </Node>
        <Node id="9">
         <SimplePredicate field="weight" operator="greaterThan" value="2685.5"/>
         <Node id="16" score="4">
          <SimplePredicate field="displacement" operator="lessOrEqual" value="140"/>
         </Node>
         <Node id="17" score="6">
          <SimplePredicate field="displacement" operator="greaterThan" value="140"/>
         </Node>
        </Node>
       </Node>
       <Node id="5" score="8">
        <SimplePredicate field="displacement" operator="greaterThan" value="260"/>
       </Node>
      </Node>
      <Node id="3">
       <SimplePredicate field="speed" operator="greaterThan" value="14.1"/>
       <Node id="6">
        <SimplePredicate field="economy" operator="lessOrEqual" value="22.75"/>
        <Node id="10">
         <SimplePredicate field="displacement" operator="lessOrEqual" value="259"/>
         <Node id="18">
          <SimpleSetPredicate field="year" booleanOperator="isIn">
           <Array n="10" type="string">&quot;70&quot;   &quot;71&quot;   &quot;73&quot;   &quot;74&quot;   &quot;75&quot;   &quot;76&quot;   &quot;77&quot;   &quot;78&quot;   &quot;79&quot;   &quot;81&quot;</Array>
          </SimpleSetPredicate>
          <Node id="26">
           <SimplePredicate field="economy" operator="lessOrEqual" value="21.05"/>
           <Node id="32">
            <SimplePredicate field="weight" operator="lessOrEqual" value="3152.5"/>
            <Node id="40">
             <SimplePredicate field="weight" operator="lessOrEqual" value="3144.5"/>
             <Node id="44">
              <SimplePredicate field="weight" operator="lessOrEqual" value="2884.5"/>
              <Node id="46" score="4">
               <SimpleSetPredicate field="year" booleanOperator="isIn">
                <Array n="6" type="string">&quot;71&quot;   &quot;73&quot;   &quot;75&quot;   &quot;78&quot;   &quot;79&quot;   &quot;80&quot;</Array>
               </SimpleSetPredicate>
              </Node>
              <Node id="47" score="6">
               <SimpleSetPredicate field="year" booleanOperator="isIn">
                <Array n="7" type="string">&quot;70&quot;   &quot;72&quot;   &quot;74&quot;   &quot;76&quot;   &quot;77&quot;   &quot;81&quot;   &quot;82&quot;</Array>
               </SimpleSetPredicate>
              </Node>
             </Node>
             <Node id="45" score="6">
              <SimplePredicate field="weight" operator="greaterThan" value="2884.5"/>
             </Node>
            </Node>
            <Node id="41" score="4">
             <SimplePredicate field="weight" operator="greaterThan" value="3144.5"/>
            </Node>
           </Node>
           <Node id="33" score="6">
            <SimplePredicate field="weight" operator="greaterThan" value="3152.5"/>
           </Node>
          </Node>
          <Node id="27">
           <SimplePredicate field="economy" operator="greaterThan" value="21.05"/>
           <Node id="34" score="4">
            <SimpleSetPredicate field="year" booleanOperator="isIn">
             <Array n="4" type="string">&quot;72&quot;   &quot;73&quot;   &quot;75&quot;   &quot;78&quot;</Array>
            </SimpleSetPredicate>
           </Node>
           <Node id="35" score="6">
            <SimpleSetPredicate field="year" booleanOperator="isIn">
             <Array n="9" type="string">&quot;70&quot;   &quot;71&quot;   &quot;74&quot;   &quot;76&quot;   &quot;77&quot;   &quot;79&quot;   &quot;80&quot;   &quot;81&quot;   &quot;82&quot;</Array>
            </SimpleSetPredicate>
           </Node>
          </Node>
         </Node>
         <Node id="19" score="4">
          <SimpleSetPredicate field="year" booleanOperator="isIn">
           <Array n="3" type="string">&quot;72&quot;   &quot;80&quot;   &quot;82&quot;</Array>
          </SimpleSetPredicate>
         </Node>
        </Node>
        <Node id="11" score="8">
         <SimplePredicate field="displacement" operator="greaterThan" value="259"/>
        </Node>
       </Node>
       <Node id="7">
        <SimplePredicate field="economy" operator="greaterThan" value="22.75"/>
        <Node id="12">
         <SimplePredicate field="power" operator="lessOrEqual" value="102.5"/>
         <Node id="20">
          <SimplePredicate field="displacement" operator="lessOrEqual" value="205.5"/>
          <Node id="28" score="4">
           <SimplePredicate field="speed" operator="lessOrEqual" value="19.55"/>
          </Node>
          <Node id="29">
           <SimplePredicate field="speed" operator="greaterThan" value="19.55"/>
           <Node id="36">
            <SimpleSetPredicate field="year" booleanOperator="isIn">
             <Array n="1" type="string">&quot;81&quot;</Array>
            </SimpleSetPredicate>
            <Node id="42" score="4">
             <SimplePredicate field="economy" operator="lessOrEqual" value="30.3"/>
            </Node>
            <Node id="43" score="6">
             <SimplePredicate field="economy" operator="greaterThan" value="30.3"/>
            </Node>
           </Node>
           <Node id="37" score="4">
            <SimpleSetPredicate field="year" booleanOperator="isIn">
             <Array n="12" type="string">&quot;70&quot;   &quot;71&quot;   &quot;72&quot;   &quot;73&quot;   &quot;74&quot;   &quot;75&quot;   &quot;76&quot;   &quot;77&quot;   &quot;78&quot;   &quot;79&quot;   &quot;80&quot;   &quot;82&quot;</Array>
            </SimpleSetPredicate>
           </Node>
          </Node>
         </Node>
         <Node id="21" score="8">
          <SimplePredicate field="displacement" operator="greaterThan" value="205.5"/>
         </Node>
        </Node>
        <Node id="13">
         <SimplePredicate field="power" operator="greaterThan" value="102.5"/>
         <Node id="22" score="6">
          <SimplePredicate field="displacement" operator="lessOrEqual" value="265.5"/>
         </Node>
         <Node id="23" score="8">
          <SimplePredicate field="displacement" operator="greaterThan" value="265.5"/>
         </Node>
        </Node>
       </Node>
      </Node>
     </Node>
    </TreeModel>
   </Segment>
   <Segment id="11">
    <True/>
    <TreeModel modelName="randomForest_Model" functionName="classification" algorithmName="randomForest" splitCharacteristic="binarySplit">
     <MiningSchema>
      <MiningField name="cylinders" usageType="predicted"/>
      <MiningField name="economy" usageType="active"/>
      <MiningField name="displacement" usageType="active"/>
      <MiningField name="power" usageType="active"/>
      <MiningField name="weight" usageType="active"/>
      <MiningField name="speed" usageType="active"/>
      <MiningField name="year" usageType="active"/>
     </MiningSchema>
     <Node id="1">
      <True/>
      <Node id="2">
       <SimplePredicate field="economy" operator="lessOrEqual" value="21.05"/>
       <Node id="4">
        <SimplePredicate field="economy" operator="lessOrEqual" value="17.25"/>
        <Node id="8" score="6">
         <SimplePredicate field="power" operator="lessOrEqual" value="115"/>
        </Node>
        <Node id="9" score="8">
         <SimplePredicate field="power" operator="greaterThan" value="115"/>
        </Node>
       </Node>
       <Node id="5">
        <SimplePredicate field="economy" operator="greaterThan" value="17.25"/>
        <Node id="10">
         <SimplePredicate field="power" operator="lessOrEqual" value="123.5"/>
         <Node id="16">
          <SimpleSetPredicate field="year" booleanOperator="isIn">
           <Array n="6" type="string">&quot;72&quot;   &quot;73&quot;   &quot;76&quot;   &quot;78&quot;   &quot;79&quot;   &quot;80&quot;</Array>
          </SimpleSetPredicate>
          <Node id="28">
           <SimplePredicate field="weight" operator="lessOrEqual" value="2939"/>
           <Node id="32">
            <SimplePredicate field="displacement" operator="lessOrEqual" value="148"/>
            <Node id="38">
             <SimplePredicate field="displacement" operator="lessOrEqual" value="126.5"/>
             <Node id="44">
              <SimplePredicate field="economy" operator="lessOrEqual" value="18.5"/>
              <Node id="50" score="3">
               <SimplePredicate field="power" operator="lessOrEqual" value="101"/>
              </Node>
              <Node id="51" score="4">
               <SimplePredicate field="power" operator="greaterThan" value="101"/>
              </Node>
             </Node>
             <Node id="45">
              <SimplePredicate field="economy" operator="greaterThan" value="18.5"/>
              <Node id="52" score="3">
               <SimplePredicate field="displacement" operator="lessOrEqual" value="95.5"/>
              </Node>
              <Node id="53" score="4">
               <SimplePredicate field="displacement" operator="greaterThan" value="95.5"/>
              </Node>
             </Node>
            </Node>
            <Node id="39">
             <SimplePredicate field="displacement" operator="greaterThan" value="126.5"/>
             <Node id="46" score="4">
              <SimplePredicate field="weight" operator="lessOrEqual" value="2619"/>
             </Node>
             <Node id="47" score="5">
              <SimplePredicate field="weight" operator="greaterThan" value="2619"/>
             </Node>
            </Node>
           </Node>
           <Node id="33" score="6">
            <SimplePredicate field="displacement" operator="greaterThan" value="148"/>
           </Node>
          </Node>
          <Node id="29">
           <SimplePredicate field="weight" operator="greaterThan" value="2939"/>
           <Node id="34">
            <SimplePredicate field="economy" operator="lessOrEqual" value="20.9"/>
            <Node id="40" score="4">
             <SimplePredicate field="displacement" operator="lessOrEqual" value="165"/>
            </Node>
            <Node id="41">
             <SimplePredicate field="displacement" operator="greaterThan" value="165"/>
             <Node id="48" score="6">
              <SimplePredicate field="economy" operator="lessOrEqual" value="19.85"/>
             </Node>
             <Node id="49">
              <SimplePredicate field="economy" operator="greaterThan" value="19.85"/>
              <Node id="54" score="6">
               <SimplePredicate field="displacement" operator="lessOrEqual" value="245.5"/>
              </Node>
              <Node id="55" score="8">
               <SimplePredicate field="displacement" operator="greaterThan" value="245.5"/>
              </Node>
             </Node>
            </Node>
           </Node>
           <Node id="35" score="4">
            <SimplePredicate field="economy" operator="greaterThan" value="20.9"/>
           </Node>
          </Node>
         </Node>
         <Node id="17" score="6">
          <SimpleSetPredicate field="year" booleanOperator="isIn">
           <Array n="7" type="string">&quot;70&quot;   &quot;71&quot;   &quot;74&quot;   &quot;75&quot;   &quot;77&quot;   &quot;81&quot;   &quot;82&quot;</Array>
          </SimpleSetPredicate>
         </Node>
        </Node>
        <Node id="11">
         <SimplePredicate field="power" operator="greaterThan" value="123.5"/>
         <Node id="18" score="6">
          <SimplePredicate field="displacement" operator="lessOrEqual" value="249"/>
         </Node>
         <Node id="19" score="8">
          <SimplePredicate field="displacement" operator="greaterThan" value="249"/>
         </Node>
        </Node>
       </Node>
      </Node>
      <Node id="3">
       <SimplePredicate field="economy" operator="greaterThan" value="21.05"/>
       <Node id="6">
        <SimplePredicate field="economy" operator="lessOrEqual" value="23.95"/>
        <Node id="12">
         <SimplePredicate field="displacement" operator="lessOrEqual" value="162"/>
         <Node id="20" score="3">
          <SimplePredicate field="speed" operator="lessOrEqual" value="12.65"/>
         </Node>
         <Node id="21" score="4">
          <SimplePredicate field="speed" operator="greaterThan" value="12.65"/>
         </Node>
        </Node>
        <Node id="13">
         <SimplePredicate field="displacement" operator="greaterThan" value="162"/>
         <Node id="22" score="6">
          <SimplePredicate field="speed" operator="lessOrEqual" value="16.7"/>
         </Node>
         <Node id="23" score="8">
          <SimplePredicate field="speed" operator="greaterThan" value="16.7"/>
         </Node>
        </Node>
       </Node>
       <Node id="7">
        <SimplePredicate field="economy" operator="greaterThan" value="23.95"/>
        <Node id="14">
         <SimplePredicate field="displacement" operator="lessOrEqual" value="162"/>
         <Node id="24" score="4">
          <SimplePredicate field="displacement" operator="lessOrEqual" value="143"/>
         </Node>
         <Node id="25">
          <SimplePredicate field="displacement" operator="greaterThan" value="143"/>
          <Node id="30" score="6">
           <SimplePredicate field="displacement" operator="lessOrEqual" value="145.5"/>
          </Node>
          <Node id="31">
           <SimplePredicate field="displacement" operator="greaterThan" value="145.5"/>
           <Node id="36">
            <SimplePredicate field="displacement" operator="lessOrEqual" value="148.5"/>
            <Node id="42" score="6">
             <SimplePredicate field="economy" operator="lessOrEqual" value="27.1"/>
            </Node>
            <Node id="43" score="4">
             <SimplePredicate field="economy" operator="greaterThan" value="27.1"/>
            </Node>
           </Node>
           <Node id="37" score="4">
            <SimplePredicate field="displacement" operator="greaterThan" value="148.5"/>
           </Node>
          </Node>
         </Node>
        </Node>
        <Node id="15">
         <SimplePredicate field="displacement" operator="greaterThan" value="162"/>
         <Node id="26" score="6">
          <SimplePredicate field="speed" operator="lessOrEqual" value="16.5"/>
         </Node>
         <Node id="27" score="5">
          <SimplePredicate field="speed" operator="greaterThan" value="16.5"/>
         </Node>
        </Node>
       </Node>
      </Node>
     </Node>
    </TreeModel>
   </Segment>
   <Segment id="12">
    <True/>
    <TreeModel modelName="randomForest_Model" functionName="classification" algorithmName="randomForest" splitCharacteristic="binarySplit">
     <MiningSchema>
      <MiningField name="cylinders" usageType="predicted"/>
      <MiningField name="economy" usageType="active"/>
      <MiningField name="displacement" usageType="active"/>
      <MiningField name="power" usageType="active"/>
      <MiningField name="weight" usageType="active"/>
      <MiningField name="speed" usageType="active"/>
      <MiningField name="year" usageType="active"/>
     </MiningSchema>
     <Node id="1">
      <True/>
      <Node id="2">
       <SimplePredicate field="displacement" operator="lessOrEqual" value="153"/>
       <Node id="4">
        <SimplePredicate field="displacement" operator="lessOrEqual" value="70.5"/>
        <Node id="8" score="4">
         <SimplePredicate field="weight" operator="lessOrEqual" value="1995.5"/>
        </Node>
        <Node id="9" score="3">
         <SimplePredicate field="weight" operator="greaterThan" value="1995.5"/>
        </Node>
       </Node>
       <Node id="5">
        <SimplePredicate field="displacement" operator="greaterThan" value="70.5"/>
        <Node id="10" score="4">
         <SimplePredicate field="displacement" operator="lessOrEqual" value="120.5"/>
        </Node>
        <Node id="11">
         <SimplePredicate field="displacement" operator="greaterThan" value="120.5"/>
         <Node id="16">
          <SimplePredicate field="economy" operator="lessOrEqual" value="36.2"/>
          <Node id="24">
           <SimplePredicate field="speed" operator="lessOrEqual" value="19.55"/>
           <Node id="30" score="4">
            <SimpleSetPredicate field="year" booleanOperator="isIn">
             <Array n="10" type="string">&quot;70&quot;   &quot;72&quot;   &quot;73&quot;   &quot;75&quot;   &quot;76&quot;   &quot;77&quot;   &quot;79&quot;   &quot;80&quot;   &quot;81&quot;   &quot;82&quot;</Array>
            </SimpleSetPredicate>
           </Node>
           <Node id="31">
            <SimpleSetPredicate field="year" booleanOperator="isIn">
             <Array n="3" type="string">&quot;71&quot;   &quot;74&quot;   &quot;78&quot;</Array>
            </SimpleSetPredicate>
            <Node id="34" score="5">
             <SimplePredicate field="economy" operator="lessOrEqual" value="20.7"/>
            </Node>
            <Node id="35" score="4">
             <SimplePredicate field="economy" operator="greaterThan" value="20.7"/>
            </Node>
           </Node>
          </Node>
          <Node id="25">
           <SimplePredicate field="speed" operator="greaterThan" value="19.55"/>
           <Node id="32" score="4">
            <SimplePredicate field="economy" operator="lessOrEqual" value="30.35"/>
           </Node>
           <Node id="33" score="6">
            <SimplePredicate field="economy" operator="greaterThan" value="30.35"/>
           </Node>
          </Node>
         </Node>
         <Node id="17" score="5">
          <SimplePredicate field="economy" operator="greaterThan" value="36.2"/>
         </Node>
        </Node>
       </Node>
      </Node>
      <Node id="3">
       <SimplePredicate field="displacement" operator="greaterThan" value="153"/>
       <Node id="6">
        <SimplePredicate field="economy" operator="lessOrEqual" value="17.75"/>
        <Node id="12">
         <SimpleSetPredicate field="year" booleanOperator="isIn">
          <Array n="10" type="string">&quot;70&quot;   &quot;71&quot;   &quot;72&quot;   &quot;73&quot;   &quot;74&quot;   &quot;76&quot;   &quot;77&quot;   &quot;80&quot;   &quot;81&quot;   &quot;82&quot;</Array>
         </SimpleSetPredicate>
         <Node id="18" score="6">
          <SimplePredicate field="power" operator="lessOrEqual" value="105"/>
         </Node>
         <Node id="19" score="8">
          <SimplePredicate field="power" operator="greaterThan" value="105"/>
         </Node>
        </Node>
        <Node id="13">
         <SimpleSetPredicate field="year" booleanOperator="isIn">
          <Array n="3" type="string">&quot;75&quot;   &quot;78&quot;   &quot;79&quot;</Array>
         </SimpleSetPredicate>
         <Node id="20" score="6">
          <SimplePredicate field="weight" operator="lessOrEqual" value="4133.5"/>
         </Node>
         <Node id="21" score="8">
          <SimplePredicate field="weight" operator="greaterThan" value="4133.5"/>
         </Node>
        </Node>
       </Node>
       <Node id="7">
        <SimplePredicate field="economy" operator="greaterThan" value="17.75"/>
        <Node id="14">
         <SimplePredicate field="displacement" operator="lessOrEqual" value="259"/>
         <Node id="22">
          <SimplePredicate field="economy" operator="lessOrEqual" value="25.6"/>
          <Node id="26" score="5">
           <SimplePredicate field="power" operator="lessOrEqual" value="79"/>
          </Node>
          <Node id="27" score="6">
           <SimplePredicate field="power" operator="greaterThan" value="79"/>
          </Node>
         </Node>
         <Node id="23">
          <SimplePredicate field="economy" operator="greaterThan" value="25.6"/>
          <Node id="28" score="4">
           <SimplePredicate field="displacement" operator="lessOrEqual" value="162"/>
          </Node>
          <Node id="29" score="6">
           <SimplePredicate field="displacement" operator="greaterThan" value="162"/>
          </Node>
         </Node>
        </Node>
        <Node id="15" score="8">
         <SimplePredicate field="displacement" operator="greaterThan" value="259"/>
        </Node>
       </Node>
      </Node>
     </Node>
    </TreeModel>
   </Segment>
   <Segment id="13">
    <True/>
    <TreeModel modelName="randomForest_Model" functionName="classification" algorithmName="randomForest" splitCharacteristic="binarySplit">
     <MiningSchema>
      <MiningField name="cylinders" usageType="predicted"/>
      <MiningField name="economy" usageType="active"/>
      <MiningField name="displacement" usageType="active"/>
      <MiningField name="power" usageType="active"/>
      <MiningField name="weight" usageType="active"/>
      <MiningField name="speed" usageType="active"/>
      <MiningField name="year" usageType="active"/>
     </MiningSchema>
     <Node id="1">
      <True/>
      <Node id="2">
       <SimplePredicate field="displacement" operator="lessOrEqual" value="153.5"/>
       <Node id="4" score="3">
        <SimplePredicate field="displacement" operator="lessOrEqual" value="71"/>
       </Node>
       <Node id="5">
        <SimplePredicate field="displacement" operator="greaterThan" value="71"/>
        <Node id="8" score="4">
         <SimplePredicate field="weight" operator="lessOrEqual" value="2715.5"/>
        </Node>
        <Node id="9">
         <SimplePredicate field="weight" operator="greaterThan" value="2715.5"/>
         <Node id="14" score="3">
          <SimplePredicate field="displacement" operator="lessOrEqual" value="100"/>
         </Node>
         <Node id="15">
          <SimplePredicate field="displacement" operator="greaterThan" value="100"/>
          <Node id="22">
           <SimplePredicate field="economy" operator="lessOrEqual" value="30.35"/>
           <Node id="28" score="6">
            <SimplePredicate field="speed" operator="lessOrEqual" value="14.15"/>
           </Node>
           <Node id="29">
            <SimplePredicate field="speed" operator="greaterThan" value="14.15"/>
            <Node id="32">
             <SimplePredicate field="economy" operator="lessOrEqual" value="20.65"/>
             <Node id="34" score="4">
              <SimplePredicate field="displacement" operator="lessOrEqual" value="130.5"/>
             </Node>
             <Node id="35" score="5">
              <SimplePredicate field="displacement" operator="greaterThan" value="130.5"/>
             </Node>
            </Node>
            <Node id="33" score="4">
             <SimplePredicate field="economy" operator="greaterThan" value="20.65"/>
            </Node>
           </Node>
          </Node>
          <Node id="23">
           <SimplePredicate field="economy" operator="greaterThan" value="30.35"/>
           <Node id="30" score="5">
            <SimplePredicate field="weight" operator="lessOrEqual" value="3055"/>
           </Node>
           <Node id="31" score="6">
            <SimplePredicate field="weight" operator="greaterThan" value="3055"/>
           </Node>
          </Node>
         </Node>
        </Node>
       </Node>
      </Node>
      <Node id="3">
       <SimplePredicate field="displacement" operator="greaterThan" value="153.5"/>
       <Node id="6">
        <SimplePredicate field="speed" operator="lessOrEqual" value="14.4"/>
        <Node id="10">
         <SimpleSetPredicate field="year" booleanOperator="isIn">
          <Array n="3" type="string">&quot;78&quot;   &quot;80&quot;   &quot;82&quot;</Array>
         </SimpleSetPredicate>
         <Node id="16" score="6">
          <SimplePredicate field="displacement" operator="lessOrEqual" value="266.5"/>
         </Node>
         <Node id="17" score="8">
          <SimplePredicate field="displacement" operator="greaterThan" value="266.5"/>
         </Node>
        </Node>
        <Node id="11">
         <SimpleSetPredicate field="year" booleanOperator="isIn">
          <Array n="10" type="string">&quot;70&quot;   &quot;71&quot;   &quot;72&quot;   &quot;73&quot;   &quot;74&quot;   &quot;75&quot;   &quot;76&quot;   &quot;77&quot;   &quot;79&quot;   &quot;81&quot;</Array>
         </SimpleSetPredicate>
         <Node id="18" score="8">
          <SimplePredicate field="economy" operator="lessOrEqual" value="19"/>
         </Node>
         <Node id="19">
          <SimplePredicate field="economy" operator="greaterThan" value="19"/>
          <Node id="24" score="6">
           <SimplePredicate field="weight" operator="lessOrEqual" value="3014"/>
          </Node>
          <Node id="25" score="8">
           <SimplePredicate field="weight" operator="greaterThan" value="3014"/>
          </Node>
         </Node>
        </Node>
       </Node>
       <Node id="7">
        <SimplePredicate field="speed" operator="greaterThan" value="14.4"/>
        <Node id="12">
         <SimplePredicate field="weight" operator="lessOrEqual" value="3898.5"/>
         <Node id="20">
          <SimplePredicate field="speed" operator="lessOrEqual" value="19.65"/>
          <Node id="26" score="6">
           <SimplePredicate field="displacement" operator="lessOrEqual" value="259"/>
          </Node>
          <Node id="27" score="8">
           <SimplePredicate field="displacement" operator="greaterThan" value="259"/>
          </Node>
         </Node>
         <Node id="21" score="5">
          <SimplePredicate field="speed" operator="greaterThan" value="19.65"/>
         </Node>
        </Node>
        <Node id="13" score="8">
         <SimplePredicate field="weight" operator="greaterThan" value="3898.5"/>
        </Node>
       </Node>
      </Node>
     </Node>
    </TreeModel>
   </Segment>
   <Segment id="14">
    <True/>
    <TreeModel modelName="randomForest_Model" functionName="classification" algorithmName="randomForest" splitCharacteristic="binarySplit">
     <MiningSchema>
      <MiningField name="cylinders" usageType="predicted"/>
      <MiningField name="economy" usageType="active"/>
      <MiningField name="displacement" usageType="active"/>
      <MiningField name="power" usageType="active"/>
      <MiningField name="weight" usageType="active"/>
      <MiningField name="speed" usageType="active"/>
      <MiningField name="year" usageType="active"/>
     </MiningSchema>
     <Node id="1">
      <True/>
      <Node id="2">
       <SimplePredicate field="displacement" operator="lessOrEqual" value="159.5"/>
       <Node id="4" score="4">
        <SimpleSetPredicate field="year" booleanOperator="isIn">
         <Array n="7" type="string">&quot;71&quot;   &quot;73&quot;   &quot;74&quot;   &quot;75&quot;   &quot;77&quot;   &quot;79&quot;   &quot;82&quot;</Array>
        </SimpleSetPredicate>
       </Node>
       <Node id="5">
        <SimpleSetPredicate field="year" booleanOperator="isIn">
         <Array n="6" type="string">&quot;70&quot;   &quot;72&quot;   &quot;76&quot;   &quot;78&quot;   &quot;80&quot;   &quot;81&quot;</Array>
        </SimpleSetPredicate>
        <Node id="8">
         <SimplePredicate field="power" operator="lessOrEqual" value="102.5"/>
         <Node id="14">
          <SimplePredicate field="speed" operator="lessOrEqual" value="13.55"/>
          <Node id="22" score="4">
           <SimplePredicate field="speed" operator="lessOrEqual" value="13.2"/>
          </Node>
          <Node id="23" score="3">
           <SimplePredicate field="speed" operator="greaterThan" value="13.2"/>
          </Node>
         </Node>
         <Node id="15">
          <SimplePredicate field="speed" operator="greaterThan" value="13.55"/>
          <Node id="24" score="4">
           <SimplePredicate field="displacement" operator="lessOrEqual" value="120.5"/>
          </Node>
          <Node id="25">
           <SimplePredicate field="displacement" operator="greaterThan" value="120.5"/>
           <Node id="30" score="4">
            <SimplePredicate field="weight" operator="lessOrEqual" value="2910"/>
           </Node>
           <Node id="31">
            <SimplePredicate field="weight" operator="greaterThan" value="2910"/>
            <Node id="36" score="5">
             <SimplePredicate field="weight" operator="lessOrEqual" value="2976.5"/>
            </Node>
            <Node id="37" score="4">
             <SimplePredicate field="weight" operator="greaterThan" value="2976.5"/>
            </Node>
           </Node>
          </Node>
         </Node>
        </Node>
        <Node id="9">
         <SimplePredicate field="power" operator="greaterThan" value="102.5"/>
         <Node id="16">
          <SimpleSetPredicate field="year" booleanOperator="isIn">
           <Array n="6" type="string">&quot;71&quot;   &quot;72&quot;   &quot;77&quot;   &quot;78&quot;   &quot;79&quot;   &quot;80&quot;</Array>
          </SimpleSetPredicate>
          <Node id="26">
           <SimplePredicate field="economy" operator="lessOrEqual" value="20.95"/>
           <Node id="32" score="5">
            <SimplePredicate field="weight" operator="lessOrEqual" value="2881.5"/>
           </Node>
           <Node id="33" score="4">
            <SimplePredicate field="weight" operator="greaterThan" value="2881.5"/>
           </Node>
          </Node>
          <Node id="27" score="4">
           <SimplePredicate field="economy" operator="greaterThan" value="20.95"/>
          </Node>
         </Node>
         <Node id="17" score="6">
          <SimpleSetPredicate field="year" booleanOperator="isIn">
           <Array n="7" type="string">&quot;70&quot;   &quot;73&quot;   &quot;74&quot;   &quot;75&quot;   &quot;76&quot;   &quot;81&quot;   &quot;82&quot;</Array>
          </SimpleSetPredicate>
         </Node>
        </Node>
       </Node>
      </Node>
      <Node id="3">
       <SimplePredicate field="displacement" operator="greaterThan" value="159.5"/>
       <Node id="6">
        <SimplePredicate field="weight" operator="lessOrEqual" value="3661.5"/>
        <Node id="10">
         <SimplePredicate field="power" operator="lessOrEqual" value="120.5"/>
         <Node id="18">
          <SimplePredicate field="speed" operator="lessOrEqual" value="21.6"/>
          <Node id="28" score="6">
           <SimpleSetPredicate field="year" booleanOperator="isIn">
            <Array n="9" type="string">&quot;71&quot;   &quot;72&quot;   &quot;73&quot;   &quot;74&quot;   &quot;76&quot;   &quot;79&quot;   &quot;80&quot;   &quot;81&quot;   &quot;82&quot;</Array>
           </SimpleSetPredicate>
          </Node>
          <Node id="29">
           <SimpleSetPredicate field="year" booleanOperator="isIn">
            <Array n="4" type="string">&quot;70&quot;   &quot;75&quot;   &quot;77&quot;   &quot;78&quot;</Array>
           </SimpleSetPredicate>
           <Node id="34" score="6">
            <SimplePredicate field="weight" operator="lessOrEqual" value="3215.5"/>
           </Node>
           <Node id="35">
            <SimplePredicate field="weight" operator="greaterThan" value="3215.5"/>
            <Node id="38" score="6">
             <SimplePredicate field="economy" operator="lessOrEqual" value="19.45"/>
            </Node>
            <Node id="39">
             <SimplePredicate field="economy" operator="greaterThan" value="19.45"/>
             <Node id="40" score="8">
              <SimplePredicate field="economy" operator="lessOrEqual" value="20.25"/>
             </Node>
             <Node id="41" score="6">
              <SimplePredicate field="economy" operator="greaterThan" value="20.25"/>
             </Node>
            </Node>
           </Node>
          </Node>
         </Node>
         <Node id="19" score="8">
          <SimplePredicate field="speed" operator="greaterThan" value="21.6"/>
         </Node>
        </Node>
        <Node id="11">
         <SimplePredicate field="power" operator="greaterThan" value="120.5"/>
         <Node id="20" score="6">
          <SimplePredicate field="displacement" operator="lessOrEqual" value="215"/>
         </Node>
         <Node id="21" score="8">
          <SimplePredicate field="displacement" operator="greaterThan" value="215"/>
         </Node>
        </Node>
       </Node>
       <Node id="7">
        <SimplePredicate field="weight" operator="greaterThan" value="3661.5"/>
        <Node id="12" score="6">
         <SimplePredicate field="displacement" operator="lessOrEqual" value="259"/>
        </Node>
        <Node id="13" score="8">
         <SimplePredicate field="displacement" operator="greaterThan" value="259"/>
        </Node>
       </Node>
      </Node>
     </Node>
    </TreeModel>
   </Segment>
   <Segment id="15">
    <True/>
    <TreeModel modelName="randomForest_Model" functionName="classification" algorithmName="randomForest" splitCharacteristic="binarySplit">
     <MiningSchema>
      <MiningField name="cylinders" usageType="predicted"/>
      <MiningField name="economy" usageType="active"/>
      <MiningField name="displacement" usageType="active"/>
      <MiningField name="power" usageType="active"/>
      <MiningField name="weight" usageType="active"/>
      <MiningField name="speed" usageType="active"/>
      <MiningField name="year" usageType="active"/>
     </MiningSchema>
