<?xml version="1.0"?>
<PMML version="4.0" xmlns="http://www.dmg.org/PMML-4_0" xmlns:xsi="http://www.w3.org/2001/XMLSchema-instance" xsi:schemaLocation="http://www.dmg.org/PMML-4_0 http://www.dmg.org/v4-0/pmml-4-0.xsd">
 <Header copyright="Copyright (c) 2013 michal" description="Random Forest Tree Model">
  <Extension name="user" value="michal" extender="Rattle/PMML"/>
  <Application name="Rattle/PMML" version="1.2.30"/>
  <Timestamp>2013-02-18 23:27:32</Timestamp>
 </Header>
 <DataDictionary numberOfFields="7">
  <DataField name="cylinders" optype="categorical" dataType="string">
   <Value value="C3"/>
   <Value value="C4"/>
   <Value value="C6"/>
   <Value value="C8"/>
  </DataField>
  <DataField name="economy" optype="continuous" dataType="double"/>
  <DataField name="displacement" optype="continuous" dataType="double"/>
  <DataField name="power" optype="continuous" dataType="double"/>
  <DataField name="weight" optype="continuous" dataType="double"/>
  <DataField name="speed" optype="continuous" dataType="double"/>
  <DataField name="year" optype="categorical" dataType="string">
   <Value value="Y70"/>
   <Value value="Y71"/>
   <Value value="Y72"/>
   <Value value="Y73"/>
   <Value value="Y74"/>
   <Value value="Y75"/>
   <Value value="Y76"/>
   <Value value="Y77"/>
   <Value value="Y78"/>
   <Value value="Y79"/>
   <Value value="Y80"/>
   <Value value="Y81"/>
   <Value value="Y82"/>
  </DataField>
 </DataDictionary>
 <MiningModel modelName="randomForest_Model" functionName="classification">
  <MiningSchema>
   <MiningField name="cylinders" usageType="predicted"/>
   <MiningField name="economy" usageType="active"/>
   <MiningField name="displacement" usageType="active"/>
   <MiningField name="power" usageType="active"/>
   <MiningField name="weight" usageType="active"/>
   <MiningField name="speed" usageType="active"/>
   <MiningField name="year" usageType="active"/>
  </MiningSchema>
  <Segmentation multipleModelMethod="majorityVote">
   <Segment id="1">
    <True/>
    <TreeModel modelName="randomForest_Model" functionName="classification" algorithmName="randomForest" splitCharacteristic="binarySplit">
     <MiningSchema>
      <MiningField name="cylinders" usageType="predicted"/>
      <MiningField name="economy" usageType="active"/>
      <MiningField name="displacement" usageType="active"/>
      <MiningField name="power" usageType="active"/>
      <MiningField name="weight" usageType="active"/>
      <MiningField name="speed" usageType="active"/>
      <MiningField name="year" usageType="active"/>
     </MiningSchema>
     <Node id="1">
      <True/>
      <Node id="2">
       <SimplePredicate field="weight" operator="lessOrEqual" value="2764.5"/>
       <Node id="4">
        <SimplePredicate field="power" operator="lessOrEqual" value="98.5"/>
        <Node id="8" score="C3">
         <SimplePredicate field="economy" operator="lessOrEqual" value="19"/>
        </Node>
        <Node id="9">
         <SimplePredicate field="economy" operator="greaterThan" value="19"/>
         <Node id="16">
          <SimplePredicate field="economy" operator="lessOrEqual" value="21.05"/>
          <Node id="20" score="C6">
           <SimplePredicate field="speed" operator="lessOrEqual" value="16.25"/>
          </Node>
          <Node id="21" score="C4">
           <SimplePredicate field="speed" operator="greaterThan" value="16.25"/>
          </Node>
         </Node>
         <Node id="17" score="C4">
          <SimplePredicate field="economy" operator="greaterThan" value="21.05"/>
         </Node>
        </Node>
       </Node>
       <Node id="5">
        <SimplePredicate field="power" operator="greaterThan" value="98.5"/>
        <Node id="10" score="C4">
         <SimplePredicate field="displacement" operator="lessOrEqual" value="164.5"/>
        </Node>
        <Node id="11" score="C6">
         <SimplePredicate field="displacement" operator="greaterThan" value="164.5"/>
        </Node>
       </Node>
      </Node>
      <Node id="3">
       <SimplePredicate field="weight" operator="greaterThan" value="2764.5"/>
       <Node id="6">
        <SimplePredicate field="power" operator="lessOrEqual" value="123.5"/>
        <Node id="12">
         <SimplePredicate field="weight" operator="lessOrEqual" value="3934.5"/>
         <Node id="18">
          <SimpleSetPredicate field="year" booleanOperator="isIn">
           <Array n="3" type="string">&quot;Y71&quot;   &quot;Y72&quot;   &quot;Y80&quot;</Array>
          </SimpleSetPredicate>
          <Node id="22">
           <SimplePredicate field="displacement" operator="lessOrEqual" value="203"/>
           <Node id="26">
            <SimplePredicate field="displacement" operator="lessOrEqual" value="130.5"/>
            <Node id="32" score="C4">
             <SimplePredicate field="economy" operator="lessOrEqual" value="28.7"/>
            </Node>
            <Node id="33" score="C6">
             <SimplePredicate field="economy" operator="greaterThan" value="28.7"/>
            </Node>
           </Node>
           <Node id="27" score="C4">
            <SimplePredicate field="displacement" operator="greaterThan" value="130.5"/>
           </Node>
          </Node>
          <Node id="23" score="C6">
           <SimplePredicate field="displacement" operator="greaterThan" value="203"/>
          </Node>
         </Node>
         <Node id="19">
          <SimpleSetPredicate field="year" booleanOperator="isIn">
           <Array n="10" type="string">&quot;Y70&quot;   &quot;Y73&quot;   &quot;Y74&quot;   &quot;Y75&quot;   &quot;Y76&quot;   &quot;Y77&quot;   &quot;Y78&quot;   &quot;Y79&quot;   &quot;Y81&quot;   &quot;Y82&quot;</Array>
          </SimpleSetPredicate>
          <Node id="24">
           <SimpleSetPredicate field="year" booleanOperator="isIn">
            <Array n="5" type="string">&quot;Y71&quot;   &quot;Y75&quot;   &quot;Y76&quot;   &quot;Y80&quot;   &quot;Y82&quot;</Array>
           </SimpleSetPredicate>
           <Node id="28">
            <SimplePredicate field="weight" operator="lessOrEqual" value="2970.5"/>
            <Node id="34" score="C4">
             <SimplePredicate field="speed" operator="lessOrEqual" value="14.6"/>
            </Node>
            <Node id="35">
             <SimplePredicate field="speed" operator="greaterThan" value="14.6"/>
             <Node id="42" score="C6">
              <SimplePredicate field="economy" operator="lessOrEqual" value="22.5"/>
             </Node>
             <Node id="43" score="C4">
              <SimplePredicate field="economy" operator="greaterThan" value="22.5"/>
             </Node>
            </Node>
           </Node>
           <Node id="29">
            <SimplePredicate field="weight" operator="greaterThan" value="2970.5"/>
            <Node id="36" score="C4">
             <SimplePredicate field="displacement" operator="lessOrEqual" value="145.5"/>
            </Node>
            <Node id="37">
             <SimplePredicate field="displacement" operator="greaterThan" value="145.5"/>
             <Node id="44" score="C6">
              <SimplePredicate field="economy" operator="lessOrEqual" value="19"/>
             </Node>
             <Node id="45">
              <SimplePredicate field="economy" operator="greaterThan" value="19"/>
              <Node id="50" score="C6">
               <SimplePredicate field="displacement" operator="lessOrEqual" value="256"/>
              </Node>
              <Node id="51">
               <SimplePredicate field="displacement" operator="greaterThan" value="256"/>
               <Node id="52" score="C6">
                <SimpleSetPredicate field="year" booleanOperator="isIn">
                 <Array n="4" type="string">&quot;Y71&quot;   &quot;Y79&quot;   &quot;Y80&quot;   &quot;Y82&quot;</Array>
                </SimpleSetPredicate>
               </Node>
               <Node id="53" score="C8">
                <SimpleSetPredicate field="year" booleanOperator="isIn">
                 <Array n="9" type="string">&quot;Y70&quot;   &quot;Y72&quot;   &quot;Y73&quot;   &quot;Y74&quot;   &quot;Y75&quot;   &quot;Y76&quot;   &quot;Y77&quot;   &quot;Y78&quot;   &quot;Y81&quot;</Array>
                </SimpleSetPredicate>
               </Node>
              </Node>
             </Node>
            </Node>
           </Node>
          </Node>
          <Node id="25">
           <SimpleSetPredicate field="year" booleanOperator="isIn">
            <Array n="8" type="string">&quot;Y70&quot;   &quot;Y72&quot;   &quot;Y73&quot;   &quot;Y74&quot;   &quot;Y77&quot;   &quot;Y78&quot;   &quot;Y79&quot;   &quot;Y81&quot;</Array>
           </SimpleSetPredicate>
           <Node id="30">
            <SimplePredicate field="economy" operator="lessOrEqual" value="23.15"/>
            <Node id="38" score="C6">
             <SimpleSetPredicate field="year" booleanOperator="isIn">
              <Array n="8" type="string">&quot;Y70&quot;   &quot;Y73&quot;   &quot;Y74&quot;   &quot;Y76&quot;   &quot;Y77&quot;   &quot;Y79&quot;   &quot;Y80&quot;   &quot;Y81&quot;</Array>
             </SimpleSetPredicate>
            </Node>
            <Node id="39">
             <SimpleSetPredicate field="year" booleanOperator="isIn">
              <Array n="5" type="string">&quot;Y71&quot;   &quot;Y72&quot;   &quot;Y75&quot;   &quot;Y78&quot;   &quot;Y82&quot;</Array>
             </SimpleSetPredicate>
             <Node id="46" score="C6">
              <SimplePredicate field="displacement" operator="lessOrEqual" value="259"/>
             </Node>
             <Node id="47" score="C8">
              <SimplePredicate field="displacement" operator="greaterThan" value="259"/>
             </Node>
            </Node>
           </Node>
           <Node id="31">
            <SimplePredicate field="economy" operator="greaterThan" value="23.15"/>
            <Node id="40" score="C6">
             <SimplePredicate field="weight" operator="lessOrEqual" value="3175"/>
            </Node>
            <Node id="41">
             <SimplePredicate field="weight" operator="greaterThan" value="3175"/>
             <Node id="48" score="C6">
              <SimplePredicate field="power" operator="lessOrEqual" value="83.5"/>
             </Node>
             <Node id="49" score="C8">
              <SimplePredicate field="power" operator="greaterThan" value="83.5"/>
             </Node>
            </Node>
           </Node>
          </Node>
         </Node>
        </Node>
        <Node id="13" score="C8">
         <SimplePredicate field="weight" operator="greaterThan" value="3934.5"/>
        </Node>
       </Node>
       <Node id="7">
        <SimplePredicate field="power" operator="greaterThan" value="123.5"/>
        <Node id="14" score="C6">
         <SimplePredicate field="displacement" operator="lessOrEqual" value="217.5"/>
        </Node>
        <Node id="15" score="C8">
         <SimplePredicate field="displacement" operator="greaterThan" value="217.5"/>
        </Node>
       </Node>
      </Node>
     </Node>
    </TreeModel>
   </Segment>
   <Segment id="2">
    <True/>
    <TreeModel modelName="randomForest_Model" functionName="classification" algorithmName="randomForest" splitCharacteristic="binarySplit">
     <MiningSchema>
      <MiningField name="cylinders" usageType="predicted"/>
      <MiningField name="economy" usageType="active"/>
      <MiningField name="displacement" usageType="active"/>
      <MiningField name="power" usageType="active"/>
      <MiningField name="weight" usageType="active"/>
      <MiningField name="speed" usageType="active"/>
      <MiningField name="year" usageType="active"/>
     </MiningSchema>
     <Node id="1">
      <True/>
      <Node id="2">
       <SimplePredicate field="displacement" operator="lessOrEqual" value="153.5"/>
       <Node id="4">
        <SimplePredicate field="weight" operator="lessOrEqual" value="2805"/>
        <Node id="8">
         <SimplePredicate field="speed" operator="lessOrEqual" value="13.55"/>
         <Node id="16" score="C4">
          <SimplePredicate field="power" operator="lessOrEqual" value="96.5"/>
         </Node>
         <Node id="17">
          <SimplePredicate field="power" operator="greaterThan" value="96.5"/>
          <Node id="22" score="C3">
           <SimplePredicate field="displacement" operator="lessOrEqual" value="95.5"/>
          </Node>
          <Node id="23" score="C4">
           <SimplePredicate field="displacement" operator="greaterThan" value="95.5"/>
          </Node>
         </Node>
        </Node>
        <Node id="9" score="C4">
         <SimplePredicate field="speed" operator="greaterThan" value="13.55"/>
        </Node>
       </Node>
       <Node id="5">
        <SimplePredicate field="weight" operator="greaterThan" value="2805"/>
        <Node id="10" score="C6">
         <SimplePredicate field="weight" operator="lessOrEqual" value="2874"/>
        </Node>
        <Node id="11">
         <SimplePredicate field="weight" operator="greaterThan" value="2874"/>
         <Node id="18" score="C4">
          <SimplePredicate field="economy" operator="lessOrEqual" value="29.4"/>
         </Node>
         <Node id="19" score="C6">
          <SimplePredicate field="economy" operator="greaterThan" value="29.4"/>
         </Node>
        </Node>
       </Node>
      </Node>
      <Node id="3">
       <SimplePredicate field="displacement" operator="greaterThan" value="153.5"/>
       <Node id="6">
        <SimplePredicate field="displacement" operator="lessOrEqual" value="259"/>
        <Node id="12" score="C6">
         <SimplePredicate field="economy" operator="lessOrEqual" value="23.1"/>
        </Node>
        <Node id="13">
         <SimplePredicate field="economy" operator="greaterThan" value="23.1"/>
         <Node id="20" score="C6">
          <SimplePredicate field="weight" operator="lessOrEqual" value="2722.5"/>
         </Node>
         <Node id="21" score="C4">
          <SimplePredicate field="weight" operator="greaterThan" value="2722.5"/>
         </Node>
        </Node>
       </Node>
       <Node id="7">
        <SimplePredicate field="displacement" operator="greaterThan" value="259"/>
        <Node id="14" score="C8">
         <SimplePredicate field="economy" operator="lessOrEqual" value="30.95"/>
        </Node>
        <Node id="15" score="C6">
         <SimplePredicate field="economy" operator="greaterThan" value="30.95"/>
        </Node>
       </Node>
      </Node>
     </Node>
    </TreeModel>
   </Segment>
   <Segment id="3">
    <True/>
    <TreeModel modelName="randomForest_Model" functionName="classification" algorithmName="randomForest" splitCharacteristic="binarySplit">
     <MiningSchema>
      <MiningField name="cylinders" usageType="predicted"/>
      <MiningField name="economy" usageType="active"/>
      <MiningField name="displacement" usageType="active"/>
      <MiningField name="power" usageType="active"/>
      <MiningField name="weight" usageType="active"/>
      <MiningField name="speed" usageType="active"/>
      <MiningField name="year" usageType="active"/>
     </MiningSchema>
     <Node id="1">
      <True/>
      <Node id="2">
       <SimplePredicate field="weight" operator="lessOrEqual" value="3191.5"/>
       <Node id="4">
        <SimplePredicate field="speed" operator="lessOrEqual" value="13.7"/>
        <Node id="8">
         <SimplePredicate field="weight" operator="lessOrEqual" value="2575.5"/>
         <Node id="16" score="C3">
          <SimplePredicate field="economy" operator="lessOrEqual" value="24.85"/>
         </Node>
         <Node id="17" score="C4">
          <SimplePredicate field="economy" operator="greaterThan" value="24.85"/>
         </Node>
        </Node>
        <Node id="9">
         <SimplePredicate field="weight" operator="greaterThan" value="2575.5"/>
         <Node id="18" score="C4">
          <SimplePredicate field="displacement" operator="lessOrEqual" value="145"/>
         </Node>
         <Node id="19" score="C6">
          <SimplePredicate field="displacement" operator="greaterThan" value="145"/>
         </Node>
        </Node>
       </Node>
       <Node id="5">
        <SimplePredicate field="speed" operator="greaterThan" value="13.7"/>
        <Node id="10">
         <SimplePredicate field="economy" operator="lessOrEqual" value="19.9"/>
         <Node id="20" score="C4">
          <SimplePredicate field="displacement" operator="lessOrEqual" value="139"/>
         </Node>
         <Node id="21" score="C6">
          <SimplePredicate field="displacement" operator="greaterThan" value="139"/>
         </Node>
        </Node>
        <Node id="11">
         <SimplePredicate field="economy" operator="greaterThan" value="19.9"/>
         <Node id="22">
          <SimplePredicate field="power" operator="lessOrEqual" value="107.5"/>
          <Node id="26">
           <SimplePredicate field="displacement" operator="lessOrEqual" value="178"/>
           <Node id="32">
            <SimpleSetPredicate field="year" booleanOperator="isIn">
             <Array n="3" type="string">&quot;Y70&quot;   &quot;Y77&quot;   &quot;Y80&quot;</Array>
            </SimpleSetPredicate>
            <Node id="36">
             <SimplePredicate field="power" operator="lessOrEqual" value="96.5"/>
             <Node id="40" score="C4">
              <SimplePredicate field="weight" operator="lessOrEqual" value="2852.5"/>
             </Node>
             <Node id="41">
              <SimplePredicate field="weight" operator="greaterThan" value="2852.5"/>
              <Node id="44" score="C6">
               <SimplePredicate field="speed" operator="lessOrEqual" value="20"/>
              </Node>
              <Node id="45" score="C4">
               <SimplePredicate field="speed" operator="greaterThan" value="20"/>
              </Node>
             </Node>
            </Node>
            <Node id="37">
             <SimplePredicate field="power" operator="greaterThan" value="96.5"/>
             <Node id="42" score="C4">
              <SimplePredicate field="weight" operator="lessOrEqual" value="2807.5"/>
             </Node>
             <Node id="43" score="C6">
              <SimplePredicate field="weight" operator="greaterThan" value="2807.5"/>
             </Node>
            </Node>
           </Node>
           <Node id="33" score="C4">
            <SimpleSetPredicate field="year" booleanOperator="isIn">
             <Array n="10" type="string">&quot;Y71&quot;   &quot;Y72&quot;   &quot;Y73&quot;   &quot;Y74&quot;   &quot;Y75&quot;   &quot;Y76&quot;   &quot;Y78&quot;   &quot;Y79&quot;   &quot;Y81&quot;   &quot;Y82&quot;</Array>
            </SimpleSetPredicate>
           </Node>
          </Node>
          <Node id="27" score="C6">
           <SimplePredicate field="displacement" operator="greaterThan" value="178"/>
          </Node>
         </Node>
         <Node id="23">
          <SimplePredicate field="power" operator="greaterThan" value="107.5"/>
          <Node id="28" score="C4">
           <SimplePredicate field="displacement" operator="lessOrEqual" value="151"/>
          </Node>
          <Node id="29" score="C6">
           <SimplePredicate field="displacement" operator="greaterThan" value="151"/>
          </Node>
         </Node>
        </Node>
       </Node>
      </Node>
      <Node id="3">
       <SimplePredicate field="weight" operator="greaterThan" value="3191.5"/>
       <Node id="6">
        <SimplePredicate field="power" operator="lessOrEqual" value="122.5"/>
        <Node id="12">
         <SimplePredicate field="displacement" operator="lessOrEqual" value="259"/>
         <Node id="24">
          <SimplePredicate field="economy" operator="lessOrEqual" value="26.75"/>
          <Node id="30">
           <SimplePredicate field="power" operator="lessOrEqual" value="89"/>
           <Node id="34" score="C6">
            <SimplePredicate field="economy" operator="lessOrEqual" value="18.5"/>
           </Node>
           <Node id="35">
            <SimplePredicate field="economy" operator="greaterThan" value="18.5"/>
            <Node id="38" score="C4">
             <SimplePredicate field="weight" operator="lessOrEqual" value="3286"/>
            </Node>
            <Node id="39" score="C6">
             <SimplePredicate field="weight" operator="greaterThan" value="3286"/>
            </Node>
           </Node>
          </Node>
          <Node id="31" score="C6">
           <SimplePredicate field="power" operator="greaterThan" value="89"/>
          </Node>
         </Node>
         <Node id="25" score="C4">
          <SimplePredicate field="economy" operator="greaterThan" value="26.75"/>
         </Node>
        </Node>
        <Node id="13" score="C8">
         <SimplePredicate field="displacement" operator="greaterThan" value="259"/>
        </Node>
       </Node>
       <Node id="7">
        <SimplePredicate field="power" operator="greaterThan" value="122.5"/>
        <Node id="14" score="C6">
         <SimplePredicate field="displacement" operator="lessOrEqual" value="249"/>
        </Node>
        <Node id="15" score="C8">
         <SimplePredicate field="displacement" operator="greaterThan" value="249"/>
        </Node>
       </Node>
      </Node>
     </Node>
    </TreeModel>
   </Segment>
   <Segment id="4">
    <True/>
    <TreeModel modelName="randomForest_Model" functionName="classification" algorithmName="randomForest" splitCharacteristic="binarySplit">
     <MiningSchema>
      <MiningField name="cylinders" usageType="predicted"/>
      <MiningField name="economy" usageType="active"/>
      <MiningField name="displacement" usageType="active"/>
      <MiningField name="power" usageType="active"/>
      <MiningField name="weight" usageType="active"/>
      <MiningField name="speed" usageType="active"/>
      <MiningField name="year" usageType="active"/>
     </MiningSchema>
     <Node id="1">
      <True/>
      <Node id="2">
       <SimplePredicate field="economy" operator="lessOrEqual" value="21.55"/>
       <Node id="4">
        <SimplePredicate field="displacement" operator="lessOrEqual" value="259"/>
        <Node id="8">
         <SimplePredicate field="displacement" operator="lessOrEqual" value="147.5"/>
         <Node id="14" score="C3">
          <SimplePredicate field="displacement" operator="lessOrEqual" value="97"/>
         </Node>
         <Node id="15">
          <SimplePredicate field="displacement" operator="greaterThan" value="97"/>
          <Node id="22" score="C6">
           <SimpleSetPredicate field="year" booleanOperator="isIn">
            <Array n="6" type="string">&quot;Y71&quot;   &quot;Y75&quot;   &quot;Y78&quot;   &quot;Y79&quot;   &quot;Y81&quot;   &quot;Y82&quot;</Array>
           </SimpleSetPredicate>
          </Node>
          <Node id="23" score="C4">
           <SimpleSetPredicate field="year" booleanOperator="isIn">
            <Array n="7" type="string">&quot;Y70&quot;   &quot;Y72&quot;   &quot;Y73&quot;   &quot;Y74&quot;   &quot;Y76&quot;   &quot;Y77&quot;   &quot;Y80&quot;</Array>
           </SimpleSetPredicate>
          </Node>
         </Node>
        </Node>
        <Node id="9" score="C6">
         <SimplePredicate field="displacement" operator="greaterThan" value="147.5"/>
        </Node>
       </Node>
       <Node id="5" score="C8">
        <SimplePredicate field="displacement" operator="greaterThan" value="259"/>
       </Node>
      </Node>
      <Node id="3">
       <SimplePredicate field="economy" operator="greaterThan" value="21.55"/>
       <Node id="6">
        <SimplePredicate field="displacement" operator="lessOrEqual" value="162"/>
        <Node id="10">
         <SimplePredicate field="weight" operator="lessOrEqual" value="3081.5"/>
         <Node id="16" score="C4">
          <SimplePredicate field="power" operator="lessOrEqual" value="96.5"/>
         </Node>
         <Node id="17">
          <SimplePredicate field="power" operator="greaterThan" value="96.5"/>
          <Node id="24">
           <SimplePredicate field="economy" operator="lessOrEqual" value="23.8"/>
           <Node id="26" score="C3">
            <SimplePredicate field="displacement" operator="lessOrEqual" value="95.5"/>
           </Node>
           <Node id="27">
            <SimplePredicate field="displacement" operator="greaterThan" value="95.5"/>
            <Node id="28" score="C4">
             <SimplePredicate field="weight" operator="lessOrEqual" value="2805"/>
            </Node>
            <Node id="29">
             <SimplePredicate field="weight" operator="greaterThan" value="2805"/>
             <Node id="30" score="C4">
              <SimpleSetPredicate field="year" booleanOperator="isIn">
               <Array n="7" type="string">&quot;Y70&quot;   &quot;Y72&quot;   &quot;Y73&quot;   &quot;Y74&quot;   &quot;Y75&quot;   &quot;Y79&quot;   &quot;Y80&quot;</Array>
              </SimpleSetPredicate>
             </Node>
             <Node id="31" score="C6">
              <SimpleSetPredicate field="year" booleanOperator="isIn">
               <Array n="6" type="string">&quot;Y71&quot;   &quot;Y76&quot;   &quot;Y77&quot;   &quot;Y78&quot;   &quot;Y81&quot;   &quot;Y82&quot;</Array>
              </SimpleSetPredicate>
             </Node>
            </Node>
           </Node>
          </Node>
          <Node id="25" score="C4">
           <SimplePredicate field="economy" operator="greaterThan" value="23.8"/>
          </Node>
         </Node>
        </Node>
        <Node id="11">
         <SimplePredicate field="weight" operator="greaterThan" value="3081.5"/>
         <Node id="18" score="C6">
          <SimplePredicate field="speed" operator="lessOrEqual" value="20"/>
         </Node>
         <Node id="19" score="C4">
          <SimplePredicate field="speed" operator="greaterThan" value="20"/>
         </Node>
        </Node>
       </Node>
       <Node id="7">
        <SimplePredicate field="displacement" operator="greaterThan" value="162"/>
        <Node id="12" score="C6">
         <SimplePredicate field="speed" operator="lessOrEqual" value="17.2"/>
        </Node>
        <Node id="13">
         <SimplePredicate field="speed" operator="greaterThan" value="17.2"/>
         <Node id="20" score="C6">
          <SimplePredicate field="power" operator="lessOrEqual" value="93"/>
         </Node>
         <Node id="21" score="C8">
          <SimplePredicate field="power" operator="greaterThan" value="93"/>
         </Node>
        </Node>
       </Node>
      </Node>
     </Node>
    </TreeModel>
   </Segment>
   <Segment id="5">
    <True/>
    <TreeModel modelName="randomForest_Model" functionName="classification" algorithmName="randomForest" splitCharacteristic="binarySplit">
     <MiningSchema>
      <MiningField name="cylinders" usageType="predicted"/>
      <MiningField name="economy" usageType="active"/>
      <MiningField name="displacement" usageType="active"/>
      <MiningField name="power" usageType="active"/>
      <MiningField name="weight" usageType="active"/>
      <MiningField name="speed" usageType="active"/>
      <MiningField name="year" usageType="active"/>
     </MiningSchema>
     <Node id="1">
      <True/>
      <Node id="2">
       <SimplePredicate field="weight" operator="lessOrEqual" value="2897"/>
       <Node id="4">
        <SimplePredicate field="power" operator="lessOrEqual" value="96.5"/>
        <Node id="8">
         <SimplePredicate field="speed" operator="lessOrEqual" value="13.55"/>
         <Node id="16" score="C4">
          <SimplePredicate field="power" operator="lessOrEqual" value="87"/>
         </Node>
         <Node id="17" score="C3">
          <SimplePredicate field="power" operator="greaterThan" value="87"/>
         </Node>
        </Node>
        <Node id="9">
         <SimplePredicate field="speed" operator="greaterThan" value="13.55"/>
         <Node id="18" score="C4">
          <SimplePredicate field="weight" operator="lessOrEqual" value="2584.5"/>
         </Node>
         <Node id="19">
          <SimplePredicate field="weight" operator="greaterThan" value="2584.5"/>
          <Node id="26" score="C6">
           <SimplePredicate field="economy" operator="lessOrEqual" value="22.15"/>
          </Node>
          <Node id="27" score="C4">
           <SimplePredicate field="economy" operator="greaterThan" value="22.15"/>
          </Node>
         </Node>
        </Node>
       </Node>
       <Node id="5">
        <SimplePredicate field="power" operator="greaterThan" value="96.5"/>
        <Node id="10">
         <SimplePredicate field="displacement" operator="lessOrEqual" value="164.5"/>
         <Node id="20">
          <SimpleSetPredicate field="year" booleanOperator="isIn">
           <Array n="7" type="string">&quot;Y70&quot;   &quot;Y73&quot;   &quot;Y74&quot;   &quot;Y75&quot;   &quot;Y76&quot;   &quot;Y78&quot;   &quot;Y81&quot;</Array>
          </SimpleSetPredicate>
          <Node id="28" score="C4">
           <SimplePredicate field="displacement" operator="lessOrEqual" value="126"/>
          </Node>
          <Node id="29">
           <SimplePredicate field="displacement" operator="greaterThan" value="126"/>
           <Node id="40" score="C6">
            <SimplePredicate field="power" operator="lessOrEqual" value="104"/>
           </Node>
           <Node id="41" score="C4">
            <SimplePredicate field="power" operator="greaterThan" value="104"/>
           </Node>
          </Node>
         </Node>
         <Node id="21">
          <SimpleSetPredicate field="year" booleanOperator="isIn">
           <Array n="6" type="string">&quot;Y71&quot;   &quot;Y72&quot;   &quot;Y77&quot;   &quot;Y79&quot;   &quot;Y80&quot;   &quot;Y82&quot;</Array>
          </SimpleSetPredicate>
          <Node id="30">
           <SimplePredicate field="speed" operator="lessOrEqual" value="13.95"/>
           <Node id="42" score="C3">
            <SimplePredicate field="power" operator="lessOrEqual" value="105"/>
           </Node>
           <Node id="43">
            <SimplePredicate field="power" operator="greaterThan" value="105"/>
            <Node id="52" score="C3">
             <SimplePredicate field="displacement" operator="lessOrEqual" value="100.5"/>
            </Node>
            <Node id="53" score="C4">
             <SimplePredicate field="displacement" operator="greaterThan" value="100.5"/>
            </Node>
           </Node>
          </Node>
          <Node id="31" score="C4">
           <SimplePredicate field="speed" operator="greaterThan" value="13.95"/>
          </Node>
         </Node>
        </Node>
        <Node id="11" score="C6">
         <SimplePredicate field="displacement" operator="greaterThan" value="164.5"/>
        </Node>
       </Node>
      </Node>
      <Node id="3">
       <SimplePredicate field="weight" operator="greaterThan" value="2897"/>
       <Node id="6">
        <SimplePredicate field="economy" operator="lessOrEqual" value="17.65"/>
        <Node id="12" score="C6">
         <SimplePredicate field="displacement" operator="lessOrEqual" value="259"/>
        </Node>
        <Node id="13" score="C8">
         <SimplePredicate field="displacement" operator="greaterThan" value="259"/>
        </Node>
       </Node>
       <Node id="7">
        <SimplePredicate field="economy" operator="greaterThan" value="17.65"/>
        <Node id="14">
         <SimplePredicate field="weight" operator="lessOrEqual" value="3417.5"/>
         <Node id="22">
          <SimplePredicate field="displacement" operator="lessOrEqual" value="159.5"/>
          <Node id="32" score="C6">
           <SimplePredicate field="weight" operator="lessOrEqual" value="2931.5"/>
          </Node>
          <Node id="33">
           <SimplePredicate field="weight" operator="greaterThan" value="2931.5"/>
           <Node id="44" score="C4">
            <SimplePredicate field="economy" operator="lessOrEqual" value="32.25"/>
           </Node>
           <Node id="45" score="C6">
            <SimplePredicate field="economy" operator="greaterThan" value="32.25"/>
           </Node>
          </Node>
         </Node>
         <Node id="23">
          <SimplePredicate field="displacement" operator="greaterThan" value="159.5"/>
          <Node id="34">
           <SimplePredicate field="speed" operator="lessOrEqual" value="15.65"/>
           <Node id="46" score="C6">
            <SimplePredicate field="weight" operator="lessOrEqual" value="3326.5"/>
           </Node>
           <Node id="47">
            <SimplePredicate field="weight" operator="greaterThan" value="3326.5"/>
            <Node id="54" score="C6">
             <SimplePredicate field="speed" operator="lessOrEqual" value="15.3"/>
            </Node>
            <Node id="55" score="C8">
             <SimplePredicate field="speed" operator="greaterThan" value="15.3"/>
            </Node>
           </Node>
          </Node>
          <Node id="35" score="C6">
           <SimplePredicate field="speed" operator="greaterThan" value="15.65"/>
          </Node>
         </Node>
        </Node>
        <Node id="15">
         <SimplePredicate field="weight" operator="greaterThan" value="3417.5"/>
         <Node id="24">
          <SimplePredicate field="speed" operator="lessOrEqual" value="15.6"/>
          <Node id="36" score="C8">
           <SimplePredicate field="speed" operator="lessOrEqual" value="13.3"/>
          </Node>
          <Node id="37">
           <SimplePredicate field="speed" operator="greaterThan" value="13.3"/>
           <Node id="48" score="C6">
            <SimplePredicate field="economy" operator="lessOrEqual" value="18.45"/>
           </Node>
           <Node id="49" score="C8">
            <SimplePredicate field="economy" operator="greaterThan" value="18.45"/>
           </Node>
          </Node>
         </Node>
         <Node id="25">
          <SimplePredicate field="speed" operator="greaterThan" value="15.6"/>
          <Node id="38" score="C8">
           <SimplePredicate field="weight" operator="lessOrEqual" value="3422.5"/>
          </Node>
          <Node id="39">
           <SimplePredicate field="weight" operator="greaterThan" value="3422.5"/>
           <Node id="50" score="C6">
            <SimplePredicate field="weight" operator="lessOrEqual" value="3685"/>
           </Node>
           <Node id="51">
            <SimplePredicate field="weight" operator="greaterThan" value="3685"/>
            <Node id="56" score="C6">
             <SimplePredicate field="economy" operator="lessOrEqual" value="22.3"/>
            </Node>
            <Node id="57" score="C8">
             <SimplePredicate field="economy" operator="greaterThan" value="22.3"/>
            </Node>
           </Node>
          </Node>
         </Node>
        </Node>
       </Node>
      </Node>
     </Node>
    </TreeModel>
   </Segment>
   <Segment id="6">
    <True/>
    <TreeModel modelName="randomForest_Model" functionName="classification" algorithmName="randomForest" splitCharacteristic="binarySplit">
     <MiningSchema>
      <MiningField name="cylinders" usageType="predicted"/>
      <MiningField name="economy" usageType="active"/>
      <MiningField name="displacement" usageType="active"/>
      <MiningField name="power" usageType="active"/>
      <MiningField name="weight" usageType="active"/>
      <MiningField name="speed" usageType="active"/>
      <MiningField name="year" usageType="active"/>
     </MiningSchema>
     <Node id="1">
      <True/>
      <Node id="2">
       <SimplePredicate field="displacement" operator="lessOrEqual" value="159.5"/>
       <Node id="4">
        <SimplePredicate field="economy" operator="lessOrEqual" value="19.5"/>
        <Node id="8" score="C3">
         <SimplePredicate field="displacement" operator="lessOrEqual" value="95"/>
        </Node>
        <Node id="9" score="C4">
         <SimplePredicate field="displacement" operator="greaterThan" value="95"/>
        </Node>
       </Node>
       <Node id="5">
        <SimplePredicate field="economy" operator="greaterThan" value="19.5"/>
        <Node id="10">
         <SimplePredicate field="economy" operator="lessOrEqual" value="24.25"/>
         <Node id="14">
          <SimplePredicate field="displacement" operator="lessOrEqual" value="143"/>
          <Node id="16" score="C4">
           <SimpleSetPredicate field="year" booleanOperator="isIn">
            <Array n="10" type="string">&quot;Y70&quot;   &quot;Y72&quot;   &quot;Y73&quot;   &quot;Y74&quot;   &quot;Y75&quot;   &quot;Y76&quot;   &quot;Y77&quot;   &quot;Y78&quot;   &quot;Y81&quot;   &quot;Y82&quot;</Array>
           </SimpleSetPredicate>
          </Node>
          <Node id="17">
           <SimpleSetPredicate field="year" booleanOperator="isIn">
            <Array n="3" type="string">&quot;Y71&quot;   &quot;Y79&quot;   &quot;Y80&quot;</Array>
           </SimpleSetPredicate>
           <Node id="18" score="C3">
            <SimplePredicate field="weight" operator="lessOrEqual" value="2655"/>
           </Node>
           <Node id="19" score="C4">
            <SimplePredicate field="weight" operator="greaterThan" value="2655"/>
           </Node>
          </Node>
         </Node>
         <Node id="15" score="C6">
          <SimplePredicate field="displacement" operator="greaterThan" value="143"/>
         </Node>
        </Node>
        <Node id="11" score="C4">
         <SimplePredicate field="economy" operator="greaterThan" value="24.25"/>
        </Node>
       </Node>
      </Node>
      <Node id="3">
       <SimplePredicate field="displacement" operator="greaterThan" value="159.5"/>
       <Node id="6" score="C6">
        <SimplePredicate field="displacement" operator="lessOrEqual" value="259"/>
       </Node>
       <Node id="7">
        <SimplePredicate field="displacement" operator="greaterThan" value="259"/>
        <Node id="12" score="C6">
         <SimplePredicate field="weight" operator="lessOrEqual" value="3050.5"/>
        </Node>
        <Node id="13" score="C8">
         <SimplePredicate field="weight" operator="greaterThan" value="3050.5"/>
        </Node>
       </Node>
      </Node>
     </Node>
    </TreeModel>
   </Segment>
   <Segment id="7">
    <True/>
    <TreeModel modelName="randomForest_Model" functionName="classification" algorithmName="randomForest" splitCharacteristic="binarySplit">
     <MiningSchema>
      <MiningField name="cylinders" usageType="predicted"/>
      <MiningField name="economy" usageType="active"/>
      <MiningField name="displacement" usageType="active"/>
      <MiningField name="power" usageType="active"/>
      <MiningField name="weight" usageType="active"/>
      <MiningField name="speed" usageType="active"/>
      <MiningField name="year" usageType="active"/>
     </MiningSchema>
     <Node id="1">
      <True/>
      <Node id="2">
       <SimplePredicate field="speed" operator="lessOrEqual" value="14.05"/>
       <Node id="4">
        <SimplePredicate field="weight" operator="lessOrEqual" value="3024"/>
        <Node id="8">
         <SimplePredicate field="power" operator="lessOrEqual" value="115.5"/>
         <Node id="16">
          <SimplePredicate field="weight" operator="lessOrEqual" value="2695.5"/>
          <Node id="22">
           <SimpleSetPredicate field="year" booleanOperator="isIn">
            <Array n="6" type="string">&quot;Y71&quot;   &quot;Y73&quot;   &quot;Y74&quot;   &quot;Y78&quot;   &quot;Y79&quot;   &quot;Y80&quot;</Array>
           </SimpleSetPredicate>
           <Node id="30">
            <SimplePredicate field="weight" operator="lessOrEqual" value="2588.5"/>
            <Node id="34" score="C3">
             <SimplePredicate field="displacement" operator="lessOrEqual" value="79.5"/>
            </Node>
            <Node id="35" score="C4">
             <SimplePredicate field="displacement" operator="greaterThan" value="79.5"/>
            </Node>
           </Node>
           <Node id="31" score="C6">
            <SimplePredicate field="weight" operator="greaterThan" value="2588.5"/>
           </Node>
          </Node>
          <Node id="23" score="C4">
           <SimpleSetPredicate field="year" booleanOperator="isIn">
            <Array n="7" type="string">&quot;Y70&quot;   &quot;Y72&quot;   &quot;Y75&quot;   &quot;Y76&quot;   &quot;Y77&quot;   &quot;Y81&quot;   &quot;Y82&quot;</Array>
           </SimpleSetPredicate>
          </Node>
         </Node>
         <Node id="17">
          <SimplePredicate field="weight" operator="greaterThan" value="2695.5"/>
          <Node id="24" score="C3">
           <SimpleSetPredicate field="year" booleanOperator="isIn">
            <Array n="7" type="string">&quot;Y70&quot;   &quot;Y74&quot;   &quot;Y77&quot;   &quot;Y78&quot;   &quot;Y79&quot;   &quot;Y80&quot;   &quot;Y81&quot;</Array>
           </SimpleSetPredicate>
          </Node>
          <Node id="25" score="C6">
           <SimpleSetPredicate field="year" booleanOperator="isIn">
            <Array n="6" type="string">&quot;Y71&quot;   &quot;Y72&quot;   &quot;Y73&quot;   &quot;Y75&quot;   &quot;Y76&quot;   &quot;Y82&quot;</Array>
           </SimpleSetPredicate>
          </Node>
         </Node>
        </Node>
        <Node id="9" score="C6">
         <SimplePredicate field="power" operator="greaterThan" value="115.5"/>
        </Node>
       </Node>
       <Node id="5">
        <SimplePredicate field="weight" operator="greaterThan" value="3024"/>
        <Node id="10" score="C6">
         <SimplePredicate field="displacement" operator="lessOrEqual" value="212.5"/>
        </Node>
        <Node id="11" score="C8">
         <SimplePredicate field="displacement" operator="greaterThan" value="212.5"/>
        </Node>
       </Node>
      </Node>
      <Node id="3">
       <SimplePredicate field="speed" operator="greaterThan" value="14.05"/>
       <Node id="6">
        <SimplePredicate field="power" operator="lessOrEqual" value="94.5"/>
        <Node id="12">
         <SimplePredicate field="displacement" operator="lessOrEqual" value="167"/>
         <Node id="18" score="C4">
          <SimplePredicate field="weight" operator="lessOrEqual" value="2920"/>
         </Node>
         <Node id="19">
          <SimplePredicate field="weight" operator="greaterThan" value="2920"/>
          <Node id="26" score="C6">
           <SimplePredicate field="weight" operator="lessOrEqual" value="2953.5"/>
          </Node>
          <Node id="27" score="C4">
           <SimplePredicate field="weight" operator="greaterThan" value="2953.5"/>
          </Node>
         </Node>
        </Node>
        <Node id="13" score="C6">
         <SimplePredicate field="displacement" operator="greaterThan" value="167"/>
        </Node>
       </Node>
       <Node id="7">
        <SimplePredicate field="power" operator="greaterThan" value="94.5"/>
        <Node id="14">
         <SimplePredicate field="displacement" operator="lessOrEqual" value="259"/>
         <Node id="20">
          <SimplePredicate field="economy" operator="lessOrEqual" value="23.1"/>
          <Node id="28">
           <SimplePredicate field="displacement" operator="lessOrEqual" value="145"/>
           <Node id="32" score="C4">
            <SimplePredicate field="displacement" operator="lessOrEqual" value="130.5"/>
           </Node>
           <Node id="33">
            <SimplePredicate field="displacement" operator="greaterThan" value="130.5"/>
            <Node id="36" score="C6">
             <SimplePredicate field="economy" operator="lessOrEqual" value="20.7"/>
            </Node>
            <Node id="37" score="C4">
             <SimplePredicate field="economy" operator="greaterThan" value="20.7"/>
            </Node>
           </Node>
          </Node>
          <Node id="29" score="C6">
           <SimplePredicate field="displacement" operator="greaterThan" value="145"/>
          </Node>
         </Node>
         <Node id="21" score="C4">
          <SimplePredicate field="economy" operator="greaterThan" value="23.1"/>
         </Node>
        </Node>
        <Node id="15" score="C8">
         <SimplePredicate field="displacement" operator="greaterThan" value="259"/>
        </Node>
       </Node>
      </Node>
     </Node>
    </TreeModel>
   </Segment>
   <Segment id="8">
    <True/>
    <TreeModel modelName="randomForest_Model" functionName="classification" algorithmName="randomForest" splitCharacteristic="binarySplit">
     <MiningSchema>
      <MiningField name="cylinders" usageType="predicted"/>
      <MiningField name="economy" usageType="active"/>
      <MiningField name="displacement" usageType="active"/>
      <MiningField name="power" usageType="active"/>
      <MiningField name="weight" usageType="active"/>
      <MiningField name="speed" usageType="active"/>
      <MiningField name="year" usageType="active"/>
     </MiningSchema>
     <Node id="1">
      <True/>
      <Node id="2">
       <SimplePredicate field="weight" operator="lessOrEqual" value="2939"/>
       <Node id="4">
        <SimplePredicate field="displacement" operator="lessOrEqual" value="164.5"/>
        <Node id="8">
         <SimplePredicate field="power" operator="lessOrEqual" value="118.5"/>
         <Node id="14">
          <SimplePredicate field="speed" operator="lessOrEqual" value="13.55"/>
          <Node id="22" score="C4">
           <SimpleSetPredicate field="year" booleanOperator="isIn">
            <Array n="8" type="string">&quot;Y70&quot;   &quot;Y71&quot;   &quot;Y75&quot;   &quot;Y76&quot;   &quot;Y77&quot;   &quot;Y78&quot;   &quot;Y79&quot;   &quot;Y81&quot;</Array>
           </SimpleSetPredicate>
          </Node>
          <Node id="23">
           <SimpleSetPredicate field="year" booleanOperator="isIn">
            <Array n="5" type="string">&quot;Y72&quot;   &quot;Y73&quot;   &quot;Y74&quot;   &quot;Y80&quot;   &quot;Y82&quot;</Array>
           </SimpleSetPredicate>
           <Node id="32" score="C3">
            <SimplePredicate field="economy" operator="lessOrEqual" value="29.85"/>
           </Node>
           <Node id="33" score="C4">
            <SimplePredicate field="economy" operator="greaterThan" value="29.85"/>
           </Node>
          </Node>
         </Node>
         <Node id="15">
          <SimplePredicate field="speed" operator="greaterThan" value="13.55"/>
          <Node id="24" score="C4">
           <SimplePredicate field="displacement" operator="lessOrEqual" value="126.5"/>
          </Node>
          <Node id="25">
           <SimplePredicate field="displacement" operator="greaterThan" value="126.5"/>
           <Node id="34" score="C4">
            <SimplePredicate field="power" operator="lessOrEqual" value="96"/>
           </Node>
           <Node id="35">
            <SimplePredicate field="power" operator="greaterThan" value="96"/>
            <Node id="40" score="C6">
             <SimplePredicate field="power" operator="lessOrEqual" value="104"/>
            </Node>
            <Node id="41" score="C4">
             <SimplePredicate field="power" operator="greaterThan" value="104"/>
            </Node>
           </Node>
          </Node>
         </Node>
        </Node>
        <Node id="9" score="C6">
         <SimplePredicate field="power" operator="greaterThan" value="118.5"/>
        </Node>
       </Node>
       <Node id="5" score="C6">
        <SimplePredicate field="displacement" operator="greaterThan" value="164.5"/>
       </Node>
      </Node>
      <Node id="3">
       <SimplePredicate field="weight" operator="greaterThan" value="2939"/>
       <Node id="6">
        <SimplePredicate field="weight" operator="lessOrEqual" value="3657.5"/>
        <Node id="10">
         <SimplePredicate field="power" operator="lessOrEqual" value="124.5"/>
         <Node id="16">
          <SimplePredicate field="displacement" operator="lessOrEqual" value="143"/>
          <Node id="26" score="C4">
           <SimplePredicate field="economy" operator="lessOrEqual" value="32.25"/>
          </Node>
          <Node id="27" score="C6">
           <SimplePredicate field="economy" operator="greaterThan" value="32.25"/>
          </Node>
         </Node>
         <Node id="17">
          <SimplePredicate field="displacement" operator="greaterThan" value="143"/>
          <Node id="28">
           <SimpleSetPredicate field="year" booleanOperator="isIn">
            <Array n="9" type="string">&quot;Y71&quot;   &quot;Y73&quot;   &quot;Y74&quot;   &quot;Y76&quot;   &quot;Y77&quot;   &quot;Y79&quot;   &quot;Y80&quot;   &quot;Y81&quot;   &quot;Y82&quot;</Array>
           </SimpleSetPredicate>
           <Node id="36" score="C4">
            <SimplePredicate field="power" operator="lessOrEqual" value="71.5"/>
           </Node>
           <Node id="37" score="C6">
            <SimplePredicate field="power" operator="greaterThan" value="71.5"/>
           </Node>
          </Node>
          <Node id="29">
           <SimpleSetPredicate field="year" booleanOperator="isIn">
            <Array n="4" type="string">&quot;Y70&quot;   &quot;Y72&quot;   &quot;Y75&quot;   &quot;Y78&quot;</Array>
           </SimpleSetPredicate>
           <Node id="38" score="C6">
            <SimplePredicate field="displacement" operator="lessOrEqual" value="259"/>
           </Node>
           <Node id="39" score="C8">
            <SimplePredicate field="displacement" operator="greaterThan" value="259"/>
           </Node>
          </Node>
         </Node>
        </Node>
        <Node id="11">
         <SimplePredicate field="power" operator="greaterThan" value="124.5"/>
         <Node id="18" score="C8">
          <SimplePredicate field="speed" operator="lessOrEqual" value="13.1"/>
         </Node>
         <Node id="19" score="C6">
          <SimplePredicate field="speed" operator="greaterThan" value="13.1"/>
         </Node>
        </Node>
       </Node>
       <Node id="7">
        <SimplePredicate field="weight" operator="greaterThan" value="3657.5"/>
        <Node id="12">
         <SimplePredicate field="weight" operator="lessOrEqual" value="3923.5"/>
         <Node id="20" score="C8">
          <SimplePredicate field="speed" operator="lessOrEqual" value="16.05"/>
         </Node>
         <Node id="21">
          <SimplePredicate field="speed" operator="greaterThan" value="16.05"/>
          <Node id="30" score="C8">
           <SimplePredicate field="weight" operator="lessOrEqual" value="3727.5"/>
          </Node>
          <Node id="31" score="C6">
           <SimplePredicate field="weight" operator="greaterThan" value="3727.5"/>
          </Node>
         </Node>
        </Node>
        <Node id="13" score="C8">
         <SimplePredicate field="weight" operator="greaterThan" value="3923.5"/>
        </Node>
       </Node>
      </Node>
     </Node>
    </TreeModel>
   </Segment>
   <Segment id="9">
    <True/>
    <TreeModel modelName="randomForest_Model" functionName="classification" algorithmName="randomForest" splitCharacteristic="binarySplit">
     <MiningSchema>
      <MiningField name="cylinders" usageType="predicted"/>
      <MiningField name="economy" usageType="active"/>
      <MiningField name="displacement" usageType="active"/>
      <MiningField name="power" usageType="active"/>
      <MiningField name="weight" usageType="active"/>
      <MiningField name="speed" usageType="active"/>
      <MiningField name="year" usageType="active"/>
     </MiningSchema>
     <Node id="1">
      <True/>
      <Node id="2">
       <SimplePredicate field="speed" operator="lessOrEqual" value="13.75"/>
       <Node id="4">
        <SimplePredicate field="power" operator="lessOrEqual" value="127"/>
        <Node id="8">
         <SimplePredicate field="weight" operator="lessOrEqual" value="2580"/>
         <Node id="16" score="C3">
          <SimplePredicate field="displacement" operator="lessOrEqual" value="87.5"/>
         </Node>
         <Node id="17" score="C4">
          <SimplePredicate field="displacement" operator="greaterThan" value="87.5"/>
         </Node>
        </Node>
        <Node id="9">
         <SimplePredicate field="weight" operator="greaterThan" value="2580"/>
         <Node id="18">
          <SimplePredicate field="displacement" operator="lessOrEqual" value="148.5"/>
          <Node id="26" score="C4">
           <SimplePredicate field="weight" operator="lessOrEqual" value="2711"/>
          </Node>
          <Node id="27" score="C3">
           <SimplePredicate field="weight" operator="greaterThan" value="2711"/>
          </Node>
         </Node>
         <Node id="19">
          <SimplePredicate field="displacement" operator="greaterThan" value="148.5"/>
          <Node id="28" score="C6">
           <SimpleSetPredicate field="year" booleanOperator="isIn">
            <Array n="9" type="string">&quot;Y70&quot;   &quot;Y71&quot;   &quot;Y74&quot;   &quot;Y76&quot;   &quot;Y78&quot;   &quot;Y79&quot;   &quot;Y80&quot;   &quot;Y81&quot;   &quot;Y82&quot;</Array>
           </SimpleSetPredicate>
          </Node>
          <Node id="29" score="C8">
           <SimpleSetPredicate field="year" booleanOperator="isIn">
            <Array n="4" type="string">&quot;Y72&quot;   &quot;Y73&quot;   &quot;Y75&quot;   &quot;Y77&quot;</Array>
           </SimpleSetPredicate>
          </Node>
         </Node>
        </Node>
       </Node>
       <Node id="5">
        <SimplePredicate field="power" operator="greaterThan" value="127"/>
        <Node id="10" score="C6">
         <SimplePredicate field="weight" operator="lessOrEqual" value="3057.5"/>
        </Node>
        <Node id="11" score="C8">
         <SimplePredicate field="weight" operator="greaterThan" value="3057.5"/>
        </Node>
       </Node>
      </Node>
      <Node id="3">
       <SimplePredicate field="speed" operator="greaterThan" value="13.75"/>
       <Node id="6">
        <SimplePredicate field="power" operator="lessOrEqual" value="97.5"/>
        <Node id="12">
         <SimplePredicate field="weight" operator="lessOrEqual" value="2887"/>
         <Node id="20">
          <SimplePredicate field="weight" operator="lessOrEqual" value="2764.5"/>
          <Node id="30" score="C4">
           <SimplePredicate field="weight" operator="lessOrEqual" value="2573.5"/>
          </Node>
          <Node id="31">
           <SimplePredicate field="weight" operator="greaterThan" value="2573.5"/>
           <Node id="42" score="C4">
            <SimplePredicate field="displacement" operator="lessOrEqual" value="177.5"/>
           </Node>
           <Node id="43" score="C6">
            <SimplePredicate field="displacement" operator="greaterThan" value="177.5"/>
           </Node>
          </Node>
         </Node>
         <Node id="21">
          <SimplePredicate field="weight" operator="greaterThan" value="2764.5"/>
          <Node id="32" score="C4">
           <SimplePredicate field="power" operator="lessOrEqual" value="93.5"/>
          </Node>
          <Node id="33" score="C6">
           <SimplePredicate field="power" operator="greaterThan" value="93.5"/>
          </Node>
         </Node>
        </Node>
        <Node id="13">
         <SimplePredicate field="weight" operator="greaterThan" value="2887"/>
         <Node id="22">
          <SimplePredicate field="power" operator="lessOrEqual" value="71.5"/>
          <Node id="34" score="C6">
           <SimplePredicate field="speed" operator="lessOrEqual" value="20.85"/>
          </Node>
          <Node id="35" score="C4">
           <SimplePredicate field="speed" operator="greaterThan" value="20.85"/>
          </Node>
         </Node>
         <Node id="23">
          <SimplePredicate field="power" operator="greaterThan" value="71.5"/>
          <Node id="36">
           <SimplePredicate field="speed" operator="lessOrEqual" value="21.6"/>
           <Node id="44">
            <SimplePredicate field="weight" operator="lessOrEqual" value="2961"/>
            <Node id="52" score="C6">
             <SimplePredicate field="weight" operator="lessOrEqual" value="2930.5"/>
            </Node>
            <Node id="53" score="C4">
             <SimplePredicate field="weight" operator="greaterThan" value="2930.5"/>
            </Node>
           </Node>
           <Node id="45">
            <SimplePredicate field="weight" operator="greaterThan" value="2961"/>
            <Node id="54" score="C6">
             <SimplePredicate field="speed" operator="lessOrEqual" value="20.25"/>
            </Node>
            <Node id="55">
             <SimplePredicate field="speed" operator="greaterThan" value="20.25"/>
             <Node id="56" score="C4">
              <SimplePredicate field="weight" operator="lessOrEqual" value="3331"/>
             </Node>
             <Node id="57" score="C6">
              <SimplePredicate field="weight" operator="greaterThan" value="3331"/>
             </Node>
            </Node>
           </Node>
          </Node>
          <Node id="37" score="C8">
           <SimplePredicate field="speed" operator="greaterThan" value="21.6"/>
          </Node>
         </Node>
        </Node>
       </Node>
       <Node id="7">
        <SimplePredicate field="power" operator="greaterThan" value="97.5"/>
        <Node id="14">
         <SimplePredicate field="displacement" operator="lessOrEqual" value="259"/>
         <Node id="24">
          <SimpleSetPredicate field="year" booleanOperator="isIn">
           <Array n="3" type="string">&quot;Y72&quot;   &quot;Y80&quot;   &quot;Y81&quot;</Array>
          </SimpleSetPredicate>
          <Node id="38" score="C4">
           <SimplePredicate field="displacement" operator="lessOrEqual" value="133.5"/>
          </Node>
          <Node id="39">
           <SimplePredicate field="displacement" operator="greaterThan" value="133.5"/>
           <Node id="46" score="C6">
            <SimplePredicate field="speed" operator="lessOrEqual" value="14.1"/>
           </Node>
           <Node id="47" score="C4">
            <SimplePredicate field="speed" operator="greaterThan" value="14.1"/>
           </Node>
          </Node>
         </Node>
         <Node id="25">
          <SimpleSetPredicate field="year" booleanOperator="isIn">
           <Array n="10" type="string">&quot;Y70&quot;   &quot;Y71&quot;   &quot;Y73&quot;   &quot;Y74&quot;   &quot;Y75&quot;   &quot;Y76&quot;   &quot;Y77&quot;   &quot;Y78&quot;   &quot;Y79&quot;   &quot;Y82&quot;</Array>
          </SimpleSetPredicate>
          <Node id="40">
           <SimplePredicate field="economy" operator="lessOrEqual" value="21.3"/>
           <Node id="48" score="C4">
            <SimplePredicate field="displacement" operator="lessOrEqual" value="130.5"/>
           </Node>
           <Node id="49" score="C6">
            <SimplePredicate field="displacement" operator="greaterThan" value="130.5"/>
           </Node>
          </Node>
          <Node id="41">
           <SimplePredicate field="economy" operator="greaterThan" value="21.3"/>
           <Node id="50" score="C6">
            <SimpleSetPredicate field="year" booleanOperator="isIn">
             <Array n="7" type="string">&quot;Y70&quot;   &quot;Y74&quot;   &quot;Y76&quot;   &quot;Y79&quot;   &quot;Y80&quot;   &quot;Y81&quot;   &quot;Y82&quot;</Array>
            </SimpleSetPredicate>
           </Node>
           <Node id="51" score="C4">
            <SimpleSetPredicate field="year" booleanOperator="isIn">
             <Array n="6" type="string">&quot;Y71&quot;   &quot;Y72&quot;   &quot;Y73&quot;   &quot;Y75&quot;   &quot;Y77&quot;   &quot;Y78&quot;</Array>
            </SimpleSetPredicate>
           </Node>
          </Node>
         </Node>
        </Node>
        <Node id="15" score="C8">
         <SimplePredicate field="displacement" operator="greaterThan" value="259"/>
        </Node>
       </Node>
      </Node>
     </Node>
    </TreeModel>
   </Segment>
   <Segment id="10">
    <True/>
    <TreeModel modelName="randomForest_Model" functionName="classification" algorithmName="randomForest" splitCharacteristic="binarySplit">
     <MiningSchema>
      <MiningField name="cylinders" usageType="predicted"/>
      <MiningField name="economy" usageType="active"/>
      <MiningField name="displacement" usageType="active"/>
      <MiningField name="power" usageType="active"/>
      <MiningField name="weight" usageType="active"/>
      <MiningField name="speed" usageType="active"/>
      <MiningField name="year" usageType="active"/>
     </MiningSchema>
     <Node id="1">
      <True/>
      <Node id="2">
       <SimplePredicate field="weight" operator="lessOrEqual" value="2885"/>
       <Node id="4">
        <SimplePredicate field="economy" operator="lessOrEqual" value="21.05"/>
        <Node id="8">
         <SimplePredicate field="displacement" operator="lessOrEqual" value="126.5"/>
         <Node id="16" score="C3">
          <SimplePredicate field="weight" operator="lessOrEqual" value="2217"/>
         </Node>
         <Node id="17">
          <SimplePredicate field="weight" operator="greaterThan" value="2217"/>
          <Node id="26" score="C3">
           <SimpleSetPredicate field="year" booleanOperator="isIn">
            <Array n="8" type="string">&quot;Y71&quot;   &quot;Y72&quot;   &quot;Y74&quot;   &quot;Y75&quot;   &quot;Y76&quot;   &quot;Y79&quot;   &quot;Y80&quot;   &quot;Y82&quot;</Array>
           </SimpleSetPredicate>
          </Node>
          <Node id="27" score="C4">
           <SimpleSetPredicate field="year" booleanOperator="isIn">
            <Array n="5" type="string">&quot;Y70&quot;   &quot;Y73&quot;   &quot;Y77&quot;   &quot;Y78&quot;   &quot;Y81&quot;</Array>
           </SimpleSetPredicate>
          </Node>
         </Node>
        </Node>
        <Node id="9">
         <SimplePredicate field="displacement" operator="greaterThan" value="126.5"/>
         <Node id="18" score="C6">
          <SimplePredicate field="economy" operator="lessOrEqual" value="20.65"/>
         </Node>
         <Node id="19">
          <SimplePredicate field="economy" operator="greaterThan" value="20.65"/>
          <Node id="28" score="C4">
           <SimplePredicate field="power" operator="lessOrEqual" value="78.5"/>
          </Node>
          <Node id="29" score="C6">
           <SimplePredicate field="power" operator="greaterThan" value="78.5"/>
          </Node>
         </Node>
        </Node>
       </Node>
       <Node id="5">
        <SimplePredicate field="economy" operator="greaterThan" value="21.05"/>
        <Node id="10" score="C4">
         <SimplePredicate field="power" operator="lessOrEqual" value="98.5"/>
        </Node>
        <Node id="11">
         <SimplePredicate field="power" operator="greaterThan" value="98.5"/>
         <Node id="20">
          <SimplePredicate field="economy" operator="lessOrEqual" value="23.85"/>
          <Node id="30">
           <SimplePredicate field="power" operator="lessOrEqual" value="112.5"/>
           <Node id="34" score="C3">
            <SimplePredicate field="weight" operator="lessOrEqual" value="2572.5"/>
           </Node>
           <Node id="35" score="C6">
            <SimplePredicate field="weight" operator="greaterThan" value="2572.5"/>
           </Node>
          </Node>
          <Node id="31" score="C4">
           <SimplePredicate field="power" operator="greaterThan" value="112.5"/>
          </Node>
         </Node>
         <Node id="21" score="C4">
          <SimplePredicate field="economy" operator="greaterThan" value="23.85"/>
         </Node>
        </Node>
       </Node>
      </Node>
      <Node id="3">
       <SimplePredicate field="weight" operator="greaterThan" value="2885"/>
       <Node id="6">
        <SimplePredicate field="speed" operator="lessOrEqual" value="14.4"/>
        <Node id="12" score="C6">
         <SimplePredicate field="weight" operator="lessOrEqual" value="3008"/>
        </Node>
        <Node id="13">
         <SimplePredicate field="weight" operator="greaterThan" value="3008"/>
         <Node id="22" score="C6">
          <SimplePredicate field="displacement" operator="lessOrEqual" value="246.5"/>
         </Node>
         <Node id="23" score="C8">
          <SimplePredicate field="displacement" operator="greaterThan" value="246.5"/>
         </Node>
        </Node>
       </Node>
       <Node id="7">
        <SimplePredicate field="speed" operator="greaterThan" value="14.4"/>
        <Node id="14">
         <SimplePredicate field="displacement" operator="lessOrEqual" value="259"/>
         <Node id="24">
          <SimplePredicate field="displacement" operator="lessOrEqual" value="153.5"/>
          <Node id="32">
           <SimplePredicate field="power" operator="lessOrEqual" value="78"/>
           <Node id="36" score="C6">
            <SimplePredicate field="weight" operator="lessOrEqual" value="3205"/>
           </Node>
           <Node id="37" score="C4">
            <SimplePredicate field="weight" operator="greaterThan" value="3205"/>
           </Node>
          </Node>
          <Node id="33" score="C4">
           <SimplePredicate field="power" operator="greaterThan" value="78"/>
          </Node>
         </Node>
         <Node id="25" score="C6">
          <SimplePredicate field="displacement" operator="greaterThan" value="153.5"/>
         </Node>
        </Node>
        <Node id="15" score="C8">
         <SimplePredicate field="displacement" operator="greaterThan" value="259"/>
        </Node>
       </Node>
      </Node>
     </Node>
    </TreeModel>
   </Segment>
   <Segment id="11">
    <True/>
    <TreeModel modelName="randomForest_Model" functionName="classification" algorithmName="randomForest" splitCharacteristic="binarySplit">
     <MiningSchema>
      <MiningField name="cylinders" usageType="predicted"/>
      <MiningField name="economy" usageType="active"/>
      <MiningField name="displacement" usageType="active"/>
      <MiningField name="power" usageType="active"/>
      <MiningField name="weight" usageType="active"/>
      <MiningField name="speed" usageType="active"/>
      <MiningField name="year" usageType="active"/>
     </MiningSchema>
     <Node id="1">
      <True/>
      <Node id="2">
       <SimplePredicate field="power" operator="lessOrEqual" value="118"/>
       <Node id="4">
        <SimpleSetPredicate field="year" booleanOperator="isIn">
         <Array n="7" type="string">&quot;Y71&quot;   &quot;Y74&quot;   &quot;Y75&quot;   &quot;Y76&quot;   &quot;Y77&quot;   &quot;Y78&quot;   &quot;Y79&quot;</Array>
        </SimpleSetPredicate>
        <Node id="8">
         <SimplePredicate field="displacement" operator="lessOrEqual" value="143.5"/>
         <Node id="14">
          <SimplePredicate field="speed" operator="lessOrEqual" value="13.55"/>
          <Node id="22" score="C3">
           <SimplePredicate field="economy" operator="lessOrEqual" value="22.75"/>
          </Node>
          <Node id="23" score="C4">
           <SimplePredicate field="economy" operator="greaterThan" value="22.75"/>
          </Node>
         </Node>
         <Node id="15">
          <SimplePredicate field="speed" operator="greaterThan" value="13.55"/>
          <Node id="24" score="C4">
           <SimplePredicate field="displacement" operator="lessOrEqual" value="126.5"/>
          </Node>
          <Node id="25">
           <SimplePredicate field="displacement" operator="greaterThan" value="126.5"/>
           <Node id="34" score="C4">
            <SimplePredicate field="power" operator="lessOrEqual" value="99"/>
           </Node>
           <Node id="35" score="C6">
            <SimplePredicate field="power" operator="greaterThan" value="99"/>
           </Node>
          </Node>
         </Node>
        </Node>
        <Node id="9">
         <SimplePredicate field="displacement" operator="greaterThan" value="143.5"/>
         <Node id="16">
          <SimplePredicate field="displacement" operator="lessOrEqual" value="259"/>
          <Node id="26" score="C6">
           <SimplePredicate field="economy" operator="lessOrEqual" value="30.15"/>
          </Node>
          <Node id="27" score="C4">
           <SimplePredicate field="economy" operator="greaterThan" value="30.15"/>
          </Node>
         </Node>
         <Node id="17" score="C8">
          <SimplePredicate field="displacement" operator="greaterThan" value="259"/>
         </Node>
        </Node>
       </Node>
       <Node id="5">
        <SimpleSetPredicate field="year" booleanOperator="isIn">
         <Array n="6" type="string">&quot;Y70&quot;   &quot;Y72&quot;   &quot;Y73&quot;   &quot;Y80&quot;   &quot;Y81&quot;   &quot;Y82&quot;</Array>
        </SimpleSetPredicate>
        <Node id="10">
         <SimplePredicate field="speed" operator="lessOrEqual" value="13.7"/>
         <Node id="18" score="C3">
          <SimplePredicate field="economy" operator="lessOrEqual" value="24.55"/>
         </Node>
         <Node id="19">
          <SimplePredicate field="economy" operator="greaterThan" value="24.55"/>
          <Node id="28" score="C6">
           <SimplePredicate field="economy" operator="lessOrEqual" value="25.7"/>
          </Node>
          <Node id="29" score="C4">
           <SimplePredicate field="economy" operator="greaterThan" value="25.7"/>
          </Node>
         </Node>
        </Node>
        <Node id="11">
         <SimplePredicate field="speed" operator="greaterThan" value="13.7"/>
         <Node id="20">
          <SimplePredicate field="economy" operator="lessOrEqual" value="23.5"/>
          <Node id="30" score="C4">
           <SimplePredicate field="displacement" operator="lessOrEqual" value="138.5"/>
          </Node>
          <Node id="31" score="C6">
           <SimplePredicate field="displacement" operator="greaterThan" value="138.5"/>
          </Node>
         </Node>
         <Node id="21">
          <SimplePredicate field="economy" operator="greaterThan" value="23.5"/>
          <Node id="32">
           <SimpleSetPredicate field="year" booleanOperator="isIn">
            <Array n="7" type="string">&quot;Y70&quot;   &quot;Y72&quot;   &quot;Y73&quot;   &quot;Y75&quot;   &quot;Y79&quot;   &quot;Y80&quot;   &quot;Y82&quot;</Array>
           </SimpleSetPredicate>
           <Node id="36" score="C4">
            <SimplePredicate field="economy" operator="lessOrEqual" value="37.6"/>
           </Node>
           <Node id="37">
            <SimplePredicate field="economy" operator="greaterThan" value="37.6"/>
            <Node id="40">
             <SimplePredicate field="speed" operator="lessOrEqual" value="17.9"/>
             <Node id="44" score="C4">
              <SimplePredicate field="displacement" operator="lessOrEqual" value="183.5"/>
             </Node>
             <Node id="45" score="C6">
              <SimplePredicate field="displacement" operator="greaterThan" value="183.5"/>
             </Node>
            </Node>
            <Node id="41" score="C4">
             <SimplePredicate field="speed" operator="greaterThan" value="17.9"/>
            </Node>
           </Node>
          </Node>
          <Node id="33">
           <SimpleSetPredicate field="year" booleanOperator="isIn">
            <Array n="6" type="string">&quot;Y71&quot;   &quot;Y74&quot;   &quot;Y76&quot;   &quot;Y77&quot;   &quot;Y78&quot;   &quot;Y81&quot;</Array>
           </SimpleSetPredicate>
           <Node id="38" score="C4">
            <SimplePredicate field="weight" operator="lessOrEqual" value="2890"/>
           </Node>
           <Node id="39">
            <SimplePredicate field="weight" operator="greaterThan" value="2890"/>
            <Node id="42" score="C6">
             <SimplePredicate field="displacement" operator="lessOrEqual" value="247.5"/>
            </Node>
            <Node id="43" score="C8">
             <SimplePredicate field="displacement" operator="greaterThan" value="247.5"/>
            </Node>
           </Node>
          </Node>
         </Node>
        </Node>
       </Node>
      </Node>
      <Node id="3">
       <SimplePredicate field="power" operator="greaterThan" value="118"/>
       <Node id="6">
        <SimplePredicate field="economy" operator="lessOrEqual" value="27.85"/>
        <Node id="12" score="C6">
         <SimplePredicate field="displacement" operator="lessOrEqual" value="235"/>
        </Node>
        <Node id="13" score="C8">
         <SimplePredicate field="displacement" operator="greaterThan" value="235"/>
        </Node>
       </Node>
       <Node id="7" score="C6">
        <SimplePredicate field="economy" operator="greaterThan" value="27.85"/>
       </Node>
      </Node>
     </Node>
    </TreeModel>
   </Segment>
   <Segment id="12">
    <True/>
    <TreeModel modelName="randomForest_Model" functionName="classification" algorithmName="randomForest" splitCharacteristic="binarySplit">
     <MiningSchema>
      <MiningField name="cylinders" usageType="predicted"/>
      <MiningField name="economy" usageType="active"/>
      <MiningField name="displacement" usageType="active"/>
      <MiningField name="power" usageType="active"/>
      <MiningField name="weight" usageType="active"/>
      <MiningField name="speed" usageType="active"/>
      <MiningField name="year" usageType="active"/>
     </MiningSchema>
     <Node id="1">
      <True/>
      <Node id="2">
       <SimplePredicate field="speed" operator="lessOrEqual" value="14.05"/>
       <Node id="4">
        <SimplePredicate field="weight" operator="lessOrEqual" value="3172.5"/>
        <Node id="8">
         <SimplePredicate field="weight" operator="lessOrEqual" value="2608"/>
         <Node id="16" score="C4">
          <SimplePredicate field="displacement" operator="lessOrEqual" value="147.5"/>
         </Node>
         <Node id="17" score="C6">
          <SimplePredicate field="displacement" operator="greaterThan" value="147.5"/>
         </Node>
        </Node>
        <Node id="9">
         <SimplePredicate field="weight" operator="greaterThan" value="2608"/>
         <Node id="18">
          <SimplePredicate field="displacement" operator="lessOrEqual" value="145"/>
          <Node id="28" score="C3">
           <SimplePredicate field="speed" operator="lessOrEqual" value="13.7"/>
          </Node>
          <Node id="29" score="C4">
           <SimplePredicate field="speed" operator="greaterThan" value="13.7"/>
          </Node>
         </Node>
         <Node id="19" score="C6">
          <SimplePredicate field="displacement" operator="greaterThan" value="145"/>
         </Node>
        </Node>
       </Node>
       <Node id="5">
        <SimplePredicate field="weight" operator="greaterThan" value="3172.5"/>
        <Node id="10" score="C6">
         <SimplePredicate field="displacement" operator="lessOrEqual" value="266.5"/>
        </Node>
        <Node id="11" score="C8">
         <SimplePredicate field="displacement" operator="greaterThan" value="266.5"/>
        </Node>
       </Node>
      </Node>
      <Node id="3">
       <SimplePredicate field="speed" operator="greaterThan" value="14.05"/>
       <Node id="6">
        <SimplePredicate field="displacement" operator="lessOrEqual" value="159.5"/>
        <Node id="12">
         <SimplePredicate field="power" operator="lessOrEqual" value="101.5"/>
         <Node id="20" score="C4">
          <SimplePredicate field="displacement" operator="lessOrEqual" value="120.5"/>
         </Node>
         <Node id="21">
          <SimplePredicate field="displacement" operator="greaterThan" value="120.5"/>
          <Node id="30">
           <SimplePredicate field="economy" operator="lessOrEqual" value="33.2"/>
           <Node id="38" score="C4">
            <SimplePredicate field="displacement" operator="lessOrEqual" value="143.5"/>
           </Node>
           <Node id="39">
            <SimplePredicate field="displacement" operator="greaterThan" value="143.5"/>
            <Node id="42">
             <SimplePredicate field="displacement" operator="lessOrEqual" value="148.5"/>
             <Node id="46" score="C6">
              <SimplePredicate field="economy" operator="lessOrEqual" value="26"/>
             </Node>
             <Node id="47" score="C4">
              <SimplePredicate field="economy" operator="greaterThan" value="26"/>
             </Node>
            </Node>
            <Node id="43" score="C4">
             <SimplePredicate field="displacement" operator="greaterThan" value="148.5"/>
            </Node>
           </Node>
          </Node>
          <Node id="31" score="C6">
           <SimplePredicate field="economy" operator="greaterThan" value="33.2"/>
          </Node>
         </Node>
        </Node>
        <Node id="13">
         <SimplePredicate field="power" operator="greaterThan" value="101.5"/>
         <Node id="22" score="C4">
          <SimpleSetPredicate field="year" booleanOperator="isIn">
           <Array n="7" type="string">&quot;Y70&quot;   &quot;Y71&quot;   &quot;Y72&quot;   &quot;Y73&quot;   &quot;Y74&quot;   &quot;Y77&quot;   &quot;Y80&quot;</Array>
          </SimpleSetPredicate>
         </Node>
         <Node id="23">
          <SimpleSetPredicate field="year" booleanOperator="isIn">
           <Array n="6" type="string">&quot;Y75&quot;   &quot;Y76&quot;   &quot;Y78&quot;   &quot;Y79&quot;   &quot;Y81&quot;   &quot;Y82&quot;</Array>
          </SimpleSetPredicate>
          <Node id="32" score="C6">
           <SimplePredicate field="speed" operator="lessOrEqual" value="16.3"/>
          </Node>
          <Node id="33" score="C4">
           <SimplePredicate field="speed" operator="greaterThan" value="16.3"/>
          </Node>
         </Node>
        </Node>
       </Node>
       <Node id="7">
        <SimplePredicate field="displacement" operator="greaterThan" value="159.5"/>
        <Node id="14">
         <SimplePredicate field="power" operator="lessOrEqual" value="122.5"/>
         <Node id="24">
          <SimpleSetPredicate field="year" booleanOperator="isIn">
           <Array n="4" type="string">&quot;Y72&quot;   &quot;Y77&quot;   &quot;Y78&quot;   &quot;Y82&quot;</Array>
          </SimpleSetPredicate>
          <Node id="34" score="C6">
           <SimplePredicate field="power" operator="lessOrEqual" value="107.5"/>
          </Node>
          <Node id="35">
           <SimplePredicate field="power" operator="greaterThan" value="107.5"/>
           <Node id="40" score="C8">
            <SimplePredicate field="economy" operator="lessOrEqual" value="17.25"/>
           </Node>
           <Node id="41">
            <SimplePredicate field="economy" operator="greaterThan" value="17.25"/>
            <Node id="44" score="C6">
             <SimplePredicate field="economy" operator="lessOrEqual" value="19.25"/>
            </Node>
            <Node id="45" score="C8">
             <SimplePredicate field="economy" operator="greaterThan" value="19.25"/>
            </Node>
           </Node>
          </Node>
         </Node>
         <Node id="25" score="C6">
          <SimpleSetPredicate field="year" booleanOperator="isIn">
           <Array n="9" type="string">&quot;Y70&quot;   &quot;Y71&quot;   &quot;Y73&quot;   &quot;Y74&quot;   &quot;Y75&quot;   &quot;Y76&quot;   &quot;Y79&quot;   &quot;Y80&quot;   &quot;Y81&quot;</Array>
          </SimpleSetPredicate>
         </Node>
        </Node>
        <Node id="15">
         <SimplePredicate field="power" operator="greaterThan" value="122.5"/>
         <Node id="26" score="C8">
          <SimplePredicate field="speed" operator="lessOrEqual" value="15.5"/>
         </Node>
         <Node id="27">
          <SimplePredicate field="speed" operator="greaterThan" value="15.5"/>
          <Node id="36" score="C6">
           <SimplePredicate field="speed" operator="lessOrEqual" value="16.6"/>
          </Node>
          <Node id="37" score="C8">
           <SimplePredicate field="speed" operator="greaterThan" value="16.6"/>
          </Node>
         </Node>
        </Node>
       </Node>
      </Node>
     </Node>
    </TreeModel>
   </Segment>
   <Segment id="13">
    <True/>
    <TreeModel modelName="randomForest_Model" functionName="classification" algorithmName="randomForest" splitCharacteristic="binarySplit">
     <MiningSchema>
      <MiningField name="cylinders" usageType="predicted"/>
      <MiningField name="economy" usageType="active"/>
      <MiningField name="displacement" usageType="active"/>
      <MiningField name="power" usageType="active"/>
      <MiningField name="weight" usageType="active"/>
      <MiningField name="speed" usageType="active"/>
      <MiningField name="year" usageType="active"/>
     </MiningSchema>
     <Node id="1">
      <True/>
      <Node id="2">
       <SimplePredicate field="displacement" operator="lessOrEqual" value="153.5"/>
       <Node id="4">
        <SimplePredicate field="speed" operator="lessOrEqual" value="12.65"/>
        <Node id="8" score="C3">
         <SimplePredicate field="displacement" operator="lessOrEqual" value="102.5"/>
        </Node>
        <Node id="9" score="C4">
         <SimplePredicate field="displacement" operator="greaterThan" value="102.5"/>
        </Node>
       </Node>
       <Node id="5">
        <SimplePredicate field="speed" operator="greaterThan" value="12.65"/>
        <Node id="10" score="C4">
         <SimplePredicate field="power" operator="lessOrEqual" value="96.5"/>
        </Node>
        <Node id="11">
         <SimplePredicate field="power" operator="greaterThan" value="96.5"/>
         <Node id="14">
          <SimpleSetPredicate field="year" booleanOperator="isIn">
           <Array n="4" type="string">&quot;Y77&quot;   &quot;Y78&quot;   &quot;Y80&quot;   &quot;Y82&quot;</Array>
          </SimpleSetPredicate>
          <Node id="18" score="C4">
           <SimplePredicate field="weight" operator="lessOrEqual" value="2660"/>
          </Node>
          <Node id="19">
           <SimplePredicate field="weight" operator="greaterThan" value="2660"/>
           <Node id="22" score="C3">
            <SimplePredicate field="speed" operator="lessOrEqual" value="14"/>
           </Node>
           <Node id="23" score="C6">
            <SimplePredicate field="speed" operator="greaterThan" value="14"/>
           </Node>
          </Node>
         </Node>
         <Node id="15" score="C4">
          <SimpleSetPredicate field="year" booleanOperator="isIn">
           <Array n="9" type="string">&quot;Y70&quot;   &quot;Y71&quot;   &quot;Y72&quot;   &quot;Y73&quot;   &quot;Y74&quot;   &quot;Y75&quot;   &quot;Y76&quot;   &quot;Y79&quot;   &quot;Y81&quot;</Array>
          </SimpleSetPredicate>
         </Node>
        </Node>
       </Node>
      </Node>
      <Node id="3">
       <SimplePredicate field="displacement" operator="greaterThan" value="153.5"/>
       <Node id="6">
        <SimplePredicate field="displacement" operator="lessOrEqual" value="264.5"/>
        <Node id="12">
         <SimplePredicate field="weight" operator="lessOrEqual" value="3983.5"/>
         <Node id="16">
          <SimplePredicate field="displacement" operator="lessOrEqual" value="159.5"/>
          <Node id="20" score="C4">
           <SimplePredicate field="speed" operator="lessOrEqual" value="14.95"/>
          </Node>
          <Node id="21" score="C6">
           <SimplePredicate field="speed" operator="greaterThan" value="14.95"/>
          </Node>
         </Node>
         <Node id="17" score="C6">
          <SimplePredicate field="displacement" operator="greaterThan" value="159.5"/>
         </Node>
        </Node>
        <Node id="13" score="C8">
         <SimplePredicate field="weight" operator="greaterThan" value="3983.5"/>
        </Node>
       </Node>
       <Node id="7" score="C8">
        <SimplePredicate field="displacement" operator="greaterThan" value="264.5"/>
       </Node>
      </Node>
     </Node>
    </TreeModel>
   </Segment>
   <Segment id="14">
    <True/>
    <TreeModel modelName="randomForest_Model" functionName="classification" algorithmName="randomForest" splitCharacteristic="binarySplit">
     <MiningSchema>
      <MiningField name="cylinders" usageType="predicted"/>
      <MiningField name="economy" usageType="active"/>
      <MiningField name="displacement" usageType="active"/>
      <MiningField name="power" usageType="active"/>
      <MiningField name="weight" usageType="active"/>
      <MiningField name="speed" usageType="active"/>
      <MiningField name="year" usageType="active"/>
     </MiningSchema>
     <Node id="1">
      <True/>
      <Node id="2">
       <SimplePredicate field="displacement" operator="lessOrEqual" value="153"/>
       <Node id="4">
        <SimplePredicate field="displacement" operator="lessOrEqual" value="70.5"/>
        <Node id="8" score="C4">
         <SimplePredicate field="weight" operator="lessOrEqual" value="1995.5"/>
        </Node>
        <Node id="9" score="C3">
         <SimplePredicate field="weight" operator="greaterThan" value="1995.5"/>
        </Node>
       </Node>
       <Node id="5">
        <SimplePredicate field="displacement" operator="greaterThan" value="70.5"/>
        <Node id="10">
         <SimplePredicate field="displacement" operator="lessOrEqual" value="144.5"/>
         <Node id="16" score="C4">
          <SimplePredicate field="power" operator="lessOrEqual" value="102.5"/>
         </Node>
         <Node id="17">
          <SimplePredicate field="power" operator="greaterThan" value="102.5"/>
          <Node id="22">
           <SimplePredicate field="power" operator="lessOrEqual" value="111"/>
           <Node id="26" score="C6">
            <SimplePredicate field="power" operator="lessOrEqual" value="106.5"/>
           </Node>
           <Node id="27" score="C3">
            <SimplePredicate field="power" operator="greaterThan" value="106.5"/>
           </Node>
          </Node>
          <Node id="23" score="C4">
           <SimplePredicate field="power" operator="greaterThan" value="111"/>
          </Node>
         </Node>
        </Node>
        <Node id="11">
         <SimplePredicate field="displacement" operator="greaterThan" value="144.5"/>
         <Node id="18">
          <SimplePredicate field="power" operator="lessOrEqual" value="93.5"/>
          <Node id="24" score="C6">
           <SimpleSetPredicate field="year" booleanOperator="isIn">
            <Array n="5" type="string">&quot;Y70&quot;   &quot;Y71&quot;   &quot;Y72&quot;   &quot;Y73&quot;   &quot;Y81&quot;</Array>
           </SimpleSetPredicate>
          </Node>
          <Node id="25" score="C4">
           <SimpleSetPredicate field="year" booleanOperator="isIn">
            <Array n="8" type="string">&quot;Y74&quot;   &quot;Y75&quot;   &quot;Y76&quot;   &quot;Y77&quot;   &quot;Y78&quot;   &quot;Y79&quot;   &quot;Y80&quot;   &quot;Y82&quot;</Array>
           </SimpleSetPredicate>
          </Node>
         </Node>
         <Node id="19" score="C6">
          <SimplePredicate field="power" operator="greaterThan" value="93.5"/>
         </Node>
        </Node>
       </Node>
      </Node>
      <Node id="3">
       <SimplePredicate field="displacement" operator="greaterThan" value="153"/>
       <Node id="6">
        <SimplePredicate field="displacement" operator="lessOrEqual" value="259"/>
        <Node id="12">
         <SimplePredicate field="weight" operator="lessOrEqual" value="2803.5"/>
         <Node id="20" score="C4">
          <SimpleSetPredicate field="year" booleanOperator="isIn">
           <Array n="8" type="string">&quot;Y72&quot;   &quot;Y74&quot;   &quot;Y75&quot;   &quot;Y77&quot;   &quot;Y78&quot;   &quot;Y80&quot;   &quot;Y81&quot;   &quot;Y82&quot;</Array>
          </SimpleSetPredicate>
         </Node>
         <Node id="21" score="C6">
          <SimpleSetPredicate field="year" booleanOperator="isIn">
           <Array n="5" type="string">&quot;Y70&quot;   &quot;Y71&quot;   &quot;Y73&quot;   &quot;Y76&quot;   &quot;Y79&quot;</Array>
          </SimpleSetPredicate>
         </Node>
        </Node>
        <Node id="13" score="C6">
         <SimplePredicate field="weight" operator="greaterThan" value="2803.5"/>
        </Node>
       </Node>
       <Node id="7">
        <SimplePredicate field="displacement" operator="greaterThan" value="259"/>
        <Node id="14" score="C8">
         <SimplePredicate field="economy" operator="lessOrEqual" value="30.95"/>
        </Node>
        <Node id="15" score="C6">
         <SimplePredicate field="economy" operator="greaterThan" value="30.95"/>
        </Node>
       </Node>
      </Node>
     </Node>
    </TreeModel>
   </Segment>
   <Segment id="15">
    <True/>
    <TreeModel modelName="randomForest_Model" functionName="classification" algorithmName="randomForest" splitCharacteristic="binarySplit">
     <MiningSchema>
      <MiningField name="cylinders" usageType="predicted"/>
      <MiningField name="economy" usageType="active"/>
      <MiningField name="displacement" usageType="active"/>
      <MiningField name="power" usageType="active"/>
      <MiningField name="weight" usageType="active"/>
      <MiningField name="speed" usageType="active"/>
      <MiningField name="year" usageType="active"/>
     </MiningSchema>
     <Node id="1">
      <True/>
      <Node id="2">
       <SimplePredicate field="speed" operator="lessOrEqual" value="13.55"/>
       <Node id="4" score="C8">
        <SimplePredicate field="economy" operator="lessOrEqual" value="17.65"/>
       </Node>
       <Node id="5">
        <SimplePredicate field="economy" operator="greaterThan" value="17.65"/>
        <Node id="8">
         <SimplePredicate field="weight" operator="lessOrEqual" value="3091.5"/>
         <Node id="14">
          <SimplePredicate field="weight" operator="lessOrEqual" value="2617"/>
          <Node id="24" score="C3">
           <SimplePredicate field="displacement" operator="lessOrEqual" value="87.5"/>
          </Node>
          <Node id="25" score="C4">
           <SimplePredicate field="displacement" operator="greaterThan" value="87.5"/>
          </Node>
         </Node>
         <Node id="15">
          <SimplePredicate field="weight" operator="greaterThan" value="2617"/>
          <Node id="26">
           <SimplePredicate field="displacement" operator="lessOrEqual" value="151"/>
           <Node id="34" score="C3">
            <SimplePredicate field="economy" operator="lessOrEqual" value="22.75"/>
           </Node>
           <Node id="35" score="C4">
            <SimplePredicate field="economy" operator="greaterThan" value="22.75"/>
           </Node>
          </Node>
          <Node id="27" score="C6">
           <SimplePredicate field="displacement" operator="greaterThan" value="151"/>
          </Node>
         </Node>
        </Node>
        <Node id="9">
         <SimplePredicate field="weight" operator="greaterThan" value="3091.5"/>
         <Node id="16" score="C8">
          <SimplePredicate field="power" operator="lessOrEqual" value="157.5"/>
         </Node>
         <Node id="17" score="C6">
          <SimplePredicate field="power" operator="greaterThan" value="157.5"/>
         </Node>
        </Node>
       </Node>
      </Node>
      <Node id="3">
       <SimplePredicate field="speed" operator="greaterThan" value="13.55"/>
       <Node id="6">
        <SimpleSetPredicate field="year" booleanOperator="isIn">
         <Array n="9" type="string">&quot;Y72&quot;   &quot;Y73&quot;   &quot;Y74&quot;   &quot;Y76&quot;   &quot;Y77&quot;   &quot;Y79&quot;   &quot;Y80&quot;   &quot;Y81&quot;   &quot;Y82&quot;</Array>
        </SimpleSetPredicate>
        <Node id="10">
         <SimplePredicate field="weight" operator="lessOrEqual" value="3007.5"/>
         <Node id="18" score="C4">
          <SimplePredicate field="power" operator="lessOrEqual" value="96"/>
         </Node>
         <Node id="19">
          <SimplePredicate field="power" operator="greaterThan" value="96"/>
          <Node id="28">
           <SimplePredicate field="economy" operator="lessOrEqual" value="23"/>
           <Node id="36">
            <SimpleSetPredicate field="year" booleanOperator="isIn">
             <Array n="10" type="string">&quot;Y70&quot;   &quot;Y71&quot;   &quot;Y73&quot;   &quot;Y74&quot;   &quot;Y75&quot;   &quot;Y76&quot;   &quot;Y77&quot;   &quot;Y79&quot;   &quot;Y80&quot;   &quot;Y82&quot;</Array>
            </SimpleSetPredicate>
            <Node id="44" score="C4">
             <SimplePredicate field="displacement" operator="lessOrEqual" value="133.5"/>
            </Node>
            <Node id="45" score="C6">
             <SimplePredicate field="displacement" operator="greaterThan" value="133.5"/>
            </Node>
           </Node>
           <Node id="37" score="C4">
            <SimpleSetPredicate field="year" booleanOperator="isIn">
             <Array n="3" type="string">&quot;Y72&quot;   &quot;Y78&quot;   &quot;Y81&quot;</Array>
            </SimpleSetPredicate>
           </Node>
          </Node>
          <Node id="29" score="C4">
           <SimplePredicate field="economy" operator="greaterThan" value="23"/>
          </Node>
         </Node>
        </Node>
        <Node id="11">
         <SimplePredicate field="weight" operator="greaterThan" value="3007.5"/>
         <Node id="20">
          <SimplePredicate field="power" operator="lessOrEqual" value="122.5"/>
          <Node id="30">
           <SimplePredicate field="weight" operator="lessOrEqual" value="3855.5"/>
           <Node id="38">
            <SimplePredicate field="economy" operator="lessOrEqual" value="26.3"/>
            <Node id="46">
             <SimplePredicate field="speed" operator="lessOrEqual" value="15.75"/>
             <Node id="54" score="C4">
              <SimplePredicate field="power" operator="lessOrEqual" value="108.5"/>
             </Node>
             <Node id="55" score="C6">
              <SimplePredicate field="power" operator="greaterThan" value="108.5"/>
             </Node>
            </Node>
            <Node id="47" score="C6">
             <SimplePredicate field="speed" operator="greaterThan" value="15.75"/>
            </Node>
           </Node>
           <Node id="39">
            <SimplePredicate field="economy" operator="greaterThan" value="26.3"/>
            <Node id="48" score="C4">
             <SimplePredicate field="economy" operator="lessOrEqual" value="29.4"/>
            </Node>
            <Node id="49" score="C6">
             <SimplePredicate field="economy" operator="greaterThan" value="29.4"/>
            </Node>
           </Node>
          </Node>
          <Node id="31" score="C8">
           <SimplePredicate field="weight" operator="greaterThan" value="3855.5"/>
          </Node>
         </Node>
         <Node id="21" score="C8">
          <SimplePredicate field="power" operator="greaterThan" value="122.5"/>
         </Node>
        </Node>
       </Node>
       <Node id="7">
        <SimpleSetPredicate field="year" booleanOperator="isIn">
         <Array n="4" type="string">&quot;Y70&quot;   &quot;Y71&quot;   &quot;Y75&quot;   &quot;Y78&quot;</Array>
        </SimpleSetPredicate>
        <Node id="12" score="C4">
         <SimplePredicate field="weight" operator="lessOrEqual" value="2573.5"/>
        </Node>
        <Node id="13">
         <SimplePredicate field="weight" operator="greaterThan" value="2573.5"/>
         <Node id="22">
          <SimplePredicate field="displacement" operator="lessOrEqual" value="281"/>
          <Node id="32">
           <SimplePredicate field="power" operator="lessOrEqual" value="97.5"/>
           <Node id="40">
            <SimplePredicate field="weight" operator="lessOrEqual" value="2747"/>
            <Node id="50" score="C4">
             <SimplePredicate field="displacement" operator="lessOrEqual" value="169.5"/>
            </Node>
            <Node id="51" score="C6">
             <SimplePredicate field="displacement" operator="greaterThan" value="169.5"/>
            </Node>
           </Node>
           <Node id="41" score="C6">
            <SimplePredicate field="weight" operator="greaterThan" value="2747"/>
           </Node>
          </Node>
          <Node id="33">
           <SimplePredicate field="power" operator="greaterThan" value="97.5"/>
           <Node id="42" score="C4">
            <SimplePredicate field="speed" operator="lessOrEqual" value="14.75"/>
           </Node>
           <Node id="43">
            <SimplePredicate field="speed" operator="greaterThan" value="14.75"/>
            <Node id="52" score="C6">
             <SimplePredicate field="economy" operator="lessOrEqual" value="21.3"/>
            </Node>
            <Node id="53" score="C4">
             <SimplePredicate field="economy" operator="greaterThan" value="21.3"/>
            </Node>
           </Node>
          </Node>
         </Node>
         <Node id="23" score="C8">
          <SimplePredicate field="displacement" operator="greaterThan" value="281"/>
         </Node>
        </Node>
       </Node>
      </Node>
     </Node>
    </TreeModel>
   </Segment>
   <Segment id="16">
    <True/>
    <TreeModel modelName="randomForest_Model" functionName="classification" algorithmName="randomForest" splitCharacteristic="binarySplit">
     <MiningSchema>
      <MiningField name="cylinders" usageType="predicted"/>
      <MiningField name="economy" usageType="active"/>
      <MiningField name="displacement" usageType="active"/>
      <MiningField name="power" usageType="active"/>
      <MiningField name="weight" usageType="active"/>
      <MiningField name="speed" usageType="active"/>
      <MiningField name="year" usageType="active"/>
     </MiningSchema>
     <Node id="1">
      <True/>
      <Node id="2">
       <SimplePredicate field="weight" operator="lessOrEqual" value="2885"/>
       <Node id="4">
        <SimplePredicate field="power" operator="lessOrEqual" value="96.5"/>
        <Node id="8" score="C4">
         <SimplePredicate field="displacement" operator="lessOrEqual" value="177"/>
        </Node>
        <Node id="9" score="C6">
         <SimplePredicate field="displacement" operator="greaterThan" value="177"/>
        </Node>
       </Node>
       <Node id="5">
        <SimplePredicate field="power" operator="greaterThan" value="96.5"/>
        <Node id="10" score="C6">
         <SimpleSetPredicate field="year" booleanOperator="isIn">
          <Array n="4" type="string">&quot;Y70&quot;   &quot;Y71&quot;   &quot;Y79&quot;   &quot;Y82&quot;</Array>
         </SimpleSetPredicate>
        </Node>
        <Node id="11">
         <SimpleSetPredicate field="year" booleanOperator="isIn">
          <Array n="9" type="string">&quot;Y72&quot;   &quot;Y73&quot;   &quot;Y74&quot;   &quot;Y75&quot;   &quot;Y76&quot;   &quot;Y77&quot;   &quot;Y78&quot;   &quot;Y80&quot;   &quot;Y81&quot;</Array>
         </SimpleSetPredicate>
         <Node id="16" score="C3">
          <SimplePredicate field="displacement" operator="lessOrEqual" value="99.5"/>
         </Node>
         <Node id="17">
          <SimplePredicate field="displacement" operator="greaterThan" value="99.5"/>
          <Node id="26" score="C4">
           <SimplePredicate field="displacement" operator="lessOrEqual" value="126"/>
          </Node>
          <Node id="27">
           <SimplePredicate field="displacement" operator="greaterThan" value="126"/>
           <Node id="38" score="C4">
            <SimplePredicate field="weight" operator="lessOrEqual" value="2803.5"/>
           </Node>
           <Node id="39" score="C6">
            <SimplePredicate field="weight" operator="greaterThan" value="2803.5"/>
           </Node>
          </Node>
         </Node>
        </Node>
       </Node>
      </Node>
      <Node id="3">
       <SimplePredicate field="weight" operator="greaterThan" value="2885"/>
       <Node id="6">
        <SimplePredicate field="speed" operator="lessOrEqual" value="14.95"/>
        <Node id="12">
         <SimplePredicate field="power" operator="lessOrEqual" value="127"/>
         <Node id="18">
