<?xml version="1.0"?>
<PMML version="4.0" xmlns="http://www.dmg.org/PMML-4_0" xmlns:xsi="http://www.w3.org/2001/XMLSchema-instance" xsi:schemaLocation="http://www.dmg.org/PMML-4_0 http://www.dmg.org/v4-0/pmml-4-0.xsd">
 <Header copyright="Copyright (c) 2013 michal" description="Random Forest Tree Model">
  <Extension name="user" value="michal" extender="Rattle/PMML"/>
  <Application name="Rattle/PMML" version="1.2.30"/>
  <Timestamp>2013-02-18 23:00:07</Timestamp>
 </Header>
 <DataDictionary numberOfFields="5">
  <DataField name="satisfaction" optype="categorical" dataType="string">
   <Value value="high"/>
   <Value value="low"/>
   <Value value="medium"/>
  </DataField>
  <DataField name="housing" optype="categorical" dataType="string">
   <Value value="apartments"/>
   <Value value="atrium"/>
   <Value value="terraced"/>
   <Value value="tower"/>
  </DataField>
  <DataField name="influence" optype="categorical" dataType="string">
   <Value value="high"/>
   <Value value="low"/>
   <Value value="medium"/>
  </DataField>
  <DataField name="contact" optype="categorical" dataType="string">
   <Value value="high"/>
   <Value value="low"/>
  </DataField>
  <DataField name="n" optype="continuous" dataType="double"/>
 </DataDictionary>
 <MiningModel modelName="randomForest_Model" functionName="classification">
  <MiningSchema>
   <MiningField name="satisfaction" usageType="predicted"/>
   <MiningField name="housing" usageType="active"/>
   <MiningField name="influence" usageType="active"/>
   <MiningField name="contact" usageType="active"/>
   <MiningField name="n" usageType="active"/>
  </MiningSchema>
  <Segmentation multipleModelMethod="majorityVote">
   <Segment id="1">
    <True/>
    <TreeModel modelName="randomForest_Model" functionName="classification" algorithmName="randomForest" splitCharacteristic="binarySplit">
     <MiningSchema>
      <MiningField name="satisfaction" usageType="predicted"/>
      <MiningField name="housing" usageType="active"/>
      <MiningField name="influence" usageType="active"/>
      <MiningField name="contact" usageType="active"/>
      <MiningField name="n" usageType="active"/>
     </MiningSchema>
     <Node id="1">
      <True/>
      <Node id="2">
       <SimplePredicate field="n" operator="lessOrEqual" value="6.5"/>
       <Node id="4">
        <SimpleSetPredicate field="influence" booleanOperator="isIn">
         <Array n="1" type="string">&quot;high&quot;</Array>
        </SimpleSetPredicate>
        <Node id="8" score="low">
         <SimpleSetPredicate field="housing" booleanOperator="isIn">
          <Array n="1" type="string">&quot;atrium&quot;</Array>
         </SimpleSetPredicate>
        </Node>
        <Node id="9">
         <SimpleSetPredicate field="housing" booleanOperator="isIn">
          <Array n="3" type="string">&quot;apartments&quot;   &quot;terraced&quot;   &quot;tower&quot;</Array>
         </SimpleSetPredicate>
         <Node id="12" score="low">
          <SimplePredicate field="n" operator="lessOrEqual" value="5.5"/>
         </Node>
         <Node id="13" score="medium">
          <SimplePredicate field="n" operator="greaterThan" value="5.5"/>
         </Node>
        </Node>
       </Node>
       <Node id="5" score="medium">
        <SimpleSetPredicate field="influence" booleanOperator="isIn">
         <Array n="2" type="string">&quot;low&quot;   &quot;medium&quot;</Array>
        </SimpleSetPredicate>
       </Node>
      </Node>
      <Node id="3">
       <SimplePredicate field="n" operator="greaterThan" value="6.5"/>
       <Node id="6">
        <SimplePredicate field="n" operator="lessOrEqual" value="59.5"/>
        <Node id="10">
         <SimplePredicate field="n" operator="lessOrEqual" value="44"/>
         <Node id="14">
          <SimpleSetPredicate field="influence" booleanOperator="isIn">
           <Array n="1" type="string">&quot;low&quot;</Array>
          </SimpleSetPredicate>
          <Node id="18" score="high">
           <SimplePredicate field="n" operator="lessOrEqual" value="11.5"/>
          </Node>
          <Node id="19">
           <SimplePredicate field="n" operator="greaterThan" value="11.5"/>
           <Node id="22">
            <SimplePredicate field="n" operator="lessOrEqual" value="25.5"/>
            <Node id="28">
             <SimplePredicate field="n" operator="lessOrEqual" value="22"/>
             <Node id="36" score="high">
              <SimpleSetPredicate field="housing" booleanOperator="isIn">
               <Array n="1" type="string">&quot;apartments&quot;</Array>
              </SimpleSetPredicate>
             </Node>
             <Node id="37">
              <SimpleSetPredicate field="housing" booleanOperator="isIn">
               <Array n="3" type="string">&quot;atrium&quot;   &quot;terraced&quot;   &quot;tower&quot;</Array>
              </SimpleSetPredicate>
              <Node id="44" score="low">
               <SimplePredicate field="n" operator="lessOrEqual" value="19"/>
              </Node>
              <Node id="45">
               <SimplePredicate field="n" operator="greaterThan" value="19"/>
               <Node id="54" score="high">
                <SimpleSetPredicate field="contact" booleanOperator="isIn">
                 <Array n="1" type="string">&quot;high&quot;</Array>
                </SimpleSetPredicate>
               </Node>
               <Node id="55" score="low">
                <SimpleSetPredicate field="contact" booleanOperator="isIn">
                 <Array n="1" type="string">&quot;low&quot;</Array>
                </SimpleSetPredicate>
               </Node>
              </Node>
             </Node>
            </Node>
            <Node id="29" score="medium">
             <SimplePredicate field="n" operator="greaterThan" value="22"/>
            </Node>
           </Node>
           <Node id="23" score="high">
            <SimplePredicate field="n" operator="greaterThan" value="25.5"/>
           </Node>
          </Node>
         </Node>
         <Node id="15">
          <SimpleSetPredicate field="influence" booleanOperator="isIn">
           <Array n="2" type="string">&quot;high&quot;   &quot;medium&quot;</Array>
          </SimpleSetPredicate>
          <Node id="20">
           <SimpleSetPredicate field="housing" booleanOperator="isIn">
            <Array n="1" type="string">&quot;apartments&quot;</Array>
           </SimpleSetPredicate>
           <Node id="24">
            <SimpleSetPredicate field="contact" booleanOperator="isIn">
             <Array n="1" type="string">&quot;high&quot;</Array>
            </SimpleSetPredicate>
            <Node id="30" score="low">
             <SimplePredicate field="n" operator="lessOrEqual" value="20"/>
            </Node>
            <Node id="31" score="medium">
             <SimplePredicate field="n" operator="greaterThan" value="20"/>
            </Node>
           </Node>
           <Node id="25" score="low">
            <SimpleSetPredicate field="contact" booleanOperator="isIn">
             <Array n="1" type="string">&quot;low&quot;</Array>
            </SimpleSetPredicate>
           </Node>
          </Node>
          <Node id="21">
           <SimpleSetPredicate field="housing" booleanOperator="isIn">
            <Array n="3" type="string">&quot;atrium&quot;   &quot;terraced&quot;   &quot;tower&quot;</Array>
           </SimpleSetPredicate>
           <Node id="26">
            <SimpleSetPredicate field="housing" booleanOperator="isIn">
             <Array n="2" type="string">&quot;atrium&quot;   &quot;terraced&quot;</Array>
            </SimpleSetPredicate>
            <Node id="32">
             <SimpleSetPredicate field="contact" booleanOperator="isIn">
              <Array n="1" type="string">&quot;high&quot;</Array>
             </SimpleSetPredicate>
             <Node id="38">
              <SimplePredicate field="n" operator="lessOrEqual" value="15.5"/>
              <Node id="46" score="low">
               <SimplePredicate field="n" operator="lessOrEqual" value="8.5"/>
              </Node>
              <Node id="47">
               <SimplePredicate field="n" operator="greaterThan" value="8.5"/>
               <Node id="56" score="medium">
                <SimpleSetPredicate field="influence" booleanOperator="isIn">
                 <Array n="1" type="string">&quot;high&quot;</Array>
                </SimpleSetPredicate>
               </Node>
               <Node id="57" score="low">
                <SimpleSetPredicate field="influence" booleanOperator="isIn">
                 <Array n="2" type="string">&quot;low&quot;   &quot;medium&quot;</Array>
                </SimpleSetPredicate>
               </Node>
              </Node>
             </Node>
             <Node id="39">
              <SimplePredicate field="n" operator="greaterThan" value="15.5"/>
              <Node id="48" score="high">
               <SimpleSetPredicate field="housing" booleanOperator="isIn">
                <Array n="1" type="string">&quot;atrium&quot;</Array>
               </SimpleSetPredicate>
              </Node>
              <Node id="49" score="low">
               <SimpleSetPredicate field="housing" booleanOperator="isIn">
                <Array n="3" type="string">&quot;apartments&quot;   &quot;terraced&quot;   &quot;tower&quot;</Array>
               </SimpleSetPredicate>
              </Node>
             </Node>
            </Node>
            <Node id="33">
             <SimpleSetPredicate field="contact" booleanOperator="isIn">
              <Array n="1" type="string">&quot;low&quot;</Array>
             </SimpleSetPredicate>
             <Node id="40">
              <SimpleSetPredicate field="housing" booleanOperator="isIn">
               <Array n="1" type="string">&quot;atrium&quot;</Array>
              </SimpleSetPredicate>
              <Node id="50" score="high">
               <SimpleSetPredicate field="influence" booleanOperator="isIn">
                <Array n="1" type="string">&quot;high&quot;</Array>
               </SimpleSetPredicate>
              </Node>
              <Node id="51">
               <SimpleSetPredicate field="influence" booleanOperator="isIn">
                <Array n="2" type="string">&quot;low&quot;   &quot;medium&quot;</Array>
               </SimpleSetPredicate>
               <Node id="58" score="medium">
                <SimplePredicate field="n" operator="lessOrEqual" value="10"/>
               </Node>
               <Node id="59" score="high">
                <SimplePredicate field="n" operator="greaterThan" value="10"/>
               </Node>
              </Node>
             </Node>
             <Node id="41" score="high">
              <SimpleSetPredicate field="housing" booleanOperator="isIn">
               <Array n="3" type="string">&quot;apartments&quot;   &quot;terraced&quot;   &quot;tower&quot;</Array>
              </SimpleSetPredicate>
             </Node>
            </Node>
           </Node>
           <Node id="27">
            <SimpleSetPredicate field="housing" booleanOperator="isIn">
             <Array n="2" type="string">&quot;apartments&quot;   &quot;tower&quot;</Array>
            </SimpleSetPredicate>
            <Node id="34">
             <SimplePredicate field="n" operator="lessOrEqual" value="35"/>
             <Node id="42" score="low">
              <SimplePredicate field="n" operator="lessOrEqual" value="20"/>
             </Node>
             <Node id="43">
              <SimplePredicate field="n" operator="greaterThan" value="20"/>
              <Node id="52" score="high">
               <SimplePredicate field="n" operator="lessOrEqual" value="28.5"/>
              </Node>
              <Node id="53" score="low">
               <SimplePredicate field="n" operator="greaterThan" value="28.5"/>
              </Node>
             </Node>
            </Node>
            <Node id="35" score="high">
             <SimplePredicate field="n" operator="greaterThan" value="35"/>
            </Node>
           </Node>
          </Node>
         </Node>
        </Node>
        <Node id="11">
         <SimplePredicate field="n" operator="greaterThan" value="44"/>
         <Node id="16" score="medium">
          <SimpleSetPredicate field="housing" booleanOperator="isIn">
           <Array n="1" type="string">&quot;apartments&quot;</Array>
          </SimpleSetPredicate>
         </Node>
         <Node id="17" score="low">
          <SimpleSetPredicate field="housing" booleanOperator="isIn">
           <Array n="3" type="string">&quot;atrium&quot;   &quot;terraced&quot;   &quot;tower&quot;</Array>
          </SimpleSetPredicate>
         </Node>
        </Node>
       </Node>
       <Node id="7" score="high">
        <SimplePredicate field="n" operator="greaterThan" value="59.5"/>
       </Node>
      </Node>
     </Node>
    </TreeModel>
   </Segment>
   <Segment id="2">
    <True/>
    <TreeModel modelName="randomForest_Model" functionName="classification" algorithmName="randomForest" splitCharacteristic="binarySplit">
     <MiningSchema>
      <MiningField name="satisfaction" usageType="predicted"/>
      <MiningField name="housing" usageType="active"/>
      <MiningField name="influence" usageType="active"/>
      <MiningField name="contact" usageType="active"/>
      <MiningField name="n" usageType="active"/>
     </MiningSchema>
     <Node id="1">
      <True/>
      <Node id="2">
       <SimpleSetPredicate field="housing" booleanOperator="isIn">
        <Array n="2" type="string">&quot;atrium&quot;   &quot;terraced&quot;</Array>
       </SimpleSetPredicate>
       <Node id="4">
        <SimpleSetPredicate field="influence" booleanOperator="isIn">
         <Array n="1" type="string">&quot;high&quot;</Array>
        </SimpleSetPredicate>
        <Node id="8">
         <SimplePredicate field="n" operator="lessOrEqual" value="9"/>
         <Node id="16" score="low">
          <SimplePredicate field="n" operator="lessOrEqual" value="5.5"/>
         </Node>
         <Node id="17">
          <SimplePredicate field="n" operator="greaterThan" value="5.5"/>
          <Node id="28" score="medium">
           <SimplePredicate field="n" operator="lessOrEqual" value="6.5"/>
          </Node>
          <Node id="29" score="low">
           <SimplePredicate field="n" operator="greaterThan" value="6.5"/>
          </Node>
         </Node>
        </Node>
        <Node id="9" score="high">
         <SimplePredicate field="n" operator="greaterThan" value="9"/>
        </Node>
       </Node>
       <Node id="5">
        <SimpleSetPredicate field="influence" booleanOperator="isIn">
         <Array n="2" type="string">&quot;low&quot;   &quot;medium&quot;</Array>
        </SimpleSetPredicate>
        <Node id="10">
         <SimpleSetPredicate field="contact" booleanOperator="isIn">
          <Array n="1" type="string">&quot;high&quot;</Array>
         </SimpleSetPredicate>
         <Node id="18">
          <SimpleSetPredicate field="housing" booleanOperator="isIn">
           <Array n="1" type="string">&quot;atrium&quot;</Array>
          </SimpleSetPredicate>
          <Node id="30" score="low">
           <SimpleSetPredicate field="influence" booleanOperator="isIn">
            <Array n="1" type="string">&quot;low&quot;</Array>
           </SimpleSetPredicate>
          </Node>
          <Node id="31">
           <SimpleSetPredicate field="influence" booleanOperator="isIn">
            <Array n="2" type="string">&quot;high&quot;   &quot;medium&quot;</Array>
           </SimpleSetPredicate>
           <Node id="46" score="low">
            <SimplePredicate field="n" operator="lessOrEqual" value="16"/>
           </Node>
           <Node id="47" score="high">
            <SimplePredicate field="n" operator="greaterThan" value="16"/>
           </Node>
          </Node>
         </Node>
         <Node id="19">
          <SimpleSetPredicate field="housing" booleanOperator="isIn">
           <Array n="3" type="string">&quot;apartments&quot;   &quot;terraced&quot;   &quot;tower&quot;</Array>
          </SimpleSetPredicate>
          <Node id="32" score="high">
           <SimplePredicate field="n" operator="lessOrEqual" value="17"/>
          </Node>
          <Node id="33">
           <SimplePredicate field="n" operator="greaterThan" value="17"/>
           <Node id="48" score="medium">
            <SimplePredicate field="n" operator="lessOrEqual" value="27"/>
           </Node>
           <Node id="49" score="low">
            <SimplePredicate field="n" operator="greaterThan" value="27"/>
           </Node>
          </Node>
         </Node>
        </Node>
        <Node id="11">
         <SimpleSetPredicate field="contact" booleanOperator="isIn">
          <Array n="1" type="string">&quot;low&quot;</Array>
         </SimpleSetPredicate>
         <Node id="20">
          <SimpleSetPredicate field="housing" booleanOperator="isIn">
           <Array n="1" type="string">&quot;atrium&quot;</Array>
          </SimpleSetPredicate>
          <Node id="34">
           <SimpleSetPredicate field="influence" booleanOperator="isIn">
            <Array n="1" type="string">&quot;low&quot;</Array>
           </SimpleSetPredicate>
           <Node id="50" score="high">
            <SimplePredicate field="n" operator="lessOrEqual" value="11.5"/>
           </Node>
           <Node id="51" score="low">
            <SimplePredicate field="n" operator="greaterThan" value="11.5"/>
           </Node>
          </Node>
          <Node id="35" score="high">
           <SimpleSetPredicate field="influence" booleanOperator="isIn">
            <Array n="2" type="string">&quot;high&quot;   &quot;medium&quot;</Array>
           </SimpleSetPredicate>
          </Node>
         </Node>
         <Node id="21">
          <SimpleSetPredicate field="housing" booleanOperator="isIn">
           <Array n="3" type="string">&quot;apartments&quot;   &quot;terraced&quot;   &quot;tower&quot;</Array>
          </SimpleSetPredicate>
          <Node id="36" score="medium">
           <SimplePredicate field="n" operator="lessOrEqual" value="9.5"/>
          </Node>
          <Node id="37" score="high">
           <SimplePredicate field="n" operator="greaterThan" value="9.5"/>
          </Node>
         </Node>
        </Node>
       </Node>
      </Node>
      <Node id="3">
       <SimpleSetPredicate field="housing" booleanOperator="isIn">
        <Array n="2" type="string">&quot;apartments&quot;   &quot;tower&quot;</Array>
       </SimpleSetPredicate>
       <Node id="6">
        <SimpleSetPredicate field="influence" booleanOperator="isIn">
         <Array n="1" type="string">&quot;low&quot;</Array>
        </SimpleSetPredicate>
        <Node id="12" score="high">
         <SimplePredicate field="n" operator="lessOrEqual" value="18"/>
        </Node>
        <Node id="13">
         <SimplePredicate field="n" operator="greaterThan" value="18"/>
         <Node id="22">
          <SimplePredicate field="n" operator="lessOrEqual" value="62"/>
          <Node id="38" score="medium">
           <SimpleSetPredicate field="contact" booleanOperator="isIn">
            <Array n="1" type="string">&quot;high&quot;</Array>
           </SimpleSetPredicate>
          </Node>
          <Node id="39">
           <SimpleSetPredicate field="contact" booleanOperator="isIn">
            <Array n="1" type="string">&quot;low&quot;</Array>
           </SimpleSetPredicate>
           <Node id="52" score="medium">
            <SimpleSetPredicate field="housing" booleanOperator="isIn">
             <Array n="1" type="string">&quot;apartments&quot;</Array>
            </SimpleSetPredicate>
           </Node>
           <Node id="53" score="low">
            <SimpleSetPredicate field="housing" booleanOperator="isIn">
             <Array n="3" type="string">&quot;atrium&quot;   &quot;terraced&quot;   &quot;tower&quot;</Array>
            </SimpleSetPredicate>
           </Node>
          </Node>
         </Node>
         <Node id="23" score="low">
          <SimplePredicate field="n" operator="greaterThan" value="62"/>
         </Node>
        </Node>
       </Node>
       <Node id="7">
        <SimpleSetPredicate field="influence" booleanOperator="isIn">
         <Array n="2" type="string">&quot;high&quot;   &quot;medium&quot;</Array>
        </SimpleSetPredicate>
        <Node id="14">
         <SimplePredicate field="n" operator="lessOrEqual" value="25.5"/>
         <Node id="24">
          <SimpleSetPredicate field="housing" booleanOperator="isIn">
           <Array n="1" type="string">&quot;apartments&quot;</Array>
          </SimpleSetPredicate>
          <Node id="40" score="low">
           <SimplePredicate field="n" operator="lessOrEqual" value="16.5"/>
          </Node>
          <Node id="41" score="medium">
           <SimplePredicate field="n" operator="greaterThan" value="16.5"/>
          </Node>
         </Node>
         <Node id="25">
          <SimpleSetPredicate field="housing" booleanOperator="isIn">
           <Array n="3" type="string">&quot;atrium&quot;   &quot;terraced&quot;   &quot;tower&quot;</Array>
          </SimpleSetPredicate>
          <Node id="42">
           <SimplePredicate field="n" operator="lessOrEqual" value="19.5"/>
           <Node id="54">
            <SimpleSetPredicate field="influence" booleanOperator="isIn">
             <Array n="1" type="string">&quot;high&quot;</Array>
            </SimpleSetPredicate>
            <Node id="56" score="low">
             <SimplePredicate field="n" operator="lessOrEqual" value="10.5"/>
            </Node>
            <Node id="57" score="medium">
             <SimplePredicate field="n" operator="greaterThan" value="10.5"/>
            </Node>
           </Node>
           <Node id="55" score="low">
            <SimpleSetPredicate field="influence" booleanOperator="isIn">
             <Array n="2" type="string">&quot;low&quot;   &quot;medium&quot;</Array>
            </SimpleSetPredicate>
           </Node>
          </Node>
          <Node id="43" score="medium">
           <SimplePredicate field="n" operator="greaterThan" value="19.5"/>
          </Node>
         </Node>
        </Node>
        <Node id="15">
         <SimplePredicate field="n" operator="greaterThan" value="25.5"/>
         <Node id="26" score="low">
          <SimplePredicate field="n" operator="lessOrEqual" value="34.5"/>
         </Node>
         <Node id="27">
          <SimplePredicate field="n" operator="greaterThan" value="34.5"/>
          <Node id="44" score="low">
           <SimpleSetPredicate field="housing" booleanOperator="isIn">
            <Array n="1" type="string">&quot;apartments&quot;</Array>
           </SimpleSetPredicate>
          </Node>
          <Node id="45" score="high">
           <SimpleSetPredicate field="housing" booleanOperator="isIn">
            <Array n="3" type="string">&quot;atrium&quot;   &quot;terraced&quot;   &quot;tower&quot;</Array>
           </SimpleSetPredicate>
          </Node>
         </Node>
        </Node>
       </Node>
      </Node>
     </Node>
    </TreeModel>
   </Segment>
   <Segment id="3">
    <True/>
    <TreeModel modelName="randomForest_Model" functionName="classification" algorithmName="randomForest" splitCharacteristic="binarySplit">
     <MiningSchema>
      <MiningField name="satisfaction" usageType="predicted"/>
      <MiningField name="housing" usageType="active"/>
      <MiningField name="influence" usageType="active"/>
      <MiningField name="contact" usageType="active"/>
      <MiningField name="n" usageType="active"/>
     </MiningSchema>
     <Node id="1">
      <True/>
      <Node id="2">
       <SimpleSetPredicate field="influence" booleanOperator="isIn">
        <Array n="2" type="string">&quot;high&quot;   &quot;low&quot;</Array>
       </SimpleSetPredicate>
       <Node id="4">
        <SimplePredicate field="n" operator="lessOrEqual" value="55.5"/>
        <Node id="8">
         <SimpleSetPredicate field="housing" booleanOperator="isIn">
          <Array n="2" type="string">&quot;apartments&quot;   &quot;atrium&quot;</Array>
         </SimpleSetPredicate>
         <Node id="14">
          <SimpleSetPredicate field="contact" booleanOperator="isIn">
           <Array n="1" type="string">&quot;high&quot;</Array>
          </SimpleSetPredicate>
          <Node id="24" score="medium">
           <SimpleSetPredicate field="housing" booleanOperator="isIn">
            <Array n="1" type="string">&quot;apartments&quot;</Array>
           </SimpleSetPredicate>
          </Node>
          <Node id="25" score="medium">
           <SimpleSetPredicate field="housing" booleanOperator="isIn">
            <Array n="3" type="string">&quot;atrium&quot;   &quot;terraced&quot;   &quot;tower&quot;</Array>
           </SimpleSetPredicate>
          </Node>
         </Node>
         <Node id="15">
          <SimpleSetPredicate field="contact" booleanOperator="isIn">
           <Array n="1" type="string">&quot;low&quot;</Array>
          </SimpleSetPredicate>
          <Node id="26">
           <SimpleSetPredicate field="influence" booleanOperator="isIn">
            <Array n="1" type="string">&quot;high&quot;</Array>
           </SimpleSetPredicate>
           <Node id="36" score="medium">
            <SimplePredicate field="n" operator="lessOrEqual" value="8"/>
           </Node>
           <Node id="37" score="high">
            <SimplePredicate field="n" operator="greaterThan" value="8"/>
           </Node>
          </Node>
          <Node id="27">
           <SimpleSetPredicate field="influence" booleanOperator="isIn">
            <Array n="2" type="string">&quot;low&quot;   &quot;medium&quot;</Array>
           </SimpleSetPredicate>
           <Node id="38" score="medium">
            <SimplePredicate field="n" operator="lessOrEqual" value="11"/>
           </Node>
           <Node id="39">
            <SimplePredicate field="n" operator="greaterThan" value="11"/>
            <Node id="46" score="high">
             <SimpleSetPredicate field="housing" booleanOperator="isIn">
              <Array n="1" type="string">&quot;apartments&quot;</Array>
             </SimpleSetPredicate>
            </Node>
            <Node id="47" score="low">
             <SimpleSetPredicate field="housing" booleanOperator="isIn">
              <Array n="3" type="string">&quot;atrium&quot;   &quot;terraced&quot;   &quot;tower&quot;</Array>
             </SimpleSetPredicate>
            </Node>
           </Node>
          </Node>
         </Node>
        </Node>
        <Node id="9">
         <SimpleSetPredicate field="housing" booleanOperator="isIn">
          <Array n="2" type="string">&quot;terraced&quot;   &quot;tower&quot;</Array>
         </SimpleSetPredicate>
         <Node id="16">
          <SimplePredicate field="n" operator="lessOrEqual" value="11.5"/>
          <Node id="28">
           <SimpleSetPredicate field="housing" booleanOperator="isIn">
            <Array n="1" type="string">&quot;terraced&quot;</Array>
           </SimpleSetPredicate>
           <Node id="40" score="medium">
            <SimplePredicate field="n" operator="lessOrEqual" value="6.5"/>
           </Node>
           <Node id="41" score="low">
            <SimplePredicate field="n" operator="greaterThan" value="6.5"/>
           </Node>
          </Node>
          <Node id="29" score="low">
           <SimpleSetPredicate field="housing" booleanOperator="isIn">
            <Array n="3" type="string">&quot;apartments&quot;   &quot;atrium&quot;   &quot;tower&quot;</Array>
           </SimpleSetPredicate>
          </Node>
         </Node>
         <Node id="17">
          <SimplePredicate field="n" operator="greaterThan" value="11.5"/>
          <Node id="30" score="high">
           <SimplePredicate field="n" operator="lessOrEqual" value="13.5"/>
          </Node>
          <Node id="31">
           <SimplePredicate field="n" operator="greaterThan" value="13.5"/>
           <Node id="42" score="low">
            <SimplePredicate field="n" operator="lessOrEqual" value="22"/>
           </Node>
           <Node id="43" score="high">
            <SimplePredicate field="n" operator="greaterThan" value="22"/>
           </Node>
          </Node>
         </Node>
        </Node>
       </Node>
       <Node id="5" score="low">
        <SimplePredicate field="n" operator="greaterThan" value="55.5"/>
       </Node>
      </Node>
      <Node id="3">
       <SimpleSetPredicate field="influence" booleanOperator="isIn">
        <Array n="1" type="string">&quot;medium&quot;</Array>
       </SimpleSetPredicate>
       <Node id="6">
        <SimpleSetPredicate field="housing" booleanOperator="isIn">
         <Array n="2" type="string">&quot;apartments&quot;   &quot;terraced&quot;</Array>
        </SimpleSetPredicate>
        <Node id="10">
         <SimplePredicate field="n" operator="lessOrEqual" value="14"/>
         <Node id="18" score="high">
          <SimpleSetPredicate field="contact" booleanOperator="isIn">
           <Array n="1" type="string">&quot;high&quot;</Array>
          </SimpleSetPredicate>
         </Node>
         <Node id="19" score="medium">
          <SimpleSetPredicate field="contact" booleanOperator="isIn">
           <Array n="1" type="string">&quot;low&quot;</Array>
          </SimpleSetPredicate>
         </Node>
        </Node>
        <Node id="11">
         <SimplePredicate field="n" operator="greaterThan" value="14"/>
         <Node id="20">
          <SimpleSetPredicate field="contact" booleanOperator="isIn">
           <Array n="1" type="string">&quot;high&quot;</Array>
          </SimpleSetPredicate>
          <Node id="32" score="medium">
           <SimplePredicate field="n" operator="lessOrEqual" value="26"/>
          </Node>
          <Node id="33">
           <SimplePredicate field="n" operator="greaterThan" value="26"/>
           <Node id="44" score="low">
            <SimplePredicate field="n" operator="lessOrEqual" value="38"/>
           </Node>
           <Node id="45" score="medium">
            <SimplePredicate field="n" operator="greaterThan" value="38"/>
           </Node>
          </Node>
         </Node>
         <Node id="21">
          <SimpleSetPredicate field="contact" booleanOperator="isIn">
           <Array n="1" type="string">&quot;low&quot;</Array>
          </SimpleSetPredicate>
          <Node id="34" score="medium">
           <SimpleSetPredicate field="housing" booleanOperator="isIn">
            <Array n="1" type="string">&quot;apartments&quot;</Array>
           </SimpleSetPredicate>
          </Node>
          <Node id="35" score="low">
           <SimpleSetPredicate field="housing" booleanOperator="isIn">
            <Array n="3" type="string">&quot;atrium&quot;   &quot;terraced&quot;   &quot;tower&quot;</Array>
           </SimpleSetPredicate>
          </Node>
         </Node>
        </Node>
       </Node>
       <Node id="7">
        <SimpleSetPredicate field="housing" booleanOperator="isIn">
         <Array n="2" type="string">&quot;atrium&quot;   &quot;tower&quot;</Array>
        </SimpleSetPredicate>
        <Node id="12">
         <SimpleSetPredicate field="housing" booleanOperator="isIn">
          <Array n="1" type="string">&quot;atrium&quot;</Array>
         </SimpleSetPredicate>
         <Node id="22" score="medium">
          <SimplePredicate field="n" operator="lessOrEqual" value="16"/>
         </Node>
         <Node id="23" score="high">
          <SimplePredicate field="n" operator="greaterThan" value="16"/>
         </Node>
        </Node>
        <Node id="13" score="medium">
         <SimpleSetPredicate field="housing" booleanOperator="isIn">
          <Array n="3" type="string">&quot;apartments&quot;   &quot;terraced&quot;   &quot;tower&quot;</Array>
         </SimpleSetPredicate>
        </Node>
       </Node>
      </Node>
     </Node>
    </TreeModel>
   </Segment>
   <Segment id="4">
    <True/>
    <TreeModel modelName="randomForest_Model" functionName="classification" algorithmName="randomForest" splitCharacteristic="binarySplit">
     <MiningSchema>
      <MiningField name="satisfaction" usageType="predicted"/>
      <MiningField name="housing" usageType="active"/>
      <MiningField name="influence" usageType="active"/>
      <MiningField name="contact" usageType="active"/>
      <MiningField name="n" usageType="active"/>
     </MiningSchema>
     <Node id="1">
      <True/>
      <Node id="2">
       <SimplePredicate field="n" operator="lessOrEqual" value="6.5"/>
       <Node id="4">
        <SimplePredicate field="n" operator="lessOrEqual" value="5.5"/>
        <Node id="8" score="medium">
         <SimpleSetPredicate field="housing" booleanOperator="isIn">
          <Array n="1" type="string">&quot;terraced&quot;</Array>
         </SimpleSetPredicate>
        </Node>
        <Node id="9" score="medium">
         <SimpleSetPredicate field="housing" booleanOperator="isIn">
          <Array n="3" type="string">&quot;apartments&quot;   &quot;atrium&quot;   &quot;tower&quot;</Array>
         </SimpleSetPredicate>
        </Node>
       </Node>
       <Node id="5">
        <SimplePredicate field="n" operator="greaterThan" value="5.5"/>
        <Node id="10" score="low">
         <SimpleSetPredicate field="housing" booleanOperator="isIn">
          <Array n="1" type="string">&quot;atrium&quot;</Array>
         </SimpleSetPredicate>
        </Node>
        <Node id="11" score="medium">
         <SimpleSetPredicate field="housing" booleanOperator="isIn">
          <Array n="3" type="string">&quot;apartments&quot;   &quot;terraced&quot;   &quot;tower&quot;</Array>
         </SimpleSetPredicate>
        </Node>
       </Node>
      </Node>
      <Node id="3">
       <SimplePredicate field="n" operator="greaterThan" value="6.5"/>
       <Node id="6">
        <SimpleSetPredicate field="contact" booleanOperator="isIn">
         <Array n="1" type="string">&quot;high&quot;</Array>
        </SimpleSetPredicate>
        <Node id="12">
         <SimplePredicate field="n" operator="lessOrEqual" value="17"/>
         <Node id="16" score="high">
          <SimpleSetPredicate field="housing" booleanOperator="isIn">
           <Array n="1" type="string">&quot;terraced&quot;</Array>
          </SimpleSetPredicate>
         </Node>
         <Node id="17" score="low">
          <SimpleSetPredicate field="housing" booleanOperator="isIn">
           <Array n="3" type="string">&quot;apartments&quot;   &quot;atrium&quot;   &quot;tower&quot;</Array>
          </SimpleSetPredicate>
         </Node>
        </Node>
        <Node id="13">
         <SimplePredicate field="n" operator="greaterThan" value="17"/>
         <Node id="18">
          <SimplePredicate field="n" operator="lessOrEqual" value="51.5"/>
          <Node id="24">
           <SimplePredicate field="n" operator="lessOrEqual" value="23.5"/>
           <Node id="30">
            <SimplePredicate field="n" operator="lessOrEqual" value="21.5"/>
            <Node id="38">
             <SimpleSetPredicate field="housing" booleanOperator="isIn">
              <Array n="1" type="string">&quot;atrium&quot;</Array>
             </SimpleSetPredicate>
             <Node id="50" score="low">
              <SimplePredicate field="n" operator="lessOrEqual" value="20.5"/>
             </Node>
             <Node id="51" score="high">
              <SimplePredicate field="n" operator="greaterThan" value="20.5"/>
             </Node>
            </Node>
            <Node id="39" score="medium">
             <SimpleSetPredicate field="housing" booleanOperator="isIn">
              <Array n="3" type="string">&quot;apartments&quot;   &quot;terraced&quot;   &quot;tower&quot;</Array>
             </SimpleSetPredicate>
            </Node>
           </Node>
           <Node id="31">
            <SimplePredicate field="n" operator="greaterThan" value="21.5"/>
            <Node id="40" score="medium">
             <SimpleSetPredicate field="housing" booleanOperator="isIn">
              <Array n="2" type="string">&quot;atrium&quot;   &quot;terraced&quot;</Array>
             </SimpleSetPredicate>
            </Node>
            <Node id="41">
             <SimpleSetPredicate field="housing" booleanOperator="isIn">
              <Array n="2" type="string">&quot;apartments&quot;   &quot;tower&quot;</Array>
             </SimpleSetPredicate>
             <Node id="52" score="high">
              <SimpleSetPredicate field="influence" booleanOperator="isIn">
               <Array n="1" type="string">&quot;high&quot;</Array>
              </SimpleSetPredicate>
             </Node>
             <Node id="53" score="medium">
              <SimpleSetPredicate field="influence" booleanOperator="isIn">
               <Array n="2" type="string">&quot;low&quot;   &quot;medium&quot;</Array>
              </SimpleSetPredicate>
             </Node>
            </Node>
           </Node>
          </Node>
          <Node id="25">
           <SimplePredicate field="n" operator="greaterThan" value="23.5"/>
           <Node id="32">
            <SimplePredicate field="n" operator="lessOrEqual" value="44"/>
            <Node id="42">
             <SimplePredicate field="n" operator="lessOrEqual" value="31"/>
             <Node id="54" score="medium">
              <SimpleSetPredicate field="influence" booleanOperator="isIn">
               <Array n="1" type="string">&quot;high&quot;</Array>
              </SimpleSetPredicate>
             </Node>
             <Node id="55" score="high">
              <SimpleSetPredicate field="influence" booleanOperator="isIn">
               <Array n="2" type="string">&quot;low&quot;   &quot;medium&quot;</Array>
              </SimpleSetPredicate>
             </Node>
            </Node>
            <Node id="43" score="high">
             <SimplePredicate field="n" operator="greaterThan" value="31"/>
            </Node>
           </Node>
           <Node id="33" score="medium">
            <SimplePredicate field="n" operator="greaterThan" value="44"/>
           </Node>
          </Node>
         </Node>
         <Node id="19">
          <SimplePredicate field="n" operator="greaterThan" value="51.5"/>
          <Node id="26" score="high">
           <SimpleSetPredicate field="housing" booleanOperator="isIn">
            <Array n="1" type="string">&quot;apartments&quot;</Array>
           </SimpleSetPredicate>
          </Node>
          <Node id="27" score="low">
           <SimpleSetPredicate field="housing" booleanOperator="isIn">
            <Array n="3" type="string">&quot;atrium&quot;   &quot;terraced&quot;   &quot;tower&quot;</Array>
           </SimpleSetPredicate>
          </Node>
         </Node>
        </Node>
       </Node>
       <Node id="7">
        <SimpleSetPredicate field="contact" booleanOperator="isIn">
         <Array n="1" type="string">&quot;low&quot;</Array>
        </SimpleSetPredicate>
        <Node id="14">
         <SimpleSetPredicate field="influence" booleanOperator="isIn">
          <Array n="1" type="string">&quot;low&quot;</Array>
         </SimpleSetPredicate>
         <Node id="20" score="medium">
          <SimpleSetPredicate field="housing" booleanOperator="isIn">
           <Array n="2" type="string">&quot;apartments&quot;   &quot;atrium&quot;</Array>
          </SimpleSetPredicate>
         </Node>
         <Node id="21" score="high">
          <SimpleSetPredicate field="housing" booleanOperator="isIn">
           <Array n="2" type="string">&quot;terraced&quot;   &quot;tower&quot;</Array>
          </SimpleSetPredicate>
         </Node>
        </Node>
        <Node id="15">
         <SimpleSetPredicate field="influence" booleanOperator="isIn">
          <Array n="2" type="string">&quot;high&quot;   &quot;medium&quot;</Array>
         </SimpleSetPredicate>
         <Node id="22" score="low">
          <SimplePredicate field="n" operator="lessOrEqual" value="7.5"/>
         </Node>
         <Node id="23">
          <SimplePredicate field="n" operator="greaterThan" value="7.5"/>
          <Node id="28">
           <SimplePredicate field="n" operator="lessOrEqual" value="14"/>
           <Node id="34">
            <SimpleSetPredicate field="housing" booleanOperator="isIn">
             <Array n="2" type="string">&quot;atrium&quot;   &quot;terraced&quot;</Array>
            </SimpleSetPredicate>
            <Node id="44" score="high">
             <SimpleSetPredicate field="influence" booleanOperator="isIn">
              <Array n="1" type="string">&quot;high&quot;</Array>
             </SimpleSetPredicate>
            </Node>
            <Node id="45">
             <SimpleSetPredicate field="influence" booleanOperator="isIn">
              <Array n="2" type="string">&quot;low&quot;   &quot;medium&quot;</Array>
             </SimpleSetPredicate>
             <Node id="56" score="medium">
              <SimplePredicate field="n" operator="lessOrEqual" value="10"/>
             </Node>
             <Node id="57">
              <SimplePredicate field="n" operator="greaterThan" value="10"/>
              <Node id="62" score="high">
               <SimpleSetPredicate field="housing" booleanOperator="isIn">
                <Array n="1" type="string">&quot;atrium&quot;</Array>
               </SimpleSetPredicate>
              </Node>
              <Node id="63" score="medium">
               <SimpleSetPredicate field="housing" booleanOperator="isIn">
                <Array n="3" type="string">&quot;apartments&quot;   &quot;terraced&quot;   &quot;tower&quot;</Array>
               </SimpleSetPredicate>
              </Node>
             </Node>
            </Node>
           </Node>
           <Node id="35" score="medium">
            <SimpleSetPredicate field="housing" booleanOperator="isIn">
             <Array n="2" type="string">&quot;apartments&quot;   &quot;tower&quot;</Array>
            </SimpleSetPredicate>
           </Node>
          </Node>
          <Node id="29">
           <SimplePredicate field="n" operator="greaterThan" value="14"/>
           <Node id="36">
            <SimplePredicate field="n" operator="lessOrEqual" value="35"/>
            <Node id="46">
             <SimplePredicate field="n" operator="lessOrEqual" value="22"/>
             <Node id="58" score="medium">
              <SimpleSetPredicate field="influence" booleanOperator="isIn">
               <Array n="1" type="string">&quot;high&quot;</Array>
              </SimpleSetPredicate>
             </Node>
             <Node id="59" score="low">
              <SimpleSetPredicate field="influence" booleanOperator="isIn">
               <Array n="2" type="string">&quot;low&quot;   &quot;medium&quot;</Array>
              </SimpleSetPredicate>
             </Node>
            </Node>
            <Node id="47" score="low">
             <SimplePredicate field="n" operator="greaterThan" value="22"/>
            </Node>
           </Node>
           <Node id="37">
            <SimplePredicate field="n" operator="greaterThan" value="35"/>
            <Node id="48" score="high">
             <SimplePredicate field="n" operator="lessOrEqual" value="39.5"/>
            </Node>
            <Node id="49">
             <SimplePredicate field="n" operator="greaterThan" value="39.5"/>
             <Node id="60" score="high">
              <SimpleSetPredicate field="influence" booleanOperator="isIn">
               <Array n="1" type="string">&quot;high&quot;</Array>
              </SimpleSetPredicate>
             </Node>
             <Node id="61" score="low">
              <SimpleSetPredicate field="influence" booleanOperator="isIn">
               <Array n="2" type="string">&quot;low&quot;   &quot;medium&quot;</Array>
              </SimpleSetPredicate>
             </Node>
            </Node>
           </Node>
          </Node>
         </Node>
        </Node>
       </Node>
      </Node>
     </Node>
    </TreeModel>
   </Segment>
   <Segment id="5">
    <True/>
    <TreeModel modelName="randomForest_Model" functionName="classification" algorithmName="randomForest" splitCharacteristic="binarySplit">
     <MiningSchema>
      <MiningField name="satisfaction" usageType="predicted"/>
      <MiningField name="housing" usageType="active"/>
      <MiningField name="influence" usageType="active"/>
      <MiningField name="contact" usageType="active"/>
      <MiningField name="n" usageType="active"/>
     </MiningSchema>
     <Node id="1">
      <True/>
      <Node id="2">
       <SimpleSetPredicate field="influence" booleanOperator="isIn">
        <Array n="1" type="string">&quot;high&quot;</Array>
       </SimpleSetPredicate>
       <Node id="4">
        <SimpleSetPredicate field="contact" booleanOperator="isIn">
         <Array n="1" type="string">&quot;high&quot;</Array>
        </SimpleSetPredicate>
        <Node id="8" score="medium">
         <SimpleSetPredicate field="housing" booleanOperator="isIn">
          <Array n="1" type="string">&quot;apartments&quot;</Array>
         </SimpleSetPredicate>
        </Node>
        <Node id="9">
         <SimpleSetPredicate field="housing" booleanOperator="isIn">
          <Array n="3" type="string">&quot;atrium&quot;   &quot;terraced&quot;   &quot;tower&quot;</Array>
         </SimpleSetPredicate>
         <Node id="16" score="medium">
          <SimplePredicate field="n" operator="lessOrEqual" value="9.5"/>
         </Node>
         <Node id="17" score="high">
          <SimplePredicate field="n" operator="greaterThan" value="9.5"/>
         </Node>
        </Node>
       </Node>
       <Node id="5">
        <SimpleSetPredicate field="contact" booleanOperator="isIn">
         <Array n="1" type="string">&quot;low&quot;</Array>
        </SimpleSetPredicate>
        <Node id="10" score="medium">
         <SimplePredicate field="n" operator="lessOrEqual" value="31"/>
        </Node>
        <Node id="11" score="high">
         <SimplePredicate field="n" operator="greaterThan" value="31"/>
        </Node>
       </Node>
      </Node>
      <Node id="3">
       <SimpleSetPredicate field="influence" booleanOperator="isIn">
        <Array n="2" type="string">&quot;low&quot;   &quot;medium&quot;</Array>
       </SimpleSetPredicate>
       <Node id="6">
        <SimplePredicate field="n" operator="lessOrEqual" value="9.5"/>
        <Node id="12" score="medium">
         <SimpleSetPredicate field="influence" booleanOperator="isIn">
          <Array n="1" type="string">&quot;low&quot;</Array>
         </SimpleSetPredicate>
        </Node>
        <Node id="13" score="medium">
         <SimpleSetPredicate field="influence" booleanOperator="isIn">
          <Array n="2" type="string">&quot;high&quot;   &quot;medium&quot;</Array>
         </SimpleSetPredicate>
        </Node>
       </Node>
       <Node id="7">
        <SimplePredicate field="n" operator="greaterThan" value="9.5"/>
        <Node id="14">
         <SimpleSetPredicate field="contact" booleanOperator="isIn">
          <Array n="1" type="string">&quot;high&quot;</Array>
         </SimpleSetPredicate>
         <Node id="18">
          <SimpleSetPredicate field="housing" booleanOperator="isIn">
           <Array n="1" type="string">&quot;atrium&quot;</Array>
          </SimpleSetPredicate>
          <Node id="22">
           <SimpleSetPredicate field="influence" booleanOperator="isIn">
            <Array n="1" type="string">&quot;low&quot;</Array>
           </SimpleSetPredicate>
           <Node id="28" score="low">
            <SimplePredicate field="n" operator="lessOrEqual" value="21.5"/>
           </Node>
           <Node id="29" score="medium">
            <SimplePredicate field="n" operator="greaterThan" value="21.5"/>
           </Node>
          </Node>
          <Node id="23" score="low">
           <SimpleSetPredicate field="influence" booleanOperator="isIn">
            <Array n="2" type="string">&quot;high&quot;   &quot;medium&quot;</Array>
           </SimpleSetPredicate>
          </Node>
         </Node>
         <Node id="19">
          <SimpleSetPredicate field="housing" booleanOperator="isIn">
           <Array n="3" type="string">&quot;apartments&quot;   &quot;terraced&quot;   &quot;tower&quot;</Array>
          </SimpleSetPredicate>
          <Node id="24">
           <SimplePredicate field="n" operator="lessOrEqual" value="44"/>
           <Node id="30">
            <SimplePredicate field="n" operator="lessOrEqual" value="30"/>
            <Node id="36" score="high">
             <SimplePredicate field="n" operator="lessOrEqual" value="15"/>
            </Node>
            <Node id="37">
             <SimplePredicate field="n" operator="greaterThan" value="15"/>
             <Node id="38" score="low">
              <SimplePredicate field="n" operator="lessOrEqual" value="20"/>
             </Node>
             <Node id="39" score="medium">
              <SimplePredicate field="n" operator="greaterThan" value="20"/>
             </Node>
            </Node>
           </Node>
           <Node id="31" score="high">
            <SimplePredicate field="n" operator="greaterThan" value="30"/>
           </Node>
          </Node>
          <Node id="25">
           <SimplePredicate field="n" operator="greaterThan" value="44"/>
           <Node id="32" score="low">
            <SimpleSetPredicate field="influence" booleanOperator="isIn">
             <Array n="1" type="string">&quot;low&quot;</Array>
            </SimpleSetPredicate>
           </Node>
           <Node id="33" score="medium">
            <SimpleSetPredicate field="influence" booleanOperator="isIn">
             <Array n="2" type="string">&quot;high&quot;   &quot;medium&quot;</Array>
            </SimpleSetPredicate>
           </Node>
          </Node>
         </Node>
        </Node>
        <Node id="15">
         <SimpleSetPredicate field="contact" booleanOperator="isIn">
          <Array n="1" type="string">&quot;low&quot;</Array>
         </SimpleSetPredicate>
         <Node id="20">
          <SimpleSetPredicate field="influence" booleanOperator="isIn">
           <Array n="1" type="string">&quot;low&quot;</Array>
          </SimpleSetPredicate>
          <Node id="26">
           <SimpleSetPredicate field="housing" booleanOperator="isIn">
            <Array n="1" type="string">&quot;apartments&quot;</Array>
           </SimpleSetPredicate>
           <Node id="34" score="high">
            <SimplePredicate field="n" operator="lessOrEqual" value="39"/>
           </Node>
           <Node id="35" score="low">
            <SimplePredicate field="n" operator="greaterThan" value="39"/>
           </Node>
          </Node>
          <Node id="27" score="low">
           <SimpleSetPredicate field="housing" booleanOperator="isIn">
            <Array n="3" type="string">&quot;atrium&quot;   &quot;terraced&quot;   &quot;tower&quot;</Array>
           </SimpleSetPredicate>
          </Node>
         </Node>
         <Node id="21" score="high">
          <SimpleSetPredicate field="influence" booleanOperator="isIn">
           <Array n="2" type="string">&quot;high&quot;   &quot;medium&quot;</Array>
          </SimpleSetPredicate>
         </Node>
        </Node>
       </Node>
      </Node>
     </Node>
    </TreeModel>
   </Segment>
   <Segment id="6">
    <True/>
    <TreeModel modelName="randomForest_Model" functionName="classification" algorithmName="randomForest" splitCharacteristic="binarySplit">
     <MiningSchema>
      <MiningField name="satisfaction" usageType="predicted"/>
      <MiningField name="housing" usageType="active"/>
      <MiningField name="influence" usageType="active"/>
      <MiningField name="contact" usageType="active"/>
      <MiningField name="n" usageType="active"/>
     </MiningSchema>
     <Node id="1">
      <True/>
      <Node id="2">
       <SimplePredicate field="n" operator="lessOrEqual" value="47"/>
       <Node id="4">
        <SimpleSetPredicate field="influence" booleanOperator="isIn">
         <Array n="1" type="string">&quot;high&quot;</Array>
        </SimpleSetPredicate>
        <Node id="8">
         <SimplePredicate field="n" operator="lessOrEqual" value="10.5"/>
         <Node id="14" score="low">
          <SimplePredicate field="n" operator="lessOrEqual" value="4"/>
         </Node>
         <Node id="15">
          <SimplePredicate field="n" operator="greaterThan" value="4"/>
          <Node id="20">
           <SimpleSetPredicate field="contact" booleanOperator="isIn">
            <Array n="1" type="string">&quot;high&quot;</Array>
           </SimpleSetPredicate>
           <Node id="28">
            <SimplePredicate field="n" operator="lessOrEqual" value="6"/>
            <Node id="40" score="low">
             <SimpleSetPredicate field="housing" booleanOperator="isIn">
              <Array n="1" type="string">&quot;terraced&quot;</Array>
             </SimpleSetPredicate>
            </Node>
            <Node id="41" score="medium">
             <SimpleSetPredicate field="housing" booleanOperator="isIn">
              <Array n="3" type="string">&quot;apartments&quot;   &quot;atrium&quot;   &quot;tower&quot;</Array>
             </SimpleSetPredicate>
            </Node>
           </Node>
           <Node id="29" score="low">
            <SimplePredicate field="n" operator="greaterThan" value="6"/>
           </Node>
          </Node>
          <Node id="21">
           <SimpleSetPredicate field="contact" booleanOperator="isIn">
            <Array n="1" type="string">&quot;low&quot;</Array>
           </SimpleSetPredicate>
           <Node id="30" score="medium">
            <SimplePredicate field="n" operator="lessOrEqual" value="7.5"/>
           </Node>
           <Node id="31" score="low">
            <SimplePredicate field="n" operator="greaterThan" value="7.5"/>
           </Node>
          </Node>
         </Node>
        </Node>
        <Node id="9">
         <SimplePredicate field="n" operator="greaterThan" value="10.5"/>
         <Node id="16">
          <SimpleSetPredicate field="housing" booleanOperator="isIn">
           <Array n="1" type="string">&quot;apartments&quot;</Array>
          </SimpleSetPredicate>
          <Node id="22" score="low">
           <SimplePredicate field="n" operator="lessOrEqual" value="16.5"/>
          </Node>
          <Node id="23">
           <SimplePredicate field="n" operator="greaterThan" value="16.5"/>
           <Node id="32" score="medium">
            <SimpleSetPredicate field="contact" booleanOperator="isIn">
             <Array n="1" type="string">&quot;high&quot;</Array>
            </SimpleSetPredicate>
           </Node>
           <Node id="33">
            <SimpleSetPredicate field="contact" booleanOperator="isIn">
             <Array n="1" type="string">&quot;low&quot;</Array>
            </SimpleSetPredicate>
            <Node id="42" score="medium">
             <SimplePredicate field="n" operator="lessOrEqual" value="22"/>
            </Node>
            <Node id="43" score="low">
             <SimplePredicate field="n" operator="greaterThan" value="22"/>
            </Node>
           </Node>
          </Node>
         </Node>
         <Node id="17" score="high">
          <SimpleSetPredicate field="housing" booleanOperator="isIn">
           <Array n="3" type="string">&quot;atrium&quot;   &quot;terraced&quot;   &quot;tower&quot;</Array>
          </SimpleSetPredicate>
         </Node>
        </Node>
       </Node>
       <Node id="5">
        <SimpleSetPredicate field="influence" booleanOperator="isIn">
         <Array n="2" type="string">&quot;low&quot;   &quot;medium&quot;</Array>
        </SimpleSetPredicate>
        <Node id="10">
         <SimplePredicate field="n" operator="lessOrEqual" value="44"/>
         <Node id="18">
          <SimpleSetPredicate field="housing" booleanOperator="isIn">
           <Array n="1" type="string">&quot;atrium&quot;</Array>
          </SimpleSetPredicate>
          <Node id="24" score="medium">
           <SimpleSetPredicate field="contact" booleanOperator="isIn">
            <Array n="1" type="string">&quot;high&quot;</Array>
           </SimpleSetPredicate>
          </Node>
          <Node id="25">
           <SimpleSetPredicate field="contact" booleanOperator="isIn">
            <Array n="1" type="string">&quot;low&quot;</Array>
           </SimpleSetPredicate>
           <Node id="34" score="medium">
            <SimplePredicate field="n" operator="lessOrEqual" value="10.5"/>
           </Node>
           <Node id="35">
            <SimplePredicate field="n" operator="greaterThan" value="10.5"/>
            <Node id="44" score="high">
             <SimplePredicate field="n" operator="lessOrEqual" value="12.5"/>
            </Node>
            <Node id="45" score="low">
             <SimplePredicate field="n" operator="greaterThan" value="12.5"/>
            </Node>
           </Node>
          </Node>
         </Node>
         <Node id="19">
          <SimpleSetPredicate field="housing" booleanOperator="isIn">
           <Array n="3" type="string">&quot;apartments&quot;   &quot;terraced&quot;   &quot;tower&quot;</Array>
          </SimpleSetPredicate>
          <Node id="26">
           <SimpleSetPredicate field="housing" booleanOperator="isIn">
            <Array n="1" type="string">&quot;apartments&quot;</Array>
           </SimpleSetPredicate>
           <Node id="36" score="high">
            <SimpleSetPredicate field="influence" booleanOperator="isIn">
             <Array n="1" type="string">&quot;low&quot;</Array>
            </SimpleSetPredicate>
           </Node>
           <Node id="37">
            <SimpleSetPredicate field="influence" booleanOperator="isIn">
             <Array n="2" type="string">&quot;high&quot;   &quot;medium&quot;</Array>
            </SimpleSetPredicate>
            <Node id="46" score="medium">
             <SimplePredicate field="n" operator="lessOrEqual" value="37.5"/>
            </Node>
            <Node id="47" score="high">
             <SimplePredicate field="n" operator="greaterThan" value="37.5"/>
            </Node>
           </Node>
          </Node>
          <Node id="27">
           <SimpleSetPredicate field="housing" booleanOperator="isIn">
            <Array n="3" type="string">&quot;atrium&quot;   &quot;terraced&quot;   &quot;tower&quot;</Array>
           </SimpleSetPredicate>
           <Node id="38">
            <SimplePredicate field="n" operator="lessOrEqual" value="25.5"/>
            <Node id="48">
             <SimplePredicate field="n" operator="lessOrEqual" value="13.5"/>
             <Node id="50" score="medium">
              <SimplePredicate field="n" operator="lessOrEqual" value="6.5"/>
             </Node>
             <Node id="51" score="high">
              <SimplePredicate field="n" operator="greaterThan" value="6.5"/>
             </Node>
            </Node>
            <Node id="49">
             <SimplePredicate field="n" operator="greaterThan" value="13.5"/>
             <Node id="52" score="low">
              <SimplePredicate field="n" operator="lessOrEqual" value="18.5"/>
             </Node>
             <Node id="53">
              <SimplePredicate field="n" operator="greaterThan" value="18.5"/>
              <Node id="54" score="medium">
               <SimpleSetPredicate field="contact" booleanOperator="isIn">
                <Array n="1" type="string">&quot;high&quot;</Array>
               </SimpleSetPredicate>
              </Node>
              <Node id="55" score="low">
               <SimpleSetPredicate field="contact" booleanOperator="isIn">
                <Array n="1" type="string">&quot;low&quot;</Array>
               </SimpleSetPredicate>
              </Node>
             </Node>
            </Node>
           </Node>
           <Node id="39" score="high">
            <SimplePredicate field="n" operator="greaterThan" value="25.5"/>
           </Node>
          </Node>
         </Node>
        </Node>
        <Node id="11" score="medium">
         <SimplePredicate field="n" operator="greaterThan" value="44"/>
        </Node>
       </Node>
      </Node>
      <Node id="3">
       <SimplePredicate field="n" operator="greaterThan" value="47"/>
       <Node id="6" score="low">
        <SimpleSetPredicate field="contact" booleanOperator="isIn">
         <Array n="1" type="string">&quot;high&quot;</Array>
        </SimpleSetPredicate>
       </Node>
       <Node id="7">
        <SimpleSetPredicate field="contact" booleanOperator="isIn">
         <Array n="1" type="string">&quot;low&quot;</Array>
        </SimpleSetPredicate>
        <Node id="12" score="high">
         <SimplePredicate field="n" operator="lessOrEqual" value="57.5"/>
        </Node>
        <Node id="13" score="low">
         <SimplePredicate field="n" operator="greaterThan" value="57.5"/>
        </Node>
       </Node>
      </Node>
     </Node>
    </TreeModel>
   </Segment>
   <Segment id="7">
    <True/>
    <TreeModel modelName="randomForest_Model" functionName="classification" algorithmName="randomForest" splitCharacteristic="binarySplit">
     <MiningSchema>
      <MiningField name="satisfaction" usageType="predicted"/>
      <MiningField name="housing" usageType="active"/>
      <MiningField name="influence" usageType="active"/>
      <MiningField name="contact" usageType="active"/>
      <MiningField name="n" usageType="active"/>
     </MiningSchema>
     <Node id="1">
      <True/>
      <Node id="2">
       <SimplePredicate field="n" operator="lessOrEqual" value="8.5"/>
       <Node id="4" score="low">
        <SimpleSetPredicate field="influence" booleanOperator="isIn">
         <Array n="1" type="string">&quot;high&quot;</Array>
        </SimpleSetPredicate>
       </Node>
       <Node id="5">
        <SimpleSetPredicate field="influence" booleanOperator="isIn">
         <Array n="2" type="string">&quot;low&quot;   &quot;medium&quot;</Array>
        </SimpleSetPredicate>
        <Node id="8" score="medium">
         <SimplePredicate field="n" operator="lessOrEqual" value="7"/>
        </Node>
        <Node id="9" score="medium">
         <SimplePredicate field="n" operator="greaterThan" value="7"/>
        </Node>
       </Node>
      </Node>
      <Node id="3">
       <SimplePredicate field="n" operator="greaterThan" value="8.5"/>
       <Node id="6">
        <SimpleSetPredicate field="influence" booleanOperator="isIn">
         <Array n="2" type="string">&quot;high&quot;   &quot;low&quot;</Array>
        </SimpleSetPredicate>
        <Node id="10">
         <SimpleSetPredicate field="housing" booleanOperator="isIn">
          <Array n="1" type="string">&quot;atrium&quot;</Array>
         </SimpleSetPredicate>
         <Node id="14" score="medium">
          <SimpleSetPredicate field="influence" booleanOperator="isIn">
           <Array n="1" type="string">&quot;high&quot;</Array>
          </SimpleSetPredicate>
         </Node>
         <Node id="15">
          <SimpleSetPredicate field="influence" booleanOperator="isIn">
           <Array n="2" type="string">&quot;low&quot;   &quot;medium&quot;</Array>
          </SimpleSetPredicate>
          <Node id="22" score="low">
           <SimpleSetPredicate field="contact" booleanOperator="isIn">
            <Array n="1" type="string">&quot;high&quot;</Array>
           </SimpleSetPredicate>
          </Node>
          <Node id="23" score="low">
           <SimpleSetPredicate field="contact" booleanOperator="isIn">
            <Array n="1" type="string">&quot;low&quot;</Array>
           </SimpleSetPredicate>
          </Node>
         </Node>
        </Node>
        <Node id="11">
         <SimpleSetPredicate field="housing" booleanOperator="isIn">
          <Array n="3" type="string">&quot;apartments&quot;   &quot;terraced&quot;   &quot;tower&quot;</Array>
         </SimpleSetPredicate>
         <Node id="16">
          <SimplePredicate field="n" operator="lessOrEqual" value="55.5"/>
          <Node id="24">
           <SimplePredicate field="n" operator="lessOrEqual" value="44.5"/>
           <Node id="30">
            <SimpleSetPredicate field="contact" booleanOperator="isIn">
             <Array n="1" type="string">&quot;high&quot;</Array>
            </SimpleSetPredicate>
            <Node id="38" score="high">
             <SimpleSetPredicate field="influence" booleanOperator="isIn">
              <Array n="1" type="string">&quot;high&quot;</Array>
             </SimpleSetPredicate>
            </Node>
            <Node id="39">
             <SimpleSetPredicate field="influence" booleanOperator="isIn">
              <Array n="2" type="string">&quot;low&quot;   &quot;medium&quot;</Array>
             </SimpleSetPredicate>
             <Node id="46" score="high">
              <SimpleSetPredicate field="housing" booleanOperator="isIn">
               <Array n="2" type="string">&quot;apartments&quot;   &quot;terraced&quot;</Array>
              </SimpleSetPredicate>
             </Node>
             <Node id="47">
              <SimpleSetPredicate field="housing" booleanOperator="isIn">
               <Array n="2" type="string">&quot;atrium&quot;   &quot;tower&quot;</Array>
              </SimpleSetPredicate>
              <Node id="54" score="low">
               <SimplePredicate field="n" operator="lessOrEqual" value="16.5"/>
              </Node>
              <Node id="55" score="medium">
               <SimplePredicate field="n" operator="greaterThan" value="16.5"/>
              </Node>
             </Node>
            </Node>
           </Node>
           <Node id="31">
            <SimpleSetPredicate field="contact" booleanOperator="isIn">
             <Array n="1" type="string">&quot;low&quot;</Array>
            </SimpleSetPredicate>
            <Node id="40">
             <SimpleSetPredicate field="housing" booleanOperator="isIn">
              <Array n="2" type="string">&quot;apartments&quot;   &quot;terraced&quot;</Array>
             </SimpleSetPredicate>
             <Node id="48" score="high">
              <SimplePredicate field="n" operator="lessOrEqual" value="20"/>
             </Node>
             <Node id="49">
              <SimplePredicate field="n" operator="greaterThan" value="20"/>
              <Node id="56" score="medium">
               <SimplePredicate field="n" operator="lessOrEqual" value="24.5"/>
              </Node>
              <Node id="57" score="low">
               <SimplePredicate field="n" operator="greaterThan" value="24.5"/>
              </Node>
             </Node>
            </Node>
            <Node id="41">
             <SimpleSetPredicate field="housing" booleanOperator="isIn">
              <Array n="2" type="string">&quot;atrium&quot;   &quot;tower&quot;</Array>
             </SimpleSetPredicate>
             <Node id="50" score="medium">
              <SimplePredicate field="n" operator="lessOrEqual" value="24.5"/>
             </Node>
             <Node id="51" score="high">
              <SimplePredicate field="n" operator="greaterThan" value="24.5"/>
             </Node>
            </Node>
           </Node>
          </Node>
          <Node id="25">
           <SimplePredicate field="n" operator="greaterThan" value="44.5"/>
           <Node id="32" score="medium">
            <SimplePredicate field="n" operator="lessOrEqual" value="50"/>
           </Node>
           <Node id="33" score="high">
            <SimplePredicate field="n" operator="greaterThan" value="50"/>
           </Node>
          </Node>
         </Node>
         <Node id="17" score="low">
          <SimplePredicate field="n" operator="greaterThan" value="55.5"/>
         </Node>
        </Node>
       </Node>
       <Node id="7">
        <SimpleSetPredicate field="influence" booleanOperator="isIn">
         <Array n="1" type="string">&quot;medium&quot;</Array>
        </SimpleSetPredicate>
        <Node id="12">
         <SimplePredicate field="n" operator="lessOrEqual" value="37"/>
         <Node id="18" score="high">
          <SimpleSetPredicate field="housing" booleanOperator="isIn">
           <Array n="1" type="string">&quot;atrium&quot;</Array>
          </SimpleSetPredicate>
         </Node>
         <Node id="19">
          <SimpleSetPredicate field="housing" booleanOperator="isIn">
           <Array n="3" type="string">&quot;apartments&quot;   &quot;terraced&quot;   &quot;tower&quot;</Array>
          </SimpleSetPredicate>
          <Node id="26">
           <SimpleSetPredicate field="housing" booleanOperator="isIn">
            <Array n="1" type="string">&quot;terraced&quot;</Array>
           </SimpleSetPredicate>
           <Node id="34">
            <SimplePredicate field="n" operator="lessOrEqual" value="26"/>
            <Node id="42" score="medium">
             <SimplePredicate field="n" operator="lessOrEqual" value="17"/>
            </Node>
            <Node id="43" score="medium">
             <SimplePredicate field="n" operator="greaterThan" value="17"/>
            </Node>
           </Node>
           <Node id="35" score="low">
            <SimplePredicate field="n" operator="greaterThan" value="26"/>
           </Node>
          </Node>
          <Node id="27">
           <SimpleSetPredicate field="housing" booleanOperator="isIn">
            <Array n="3" type="string">&quot;apartments&quot;   &quot;atrium&quot;   &quot;tower&quot;</Array>
           </SimpleSetPredicate>
           <Node id="36">
            <SimplePredicate field="n" operator="lessOrEqual" value="28.5"/>
            <Node id="44">
             <SimpleSetPredicate field="contact" booleanOperator="isIn">
              <Array n="1" type="string">&quot;high&quot;</Array>
             </SimpleSetPredicate>
             <Node id="52" score="low">
              <SimplePredicate field="n" operator="lessOrEqual" value="20"/>
             </Node>
             <Node id="53" score="medium">
              <SimplePredicate field="n" operator="greaterThan" value="20"/>
             </Node>
            </Node>
            <Node id="45" score="medium">
             <SimpleSetPredicate field="contact" booleanOperator="isIn">
              <Array n="1" type="string">&quot;low&quot;</Array>
             </SimpleSetPredicate>
            </Node>
           </Node>
           <Node id="37" score="low">
            <SimplePredicate field="n" operator="greaterThan" value="28.5"/>
           </Node>
          </Node>
         </Node>
        </Node>
        <Node id="13">
         <SimplePredicate field="n" operator="greaterThan" value="37"/>
         <Node id="20">
          <SimpleSetPredicate field="housing" booleanOperator="isIn">
           <Array n="1" type="string">&quot;apartments&quot;</Array>
          </SimpleSetPredicate>
          <Node id="28" score="medium">
           <SimplePredicate field="n" operator="lessOrEqual" value="65.5"/>
          </Node>
          <Node id="29" score="high">
           <SimplePredicate field="n" operator="greaterThan" value="65.5"/>
          </Node>
         </Node>
         <Node id="21" score="high">
          <SimpleSetPredicate field="housing" booleanOperator="isIn">
           <Array n="3" type="string">&quot;atrium&quot;   &quot;terraced&quot;   &quot;tower&quot;</Array>
          </SimpleSetPredicate>
         </Node>
        </Node>
       </Node>
      </Node>
     </Node>
    </TreeModel>
   </Segment>
   <Segment id="8">
    <True/>
    <TreeModel modelName="randomForest_Model" functionName="classification" algorithmName="randomForest" splitCharacteristic="binarySplit">
     <MiningSchema>
      <MiningField name="satisfaction" usageType="predicted"/>
      <MiningField name="housing" usageType="active"/>
      <MiningField name="influence" usageType="active"/>
      <MiningField name="contact" usageType="active"/>
      <MiningField name="n" usageType="active"/>
     </MiningSchema>
     <Node id="1">
      <True/>
      <Node id="2">
       <SimplePredicate field="n" operator="lessOrEqual" value="6.5"/>
       <Node id="4" score="low">
        <SimplePredicate field="n" operator="lessOrEqual" value="4"/>
       </Node>
       <Node id="5">
        <SimplePredicate field="n" operator="greaterThan" value="4"/>
        <Node id="8">
         <SimpleSetPredicate field="contact" booleanOperator="isIn">
          <Array n="1" type="string">&quot;high&quot;</Array>
         </SimpleSetPredicate>
         <Node id="14">
          <SimpleSetPredicate field="housing" booleanOperator="isIn">
           <Array n="1" type="string">&quot;terraced&quot;</Array>
          </SimpleSetPredicate>
          <Node id="24" score="low">
           <SimplePredicate field="n" operator="lessOrEqual" value="5.5"/>
          </Node>
          <Node id="25" score="medium">
           <SimplePredicate field="n" operator="greaterThan" value="5.5"/>
          </Node>
         </Node>
         <Node id="15" score="medium">
          <SimpleSetPredicate field="housing" booleanOperator="isIn">
           <Array n="3" type="string">&quot;apartments&quot;   &quot;atrium&quot;   &quot;tower&quot;</Array>
          </SimpleSetPredicate>
         </Node>
        </Node>
        <Node id="9">
         <SimpleSetPredicate field="contact" booleanOperator="isIn">
          <Array n="1" type="string">&quot;low&quot;</Array>
         </SimpleSetPredicate>
         <Node id="16" score="medium">
          <SimplePredicate field="n" operator="lessOrEqual" value="5.5"/>
         </Node>
         <Node id="17" score="low">
          <SimplePredicate field="n" operator="greaterThan" value="5.5"/>
         </Node>
        </Node>
       </Node>
      </Node>
      <Node id="3">
       <SimplePredicate field="n" operator="greaterThan" value="6.5"/>
       <Node id="6">
        <SimpleSetPredicate field="housing" booleanOperator="isIn">
         <Array n="2" type="string">&quot;atrium&quot;   &quot;terraced&quot;</Array>
        </SimpleSetPredicate>
        <Node id="10">
         <SimpleSetPredicate field="influence" booleanOperator="isIn">
          <Array n="1" type="string">&quot;low&quot;</Array>
         </SimpleSetPredicate>
         <Node id="18" score="low">
          <SimpleSetPredicate field="contact" booleanOperator="isIn">
           <Array n="1" type="string">&quot;high&quot;</Array>
          </SimpleSetPredicate>
         </Node>
         <Node id="19">
          <SimpleSetPredicate field="contact" booleanOperator="isIn">
           <Array n="1" type="string">&quot;low&quot;</Array>
          </SimpleSetPredicate>
          <Node id="26" score="high">
           <SimplePredicate field="n" operator="lessOrEqual" value="11.5"/>
          </Node>
          <Node id="27" score="low">
           <SimplePredicate field="n" operator="greaterThan" value="11.5"/>
          </Node>
         </Node>
        </Node>
        <Node id="11">
         <SimpleSetPredicate field="influence" booleanOperator="isIn">
          <Array n="2" type="string">&quot;high&quot;   &quot;medium&quot;</Array>
         </SimpleSetPredicate>
         <Node id="20">
          <SimpleSetPredicate field="influence" booleanOperator="isIn">
           <Array n="1" type="string">&quot;high&quot;</Array>
          </SimpleSetPredicate>
          <Node id="28" score="low">
           <SimplePredicate field="n" operator="lessOrEqual" value="9"/>
          </Node>
          <Node id="29" score="high">
           <SimplePredicate field="n" operator="greaterThan" value="9"/>
          </Node>
         </Node>
         <Node id="21">
          <SimpleSetPredicate field="influence" booleanOperator="isIn">
           <Array n="2" type="string">&quot;low&quot;   &quot;medium&quot;</Array>
          </SimpleSetPredicate>
          <Node id="30">
           <SimpleSetPredicate field="contact" booleanOperator="isIn">
            <Array n="1" type="string">&quot;high&quot;</Array>
           </SimpleSetPredicate>
           <Node id="36">
            <SimplePredicate field="n" operator="lessOrEqual" value="27.5"/>
            <Node id="46" score="high">
             <SimpleSetPredicate field="housing" booleanOperator="isIn">
              <Array n="1" type="string">&quot;atrium&quot;</Array>
             </SimpleSetPredicate>
            </Node>
            <Node id="47" score="medium">
             <SimpleSetPredicate field="housing" booleanOperator="isIn">
              <Array n="3" type="string">&quot;apartments&quot;   &quot;terraced&quot;   &quot;tower&quot;</Array>
             </SimpleSetPredicate>
            </Node>
           </Node>
           <Node id="37" score="low">
            <SimplePredicate field="n" operator="greaterThan" value="27.5"/>
           </Node>
          </Node>
          <Node id="31">
           <SimpleSetPredicate field="contact" booleanOperator="isIn">
            <Array n="1" type="string">&quot;low&quot;</Array>
           </SimpleSetPredicate>
           <Node id="38">
            <SimplePredicate field="n" operator="lessOrEqual" value="14"/>
            <Node id="48" score="medium">
             <SimplePredicate field="n" operator="lessOrEqual" value="10.5"/>
            </Node>
            <Node id="49" score="high">
             <SimplePredicate field="n" operator="greaterThan" value="10.5"/>
            </Node>
           </Node>
           <Node id="39" score="low">
            <SimplePredicate field="n" operator="greaterThan" value="14"/>
           </Node>
          </Node>
         </Node>
        </Node>
       </Node>
       <Node id="7">
        <SimpleSetPredicate field="housing" booleanOperator="isIn">
         <Array n="2" type="string">&quot;apartments&quot;   &quot;tower&quot;</Array>
        </SimpleSetPredicate>
        <Node id="12" score="low">
         <SimplePredicate field="n" operator="lessOrEqual" value="16"/>
        </Node>
        <Node id="13">
         <SimplePredicate field="n" operator="greaterThan" value="16"/>
         <Node id="22">
          <SimpleSetPredicate field="influence" booleanOperator="isIn">
           <Array n="1" type="string">&quot;high&quot;</Array>
          </SimpleSetPredicate>
          <Node id="32" score="high">
           <SimplePredicate field="n" operator="lessOrEqual" value="24.5"/>
          </Node>
          <Node id="33">
           <SimplePredicate field="n" operator="greaterThan" value="24.5"/>
           <Node id="40" score="low">
            <SimplePredicate field="n" operator="lessOrEqual" value="44"/>
           </Node>
           <Node id="41" score="high">
            <SimplePredicate field="n" operator="greaterThan" value="44"/>
           </Node>
          </Node>
         </Node>
         <Node id="23">
          <SimpleSetPredicate field="influence" booleanOperator="isIn">
           <Array n="2" type="string">&quot;low&quot;   &quot;medium&quot;</Array>
          </SimpleSetPredicate>
          <Node id="34">
           <SimpleSetPredicate field="influence" booleanOperator="isIn">
            <Array n="1" type="string">&quot;low&quot;</Array>
           </SimpleSetPredicate>
           <Node id="42">
            <SimplePredicate field="n" operator="lessOrEqual" value="53.5"/>
            <Node id="50">
             <SimplePredicate field="n" operator="lessOrEqual" value="25.5"/>
             <Node id="56" score="medium">
              <SimpleSetPredicate field="contact" booleanOperator="isIn">
               <Array n="1" type="string">&quot;high&quot;</Array>
              </SimpleSetPredicate>
             </Node>
             <Node id="57">
              <SimpleSetPredicate field="contact" booleanOperator="isIn">
               <Array n="1" type="string">&quot;low&quot;</Array>
              </SimpleSetPredicate>
              <Node id="60" score="high">
               <SimplePredicate field="n" operator="lessOrEqual" value="19"/>
              </Node>
              <Node id="61">
               <SimplePredicate field="n" operator="greaterThan" value="19"/>
               <Node id="64" score="medium">
                <SimplePredicate field="n" operator="lessOrEqual" value="22"/>
               </Node>
               <Node id="65" score="medium">
                <SimplePredicate field="n" operator="greaterThan" value="22"/>
               </Node>
              </Node>
             </Node>
            </Node>
            <Node id="51">
             <SimplePredicate field="n" operator="greaterThan" value="25.5"/>
             <Node id="58">
              <SimpleSetPredicate field="contact" booleanOperator="isIn">
               <Array n="1" type="string">&quot;high&quot;</Array>
              </SimpleSetPredicate>
              <Node id="62" score="high">
               <SimplePredicate field="n" operator="lessOrEqual" value="44.5"/>
              </Node>
              <Node id="63" score="medium">
               <SimplePredicate field="n" operator="greaterThan" value="44.5"/>
              </Node>
             </Node>
             <Node id="59" score="high">
              <SimpleSetPredicate field="contact" booleanOperator="isIn">
               <Array n="1" type="string">&quot;low&quot;</Array>
              </SimpleSetPredicate>
             </Node>
            </Node>
           </Node>
           <Node id="43" score="low">
            <SimplePredicate field="n" operator="greaterThan" value="53.5"/>
           </Node>
          </Node>
          <Node id="35">
           <SimpleSetPredicate field="influence" booleanOperator="isIn">
            <Array n="2" type="string">&quot;high&quot;   &quot;medium&quot;</Array>
           </SimpleSetPredicate>
           <Node id="44">
            <SimpleSetPredicate field="contact" booleanOperator="isIn">
             <Array n="1" type="string">&quot;high&quot;</Array>
            </SimpleSetPredicate>
            <Node id="52" score="medium">
             <SimpleSetPredicate field="housing" booleanOperator="isIn">
              <Array n="1" type="string">&quot;apartments&quot;</Array>
             </SimpleSetPredicate>
            </Node>
            <Node id="53" score="low">
             <SimpleSetPredicate field="housing" booleanOperator="isIn">
              <Array n="3" type="string">&quot;atrium&quot;   &quot;terraced&quot;   &quot;tower&quot;</Array>
             </SimpleSetPredicate>
            </Node>
           </Node>
           <Node id="45">
            <SimpleSetPredicate field="contact" booleanOperator="isIn">
             <Array n="1" type="string">&quot;low&quot;</Array>
            </SimpleSetPredicate>
            <Node id="54" score="medium">
             <SimplePredicate field="n" operator="lessOrEqual" value="28"/>
            </Node>
            <Node id="55" score="low">
             <SimplePredicate field="n" operator="greaterThan" value="28"/>
            </Node>
           </Node>
          </Node>
         </Node>
        </Node>
       </Node>
      </Node>
     </Node>
    </TreeModel>
   </Segment>
   <Segment id="9">
    <True/>
    <TreeModel modelName="randomForest_Model" functionName="classification" algorithmName="randomForest" splitCharacteristic="binarySplit">
     <MiningSchema>
      <MiningField name="satisfaction" usageType="predicted"/>
      <MiningField name="housing" usageType="active"/>
      <MiningField name="influence" usageType="active"/>
      <MiningField name="contact" usageType="active"/>
      <MiningField name="n" usageType="active"/>
     </MiningSchema>
     <Node id="1">
      <True/>
      <Node id="2">
       <SimpleSetPredicate field="influence" booleanOperator="isIn">
        <Array n="1" type="string">&quot;high&quot;</Array>
       </SimpleSetPredicate>
       <Node id="4">
        <SimplePredicate field="n" operator="lessOrEqual" value="8"/>
        <Node id="8">
         <SimpleSetPredicate field="contact" booleanOperator="isIn">
          <Array n="1" type="string">&quot;high&quot;</Array>
         </SimpleSetPredicate>
         <Node id="16" score="low">
          <SimplePredicate field="n" operator="lessOrEqual" value="6"/>
         </Node>
         <Node id="17" score="low">
          <SimplePredicate field="n" operator="greaterThan" value="6"/>
         </Node>
        </Node>
        <Node id="9">
         <SimpleSetPredicate field="contact" booleanOperator="isIn">
          <Array n="1" type="string">&quot;low&quot;</Array>
         </SimpleSetPredicate>
         <Node id="18" score="low">
          <SimplePredicate field="n" operator="lessOrEqual" value="6.5"/>
         </Node>
         <Node id="19" score="low">
          <SimplePredicate field="n" operator="greaterThan" value="6.5"/>
         </Node>
        </Node>
       </Node>
       <Node id="5">
        <SimplePredicate field="n" operator="greaterThan" value="8"/>
        <Node id="10" score="high">
         <SimpleSetPredicate field="housing" booleanOperator="isIn">
          <Array n="2" type="string">&quot;atrium&quot;   &quot;terraced&quot;</Array>
         </SimpleSetPredicate>
        </Node>
        <Node id="11">
         <SimpleSetPredicate field="housing" booleanOperator="isIn">
          <Array n="2" type="string">&quot;apartments&quot;   &quot;tower&quot;</Array>
         </SimpleSetPredicate>
         <Node id="20">
          <SimpleSetPredicate field="contact" booleanOperator="isIn">
           <Array n="1" type="string">&quot;high&quot;</Array>
          </SimpleSetPredicate>
          <Node id="28" score="low">
           <SimplePredicate field="n" operator="lessOrEqual" value="19"/>
          </Node>
          <Node id="29">
           <SimplePredicate field="n" operator="greaterThan" value="19"/>
           <Node id="40">
            <SimpleSetPredicate field="housing" booleanOperator="isIn">
             <Array n="1" type="string">&quot;apartments&quot;</Array>
            </SimpleSetPredicate>
            <Node id="50" score="medium">
             <SimplePredicate field="n" operator="lessOrEqual" value="43.5"/>
            </Node>
            <Node id="51" score="high">
             <SimplePredicate field="n" operator="greaterThan" value="43.5"/>
            </Node>
           </Node>
           <Node id="41" score="high">
            <SimpleSetPredicate field="housing" booleanOperator="isIn">
             <Array n="3" type="string">&quot;atrium&quot;   &quot;terraced&quot;   &quot;tower&quot;</Array>
            </SimpleSetPredicate>
           </Node>
          </Node>
         </Node>
         <Node id="21">
          <SimpleSetPredicate field="contact" booleanOperator="isIn">
           <Array n="1" type="string">&quot;low&quot;</Array>
          </SimpleSetPredicate>
          <Node id="30" score="low">
           <SimplePredicate field="n" operator="lessOrEqual" value="22"/>
          </Node>
          <Node id="31" score="low">
           <SimplePredicate field="n" operator="greaterThan" value="22"/>
          </Node>
         </Node>
        </Node>
       </Node>
      </Node>
      <Node id="3">
       <SimpleSetPredicate field="influence" booleanOperator="isIn">
        <Array n="2" type="string">&quot;low&quot;   &quot;medium&quot;</Array>
       </SimpleSetPredicate>
       <Node id="6">
        <SimpleSetPredicate field="housing" booleanOperator="isIn">
         <Array n="2" type="string">&quot;atrium&quot;   &quot;terraced&quot;</Array>
        </SimpleSetPredicate>
        <Node id="12" score="high">
         <SimplePredicate field="n" operator="lessOrEqual" value="7.5"/>
        </Node>
        <Node id="13">
         <SimplePredicate field="n" operator="greaterThan" value="7.5"/>
         <Node id="22">
          <SimpleSetPredicate field="contact" booleanOperator="isIn">
           <Array n="1" type="string">&quot;high&quot;</Array>
          </SimpleSetPredicate>
          <Node id="32" score="high">
           <SimpleSetPredicate field="housing" booleanOperator="isIn">
            <Array n="1" type="string">&quot;atrium&quot;</Array>
           </SimpleSetPredicate>
          </Node>
          <Node id="33">
           <SimpleSetPredicate field="housing" booleanOperator="isIn">
            <Array n="3" type="string">&quot;apartments&quot;   &quot;terraced&quot;   &quot;tower&quot;</Array>
           </SimpleSetPredicate>
           <Node id="42">
            <SimpleSetPredicate field="influence" booleanOperator="isIn">
             <Array n="1" type="string">&quot;low&quot;</Array>
            </SimpleSetPredicate>
            <Node id="52" score="high">
             <SimplePredicate field="n" operator="lessOrEqual" value="18"/>
            </Node>
            <Node id="53" score="medium">
             <SimplePredicate field="n" operator="greaterThan" value="18"/>
            </Node>
           </Node>
           <Node id="43">
            <SimpleSetPredicate field="influence" booleanOperator="isIn">
             <Array n="2" type="string">&quot;high&quot;   &quot;medium&quot;</Array>
            </SimpleSetPredicate>
            <Node id="54" score="medium">
             <SimplePredicate field="n" operator="lessOrEqual" value="26"/>
            </Node>
            <Node id="55" score="low">
             <SimplePredicate field="n" operator="greaterThan" value="26"/>
            </Node>
           </Node>
          </Node>
         </Node>
         <Node id="23">
          <SimpleSetPredicate field="contact" booleanOperator="isIn">
           <Array n="1" type="string">&quot;low&quot;</Array>
          </SimpleSetPredicate>
          <Node id="34">
           <SimplePredicate field="n" operator="lessOrEqual" value="14"/>
           <Node id="44" score="low">
            <SimplePredicate field="n" operator="lessOrEqual" value="8.5"/>
           </Node>
           <Node id="45">
            <SimplePredicate field="n" operator="greaterThan" value="8.5"/>
            <Node id="56" score="medium">
             <SimplePredicate field="n" operator="lessOrEqual" value="9.5"/>
            </Node>
            <Node id="57">
             <SimplePredicate field="n" operator="greaterThan" value="9.5"/>
             <Node id="60" score="high">
              <SimplePredicate field="n" operator="lessOrEqual" value="11.5"/>
             </Node>
             <Node id="61" score="medium">
              <SimplePredicate field="n" operator="greaterThan" value="11.5"/>
             </Node>
            </Node>
           </Node>
          </Node>
          <Node id="35" score="low">
           <SimplePredicate field="n" operator="greaterThan" value="14"/>
          </Node>
         </Node>
        </Node>
       </Node>
       <Node id="7">
        <SimpleSetPredicate field="housing" booleanOperator="isIn">
         <Array n="2" type="string">&quot;apartments&quot;   &quot;tower&quot;</Array>
        </SimpleSetPredicate>
        <Node id="14">
         <SimplePredicate field="n" operator="lessOrEqual" value="25.5"/>
         <Node id="24" score="high">
          <SimplePredicate field="n" operator="lessOrEqual" value="18"/>
         </Node>
         <Node id="25" score="medium">
          <SimplePredicate field="n" operator="greaterThan" value="18"/>
         </Node>
        </Node>
        <Node id="15">
         <SimplePredicate field="n" operator="greaterThan" value="25.5"/>
         <Node id="26">
          <SimplePredicate field="n" operator="lessOrEqual" value="41.5"/>
          <Node id="36">
           <SimplePredicate field="n" operator="lessOrEqual" value="37"/>
           <Node id="46" score="high">
            <SimplePredicate field="n" operator="lessOrEqual" value="31"/>
           </Node>
           <Node id="47" score="low">
            <SimplePredicate field="n" operator="greaterThan" value="31"/>
           </Node>
          </Node>
          <Node id="37" score="high">
           <SimplePredicate field="n" operator="greaterThan" value="37"/>
          </Node>
         </Node>
         <Node id="27">
          <SimplePredicate field="n" operator="greaterThan" value="41.5"/>
          <Node id="38">
           <SimplePredicate field="n" operator="lessOrEqual" value="82"/>
           <Node id="48">
            <SimplePredicate field="n" operator="lessOrEqual" value="62"/>
            <Node id="58" score="low">
             <SimplePredicate field="n" operator="lessOrEqual" value="44"/>
            </Node>
            <Node id="59" score="medium">
             <SimplePredicate field="n" operator="greaterThan" value="44"/>
            </Node>
           </Node>
           <Node id="49" score="low">
            <SimplePredicate field="n" operator="greaterThan" value="62"/>
           </Node>
          </Node>
          <Node id="39" score="high">
           <SimplePredicate field="n" operator="greaterThan" value="82"/>
          </Node>
         </Node>
        </Node>
       </Node>
      </Node>
     </Node>
    </TreeModel>
   </Segment>
   <Segment id="10">
    <True/>
    <TreeModel modelName="randomForest_Model" functionName="classification" algorithmName="randomForest" splitCharacteristic="binarySplit">
     <MiningSchema>
      <MiningField name="satisfaction" usageType="predicted"/>
      <MiningField name="housing" usageType="active"/>
      <MiningField name="influence" usageType="active"/>
      <MiningField name="contact" usageType="active"/>
      <MiningField name="n" usageType="active"/>
     </MiningSchema>
     <Node id="1">
      <True/>
      <Node id="2">
       <SimpleSetPredicate field="housing" booleanOperator="isIn">
        <Array n="2" type="string">&quot;apartments&quot;   &quot;atrium&quot;</Array>
       </SimpleSetPredicate>
       <Node id="4">
        <SimplePredicate field="n" operator="lessOrEqual" value="15"/>
        <Node id="8">
         <SimpleSetPredicate field="influence" booleanOperator="isIn">
          <Array n="2" type="string">&quot;high&quot;   &quot;low&quot;</Array>
         </SimpleSetPredicate>
         <Node id="16">
          <SimpleSetPredicate field="influence" booleanOperator="isIn">
           <Array n="1" type="string">&quot;high&quot;</Array>
          </SimpleSetPredicate>
          <Node id="26">
           <SimpleSetPredicate field="contact" booleanOperator="isIn">
            <Array n="1" type="string">&quot;high&quot;</Array>
           </SimpleSetPredicate>
           <Node id="38" score="low">
            <SimplePredicate field="n" operator="lessOrEqual" value="8.5"/>
           </Node>
           <Node id="39" score="medium">
            <SimplePredicate field="n" operator="greaterThan" value="8.5"/>
           </Node>
          </Node>
          <Node id="27" score="low">
           <SimpleSetPredicate field="contact" booleanOperator="isIn">
            <Array n="1" type="string">&quot;low&quot;</Array>
           </SimpleSetPredicate>
          </Node>
         </Node>
         <Node id="17">
          <SimpleSetPredicate field="influence" booleanOperator="isIn">
           <Array n="2" type="string">&quot;low&quot;   &quot;medium&quot;</Array>
          </SimpleSetPredicate>
          <Node id="28" score="high">
           <SimplePredicate field="n" operator="lessOrEqual" value="11.5"/>
          </Node>
          <Node id="29" score="low">
           <SimplePredicate field="n" operator="greaterThan" value="11.5"/>
          </Node>
         </Node>
        </Node>
        <Node id="9" score="low">
         <SimpleSetPredicate field="influence" booleanOperator="isIn">
          <Array n="1" type="string">&quot;medium&quot;</Array>
         </SimpleSetPredicate>
        </Node>
       </Node>
       <Node id="5">
        <SimplePredicate field="n" operator="greaterThan" value="15"/>
        <Node id="10">
         <SimpleSetPredicate field="contact" booleanOperator="isIn">
          <Array n="1" type="string">&quot;high&quot;</Array>
         </SimpleSetPredicate>
         <Node id="18">
          <SimplePredicate field="n" operator="lessOrEqual" value="45.5"/>
          <Node id="30" score="high">
           <SimplePredicate field="n" operator="lessOrEqual" value="22"/>
          </Node>
          <Node id="31" score="medium">
           <SimplePredicate field="n" operator="greaterThan" value="22"/>
          </Node>
         </Node>
         <Node id="19">
          <SimplePredicate field="n" operator="greaterThan" value="45.5"/>
          <Node id="32" score="low">
           <SimpleSetPredicate field="influence" booleanOperator="isIn">
            <Array n="1" type="string">&quot;low&quot;</Array>
           </SimpleSetPredicate>
          </Node>
          <Node id="33" score="high">
           <SimpleSetPredicate field="influence" booleanOperator="isIn">
            <Array n="2" type="string">&quot;high&quot;   &quot;medium&quot;</Array>
           </SimpleSetPredicate>
          </Node>
         </Node>
        </Node>
        <Node id="11">
         <SimpleSetPredicate field="contact" booleanOperator="isIn">
          <Array n="1" type="string">&quot;low&quot;</Array>
         </SimpleSetPredicate>
         <Node id="20" score="high">
          <SimplePredicate field="n" operator="lessOrEqual" value="17.5"/>
         </Node>
         <Node id="21" score="medium">
          <SimplePredicate field="n" operator="greaterThan" value="17.5"/>
         </Node>
        </Node>
       </Node>
      </Node>
      <Node id="3">
       <SimpleSetPredicate field="housing" booleanOperator="isIn">
        <Array n="2" type="string">&quot;terraced&quot;   &quot;tower&quot;</Array>
       </SimpleSetPredicate>
       <Node id="6">
        <SimplePredicate field="n" operator="lessOrEqual" value="35"/>
        <Node id="12">
         <SimpleSetPredicate field="housing" booleanOperator="isIn">
          <Array n="1" type="string">&quot;terraced&quot;</Array>
         </SimpleSetPredicate>
         <Node id="22" score="high">
          <SimpleSetPredicate field="contact" booleanOperator="isIn">
           <Array n="1" type="string">&quot;high&quot;</Array>
          </SimpleSetPredicate>
         </Node>
         <Node id="23">
          <SimpleSetPredicate field="contact" booleanOperator="isIn">
           <Array n="1" type="string">&quot;low&quot;</Array>
          </SimpleSetPredicate>
          <Node id="34">
           <SimplePredicate field="n" operator="lessOrEqual" value="14"/>
           <Node id="40">
            <SimplePredicate field="n" operator="lessOrEqual" value="12"/>
            <Node id="42" score="high">
             <SimplePredicate field="n" operator="lessOrEqual" value="9"/>
            </Node>
            <Node id="43" score="high">
             <SimplePredicate field="n" operator="greaterThan" value="9"/>
            </Node>
           </Node>
           <Node id="41" score="high">
            <SimplePredicate field="n" operator="greaterThan" value="12"/>
           </Node>
          </Node>
          <Node id="35" score="low">
           <SimplePredicate field="n" operator="greaterThan" value="14"/>
          </Node>
         </Node>
        </Node>
        <Node id="13">
         <SimpleSetPredicate field="housing" booleanOperator="isIn">
          <Array n="3" type="string">&quot;apartments&quot;   &quot;atrium&quot;   &quot;tower&quot;</Array>
         </SimpleSetPredicate>
         <Node id="24" score="low">
          <SimplePredicate field="n" operator="lessOrEqual" value="22"/>
         </Node>
         <Node id="25">
          <SimplePredicate field="n" operator="greaterThan" value="22"/>
          <Node id="36" score="high">
           <SimplePredicate field="n" operator="lessOrEqual" value="28.5"/>
          </Node>
          <Node id="37" score="low">
           <SimplePredicate field="n" operator="greaterThan" value="28.5"/>
          </Node>
         </Node>
        </Node>
       </Node>
       <Node id="7">
        <SimplePredicate field="n" operator="greaterThan" value="35"/>
        <Node id="14" score="low">
         <SimpleSetPredicate field="housing" booleanOperator="isIn">
          <Array n="1" type="string">&quot;terraced&quot;</Array>
         </SimpleSetPredicate>
        </Node>
        <Node id="15" score="high">
